nep4   2 O Hf
cutoff 6.0 6.0 100 100
n_max  4 4
basis_size 12 12
l_max  4 2 1
ANN    100 0
-0.7185035506069781
0.030342674086428503
-0.09580065198124116
0.44107412663024637
0.029360770307179707
0.16363078387587368
-0.5131416129547289
0.3367206560742763
0.3941657043352324
0.3257698413205756
0.32620205913216865
0.6236965626925683
0.4681479948006532
1.3190015316278911
0.7245001874274417
1.3048219942186627
0.5521042183949728
0.6271514005302828
-0.11728226560706399
0.5588099561450602
0.8009537206250325
-0.14374792071533032
0.43464315478888454
0.5536114222394063
0.48190205382441
-0.06621679019591185
-0.08391216522338242
-0.06083947512282858
0.34323481673186695
0.6566083014029102
0.10909272315276783
0.13109895738440333
0.0904748883392905
-0.03805221675182698
0.2171482954919355
1.0103135072115716
0.20722594691335627
0.7678755533252767
-1.6671063092120673
0.1412827451450616
-0.12344339623679432
0.004878567539721025
-0.21612249115634993
0.15375717308645398
0.09846449837284552
-0.7962005812522043
0.3340893891583746
-0.8149904648369163
-0.22796195740335387
0.13168023611351923
-0.9454643045612681
0.4040979227682017
0.5533143271291724
0.08844209055315493
0.29139779628368195
-0.5485489137062439
0.005521653313980378
-0.6427097662070441
-0.22319343055678728
0.29783757978678077
1.944385893373923
0.6639503219222208
1.967658074903219
0.6161260656972175
-0.3192707553040614
-1.2765477068100342
-1.661263991993889
-1.0204522697120695
-1.1945001604355845
-0.6319542534181505
0.39324574287947384
0.6244825294075493
0.28397918451836734
-0.2867375498288025
0.699137438687791
-0.15811800541152823
-0.4047665363160883
0.09918314245989632
0.12531003485320552
0.1335684606086915
-0.6740913256865169
0.33074729068280334
0.24546327153440117
0.1643825165387604
-0.23094396092396294
0.03286321311032195
0.5627576289723931
0.430348289745966
-0.2898279453929268
0.14744767475077047
0.35794453951562394
0.1856811210077226
0.07352865298991006
-0.27434681971429714
0.42262736238969645
0.6476279595442722
0.3480256202025607
0.6229322316631192
0.08880594491762375
-0.2614463085663212
-0.12871369333280036
-0.3986233890736818
-0.04299617956482534
-0.3653703410094128
0.6764754168444402
-0.581332989592602
-0.6809068859682599
-0.5296797620425866
0.4189938650722175
-0.4210606650763105
-0.0363666838292506
0.3943259250475031
-0.016028462430234713
-0.34148559557202546
-0.17335063884225113
0.5914621149395396
-0.4669077725768056
-0.15165511955024108
-0.034607336545630946
0.1343079624213933
0.014988039697694857
-0.24393292352221035
-0.9077930077858841
0.21751902320571798
-0.09530001805762821
-0.6891274425838193
-0.09036452916778492
-0.03218843965473113
0.22488012945040603
-0.464708648305585
-1.1084728534008832
-0.36058673201481056
-0.8009297301684106
0.2429356109501925
-0.32864328827875955
0.3914871146784666
0.9071245416934718
0.03493475206954056
0.2497832191899714
-0.5336475604113955
0.679172577490711
0.23868815915181815
0.8178038905609549
-1.6041446937168324
0.3743407003147461
-0.19130890171789747
-0.544413485204188
0.0318470727558093
0.5122812751177394
0.21062112510845732
-0.16405458657696959
-0.08044429198008039
0.1726400136826878
-0.080961364890449
-0.10131045271886961
0.036910167389102806
-0.1624714448205477
-0.1398161156521567
0.20691351669348937
0.013771302389339359
0.09565948771522409
-0.40134344873432537
0.07065572506031473
0.012245331425615593
0.26305263550533886
0.5555461411615719
0.6797448418374115
1.0303653636621644
1.884737094203733
-0.23384639767913398
-0.8095526304656282
-1.0214065957940859
-0.5015255873598153
-0.18770019273696323
0.523127306367711
1.6221313941629254
1.5489563732768388
1.9158318722796874
-0.8719343483881027
0.2832759645940744
-0.31570612809339593
-0.33569943124008306
0.49311146718794774
0.45211010960264364
0.23169547529905093
0.601369627249306
0.5401857165575046
0.7049058050102418
-0.05976349492540798
-0.02143633349581478
0.2684112323827847
0.9878127290514717
-0.6086978647059195
0.5124203348066403
-0.0639394449238618
0.3993419653278904
0.3820522140878012
0.5130128730378564
0.14320997127566307
-0.2365016150652249
-0.10585772857442673
-0.5086011858252888
-0.8541015535542273
1.4742528170996294
-0.8104397836467202
-0.483236972517283
0.27449617739287263
0.2848595556780975
0.9029621365432041
0.31448809225209295
0.09917860375703123
0.6494516458458706
0.819246743059654
-0.8082465092607071
0.14457779082273056
0.6129322307533828
1.2333805631638832
0.41967693024060687
-0.1383249933009068
0.4487278382719234
-0.12395239191852074
1.3150941880572427
-1.7622091860421385
-0.17648252306335696
0.4056700749090823
-0.30142811274958414
1.5575436865534993
1.6090399989019455
-0.3053007040777973
1.881404449859308
0.4750202087449275
1.8214228753922648
-0.7508234609372036
0.13530743801216014
1.152584848526542
-1.156387948818602
-0.23028817328619938
-0.18629974631129526
-1.1353424896608078
1.6936649694617887
0.8002056268205419
-0.003758511457674977
0.18163770635684678
-0.5262125499004262
0.12400420536341247
0.9396330986357696
0.7526909409489113
0.5011575019360193
-0.24741751947250415
0.23251725554955952
0.47667491645376325
1.399601271332422
-0.3989931687979733
0.09570227083561783
-0.08751690973258852
-0.6774298899106121
0.8236260674377273
-1.1217425746463736
0.27542044147705663
-0.17980503311684626
-0.7922864727892459
1.0738675344041133
-0.20707941620913953
-0.05284798356974234
-0.08885566105514996
-0.1637429717514554
0.787117157034196
-0.7527146157866482
0.025521725917059663
-0.0384612945904364
0.09543393133422859
-0.20729193061176784
0.02616158004022945
-2.331327403177594
1.3562665842731796
0.033015888205595374
0.11728962471111291
-0.15692451932624438
-0.4838755843586533
-0.5641945680131866
1.0180255990970604
0.49273538594490207
0.7106040199832954
-1.971307104809175
0.2018286523345719
-0.035368243562417474
-0.47299638773102376
-0.10126992528019188
0.3187688288437765
0.16033507278299222
-0.5876829210526333
0.13777905353414932
0.1473210791864712
-0.5103032305307024
0.14098046135143885
-0.15583835472980026
-0.08132529464565862
-0.0017446306812135036
0.05040029764644328
0.06016708679780018
-0.20618660926577367
-0.17942308715631575
-0.06229355326269167
-0.29561750591151786
0.5415230967878567
0.537105911175951
0.939727525279281
1.3642653832756464
-0.2746534055602647
-0.0668518346546476
-0.9496017617215883
-1.0512722057976682
-0.6586359541015286
-0.37202910043753473
0.27446065131997044
-1.5789532502446804
0.12932289281515585
-0.7135900051576363
1.2186853730182754
0.13159468954640152
-0.3010499073147447
-0.8625307726490006
0.17182394501557752
-0.438499735934177
0.18947172161269496
0.7735817132347954
-0.0469325673661222
0.9185601583184
0.32561317663108713
0.7375494885514711
1.4899080132449156
0.02010093217813457
0.3679715110029301
0.1998214228633327
0.717589109819359
0.5951632773181458
0.17714843469899874
0.8090872127971676
0.5765535679045776
0.22730619433324262
-1.8358286134085087
0.033606258556954975
-0.9965943024912888
1.3157396069503553
0.9948834023782936
1.0340100417889764
0.8964809920310715
0.10044265528360709
0.4125389900901059
0.28597087439884705
0.7524286234795171
0.21117167073704413
0.6788561071815589
-1.616654064250085
0.5933157346948877
-0.45902955019732766
-0.9061939507071354
0.004756017041099431
0.1826562674635285
0.1267347980955406
0.26571526148616376
-0.31301260911113843
0.5243770154947659
-0.5979983313794297
-0.1984264248796931
0.29865877463905144
0.09077953667595817
-0.9203129869488825
0.6408131417375248
-0.0420360181651342
-0.1908325714412127
-0.5439505676884219
0.2201757826377491
0.2535693525884874
0.024739581798386433
-0.2203658801102191
0.3977638057790302
-0.7840822235603023
1.3002979250080948
-0.24956577854925904
-0.4135275080358943
-0.44123546238791833
-0.24987020292782888
0.9698364483333781
0.631622377572615
-0.7125835719267184
-0.7539557491828379
-0.5666337365078049
0.5061489184023146
-0.551817053117207
-0.15349570373928126
0.3891072130851927
-0.0022035899935910186
-0.2661890365312646
-0.20287636141977758
0.38435819572348995
-0.5429680251725942
0.006121942687536289
-0.10285332551560837
-0.02605692241761121
-0.07092324568118234
-0.24890071413956477
-0.8300426092255234
0.22898984699241468
-0.18587349829607638
-0.9504419972841697
-0.05565573314557493
-0.058638930123880204
0.1819954454211122
-0.4283284947226172
-1.0194135562836286
-0.2164306183092486
-0.881941780496427
0.2769117565360575
-0.436894828496664
-0.09340910053872872
0.5387195480897565
0.20610822815329802
0.20878432367086894
-0.5460518405232425
1.290599557985433
0.5611304098891482
0.7332266102106506
-0.5721013197115183
0.19013748543494083
0.5461348407707087
0.8435735176170281
-0.141253340751359
0.37216852552871077
0.04567945881104509
-0.4066634736810154
0.5932631824895034
-0.7725137162903886
-0.04888791424482123
-0.21380802907465835
-0.7045122512233062
0.4218185316858042
0.21035516012341599
-0.2038048492385129
-0.10015200907625434
-0.2862197395847684
0.5010593047120551
-0.5864099833292229
-0.18037469434446893
0.32773925412220517
0.4415567980171926
-0.29027274475950154
0.90547108188037
-1.3430327453286768
0.5307994426321649
-0.23585985728032574
-0.48252525566543103
0.1641749293605927
-0.5154069470581766
-0.3878974325973087
-1.3386364265560988
-1.1887444626830843
-1.236763851115044
0.9100553228975927
-0.2974712873042203
0.34269231026498526
0.4356283436262093
-0.23295174241712932
-0.3484652407723463
-0.17008603374442985
-0.35675807112037794
-0.22631369896976639
-1.0047120547576982
-0.04733024863386332
0.08495341645873744
-0.6868157754819837
-0.8542074447298238
0.3843776691330161
-0.8395847833452038
-0.0920641643952661
-0.6742662036665569
-0.3345057948160403
-0.7396688413725955
-0.21281755429502536
0.08476065205330467
-0.2951408339658079
0.40154772185139975
0.9194925618183362
0.05016763230600919
0.18507857056682303
0.41959280881331085
-0.3341611095729771
-0.5623858906581507
-1.0129617725269233
-1.0170441596079334
-1.4432302337765677
-1.0921262943809824
-1.1963521552814884
0.8392237797321266
-0.1900763110949391
0.34654958413255976
0.5198708714508152
-0.29103541772403324
-0.4826142968499656
-0.2965573789769658
-0.3478094088133291
-0.1300415909973376
-1.0543204624901215
0.026649844497957088
-0.010263217196845335
-0.7346798219320211
-0.8852187163824912
0.37431898747455744
-0.7068530375555248
-0.17790365276093179
-0.9950915720770194
-0.11017611273908454
-0.6312752869455175
-0.28970432384548717
-0.14231982562452858
-0.0792411834205201
0.2647735566583789
1.1435019617464282
-0.39005024631457036
0.06629638583214584
0.2132439728837562
-0.2698808736176107
-0.5681894786468239
-1.1718897120645633
-0.944803680203883
0.831914890955128
0.9509774362524334
0.733375891007952
-0.17024636077599176
0.27468096446575657
0.5873190705505891
1.2253757524597917
-0.044855476493163154
0.10969933584390555
0.15162683240309674
-0.4130525926220841
1.0794963662434598
-1.3190117477341454
0.024419935438269952
0.10807447154233993
-0.21340156255555043
0.8584246094704481
0.24056376818129607
-0.1735610114088172
0.1665756676887684
0.20233692657283706
1.6277751777801301
-0.7126481677753501
0.34583577502059654
1.1505754182908179
-0.4163567779718193
-0.5855028015650261
0.2513625877312925
-2.0295808629563417
1.4445101456152922
0.37695466534576194
0.1415714985796547
0.15662458161071693
-0.39326509227680095
-0.4575615433090278
-1.192651890324203
-0.32711549651496835
-0.5379335608846219
-0.1139044061798369
-0.102214230995661
-0.13346666612730804
-0.16678309720725099
-0.03684130859893877
-0.5332022823818211
0.09445413548659896
0.06516667538464034
-0.05396635776730539
0.2118581065840346
0.19688357308871943
0.40586920268808274
0.15852610882688897
-0.15665127496768946
0.22753302329881714
-0.10208122653441887
0.3013069916110756
0.32999664476311924
-0.49060962478502107
0.22918879460796526
-0.24796171932207595
-0.32545522070107424
-0.27029313053434845
-0.011200697148230186
-0.18801389058083745
0.7258468375150927
0.2657892207806548
0.6279043998052284
0.6959109303376482
0.1482570650018253
0.2581845498223307
0.7969816117910746
1.113482145494869
0.5389788697075556
0.7129071522950723
-1.4003424891191314
-0.3257041901722921
0.15287010339343804
0.06899165579022758
-0.1963222759319419
0.10193446767211223
0.12361259498922943
-0.47042020461655465
0.3538315895397946
-0.5699224702799848
-0.1101574630579309
-0.033194540807202806
-0.9433620398637245
0.16907159189003396
0.6488261163747098
-0.202850026263821
0.07211260923678228
-0.6532407788671831
-0.26005879861126685
-0.4950081174080515
-0.4202426747394462
0.5360391866910624
1.2691816022736142
0.37128643330304417
1.7938808389164482
0.3821528843019997
0.2458166481206729
-0.9621997833572373
-1.4522469436115328
-1.1121123789322
-1.3771917861941143
-0.8838386896187391
-0.994747467349466
-0.12097089089835811
-0.63112065156855
0.7860219471808815
-0.11886723189676711
-0.0031398656345899985
0.20752963192071627
0.05534659688414041
-0.5329291383722037
-0.03507592004651389
0.6157842276704601
-0.007177577622680902
0.2493902016965228
0.1915870625633617
0.3475303717299038
0.6406322270866194
-0.18973176620781507
0.038176526232132975
-0.2615734308374228
0.08175109034883353
0.20507881267534844
-0.3072231758400196
0.3384117447124188
0.04263609262324376
-0.06550748453308469
-0.9746621459448986
-0.38509751233828926
-1.108078299053554
-0.6524001053815343
0.4995596804423823
0.9850252550408503
1.18787368024818
0.544156143634428
0.5495906405457853
0.43615203148221204
-1.025418976366193
-0.6730771579769976
-0.7066865730656801
0.7890339650900746
-0.23346494933327067
-0.7297470532409014
-1.0427470645993213
-0.02266846051586791
-0.32319931189106804
-0.18866723516959955
0.3800112908495687
-0.8319057093683405
0.7652407132231568
-0.07852993666275797
0.03367702782899449
0.7632751149615387
-0.5528422862219421
-0.5386668801150002
0.10869495494563312
-0.4403776887939777
0.3959653769283116
-0.7987760031427927
0.4109080177335321
0.1081048980663325
-0.5528238230459742
-0.12178944857917401
0.35418749691801743
-0.68708292639267
1.2772561708060932
-0.9143392454585261
0.22696528285907033
0.4036775864266218
-0.22372904025505772
0.515969120188267
0.31758361155341713
1.09830677306272
0.06513824816638601
0.6379940869570344
-0.8894557772457197
0.06171288593853359
-0.24348277257664322
-0.15762711654269598
-0.00475858770557635
0.25391044731512796
-0.35502849442339746
-0.0534873804578469
-0.5748547260315879
0.31399461605067963
-0.40987540360427777
-0.2584223401892878
-0.27347861222270353
-0.10836762506836421
-0.34825298834290497
0.41236125266503276
-0.059218945455730906
-0.5986459855196782
0.29026889925200683
0.2368661540629529
0.20660713113411888
-0.01862884078878927
-1.0282985459679197
0.39115404763461015
-0.4331911132176381
0.2921844455128053
-0.6532342692181881
-0.48241806155084416
-0.22022453994552615
-0.14904931867097868
-0.037085555132975706
-0.6065835345089311
0.5761162599673596
-0.3113209188428327
-0.13272165178948275
-0.20933470545613586
-0.2679475921084087
-0.3102566800589265
-0.26585714485768014
-0.22264215630192963
0.29150640921893145
0.5135576578477195
-0.8720003310466496
-0.9832913509233026
2.4471945635867445
1.737386327648371
0.582125594622189
1.719732583520606
1.5149979886047917
1.325076855830169
1.4938421682932215
-0.058117424886676365
1.2560619249740184
0.7207877764660731
-0.1409260824583582
1.2898022098814026
0.6869587379536839
3.368081751951421
-0.7171602200966893
0.1308668349217035
-3.6557530122002655
0.5368956695116682
0.07541735197857555
1.388415975929636
0.33029928902109945
1.1995885307467884
0.13012210987763545
-0.7114137359404288
0.29817834880551203
0.06350732220879411
0.43362114435099297
0.13389344569473216
0.31582582945358406
0.48879607847078543
0.12877453182883036
-0.027587715244146327
-0.1157421437578252
0.26994951043803983
0.4308508526833603
-1.4354471800620534
-0.9246935620901504
-0.43243202721472335
-0.6559358416170645
-1.2172611287281867
-0.8522300293079164
-0.973921004215055
-0.06439416129123672
-0.711912591435583
-0.7641157910704254
-0.31926910833427447
-0.888950069913306
-0.1287903634231427
-1.1085175136339411
0.4058421973710222
0.5788638059775357
2.228230906631415
-0.5075085126644533
0.07098627647216947
-0.7677906489911864
-0.42636050706335393
-0.7492902104173572
-0.3282795095722044
0.8333233736019322
0.45976214494070694
0.7877219617742767
-0.8939048603553451
0.2694837565170942
0.6070594072593574
0.6410839969767859
0.17457410746775096
0.16896120199626924
0.2642352691889945
-0.3378150817477298
0.8844103712251067
-1.002088477545917
-0.22718733881933925
0.02382594998373986
-0.5149890429412474
0.641780505670073
0.6819187325233397
0.055796653494610965
0.5745657884832311
-0.309041818321744
0.9794350903637423
-0.3649112038347417
-0.03255254863374403
0.8360851509432085
0.1088322985910472
-0.2936374672631304
1.0142750581781503
-0.36643189855112734
0.5967879781134
-0.10913855410154635
-0.5746206915376257
-0.10054046181173795
-0.9949782566564664
-0.07493321840033741
-1.3496757314304701
-0.7491844528329324
-0.6687815922731241
0.11534137926801628
-0.0353528141981976
-0.3343642903159245
-0.6413645653449698
0.057135127862394684
-0.5801727122906444
0.06289524815739543
-0.07159244085262656
-0.04219280436000989
0.20380619275974854
0.21729216899250173
0.4768200754901965
0.8684621330690085
0.6453670654667546
0.5737223450156433
0.06637147090149388
1.4898860777192922
0.12696612867886642
-0.23000874111256306
0.2907960577339723
0.2121600782806206
-0.1721576827674917
-0.7275225827148599
0.21149145910574788
-0.6317044386449011
1.823384519580121
0.6563868049450817
0.15850167661933098
0.02449800844155237
-0.2178849566694126
-0.3947102264430102
0.25808360226111926
-0.9970305752766414
-0.2753556365317302
-0.4143229362375916
0.06572565758692762
-0.2409744003526091
-0.03662857090158385
0.19911473715925254
-0.33873154350048224
-0.37683180619555773
0.10135088545993483
0.02342865712728893
0.12704315803500293
-0.2449430668159986
0.2747225956319924
0.39802230244673703
0.3299461775457923
-0.5588036362766663
0.25947346879414895
-0.5651237677917529
-0.11398585038152574
0.4832639292327331
-0.7097445364192878
0.14134706176670686
-0.05359317082545126
-0.5312153612029133
-0.03863130409222128
-0.04416362389101862
0.4393128674517509
0.15450529002842758
0.040445213771463095
0.5270513592673084
0.8552614492286387
0.27322035146389706
0.45168185525274457
0.41946363906003625
0.8438142128687902
0.5400335332218411
0.5315317684746751
-0.9205747462706613
0.3577993562793713
0.027684906744859152
-0.5489520033147852
0.05661761377532383
0.30369604332035055
0.09341004013285978
-0.3293274392379733
0.17716839957204636
0.2717600428596815
0.04813710216528488
-0.170583175608724
0.4018175006939593
0.15657261083503504
0.05248025592563656
0.1825073963979561
-0.10682737458070199
0.4895135527073914
0.08437255845985565
-0.007478018349009152
-0.04140072456594551
0.3030655813623087
0.4925353510147349
0.3594725908220081
0.45703284043173553
-0.32479341405176143
0.10487096992829693
-0.243374123840828
-0.6510455148271957
-0.10647215697610406
-0.3469976800263772
0.5359056557022799
-1.2924060392555787
-0.42957487034628855
-0.7672853644760669
0.9597099427206321
-0.13743557827860067
-0.5849906644190629
-1.025545708746835
-0.011515869647295455
-0.4155843988229578
0.08700988633268728
0.43258805234295294
-0.5016944951770643
0.8148849607629512
0.015887864752932836
0.31404799418506874
0.7507192843928256
-0.3096629215829223
-0.11351660447047147
0.0962589210457442
0.12920235854849033
0.42034925159005665
-0.33480473763905294
0.6151141560263113
0.13241541472678522
-0.23616685828641798
-0.74217422587838
0.18483765093650817
-0.5534241667057999
1.4237349182069223
-0.20538949655464128
0.53080841844174
0.4765639711375747
-0.04550321418749236
0.46898928508145843
0.2165619127435218
0.5070216522533822
0.7965363887369343
0.7372143187720974
-0.7913470420881571
0.6782714546436328
-0.12087480474094854
-0.26196052223605126
0.08529195190154643
0.41816063334209774
0.4149272909393931
-0.44068070941563414
0.3779919769377303
0.21270239453681994
-0.024312240095118304
0.037077801786614434
-0.14355023879398604
-0.01261212909701206
1.0957531722699312
-0.483906670010671
0.2591483327330908
-0.04188825315658175
0.2989592258769383
-0.11016720685741434
-0.18773167059125642
0.8298780951763307
1.6638026593281183
0.5324612616489762
0.798604126009031
1.3619078746309186
-0.24117032359643112
-0.43087882579413916
-0.9630098190544659
-0.4520537888123501
-0.6551015024782697
-0.0695246071320886
0.9257777806859337
0.5539784981548314
0.7365218815219777
-1.868264571842727
0.3111246683694279
-0.14477872616750015
-0.051447023122339654
-0.2935914337962946
0.6610649049937333
0.28409530994901333
-0.9428848057631977
0.04431134801148875
-0.011869176070975918
-0.12217507608444608
0.058565496725961584
-1.1475002876567035
-0.7158872696273876
0.1379753032822933
-0.5003689213040556
-0.755080879484013
-0.44862003095612707
-0.6536239642255023
-0.42643708643262024
-0.16525376861026828
0.30543955656202254
2.6274809303411035
0.9039233166895754
2.393556836207298
0.17744381258107114
-0.41413894065926565
-1.1225559295651537
-1.170598816972865
-0.6516145412234047
-0.5560787505483858
-0.39358424596154845
-0.7009945595068332
-0.13849375966827784
-0.33924006709860643
0.5215835628524305
-0.03945156869603596
0.1435524374516024
-0.4722991439028499
0.17619082893165908
0.1405269542746937
0.2855443042819928
0.3851984407598343
0.5118060436471121
0.4401552464746708
1.2629354661682983
0.8617388664009243
1.1126725749976516
0.6580253404978427
0.5998508601343785
-0.2176481534643567
0.36733203066250225
0.5765991314173097
-0.2637387252773545
0.24258610588710247
0.6432196170278556
0.25983163815855553
-0.2890081813716134
-0.07347001260619421
0.1424736777550994
0.4182455196298208
0.7145682312174344
-0.00558087119767141
-0.028918542743499878
-0.10253003092975846
-0.09443309034495637
-0.08407626491470538
2.1239252479697077
-0.008891406096046274
-0.20568343851832588
0.13763257099089707
-0.8164579517568128
-0.17871919473238124
-0.2738998246653929
-0.15564801840488007
0.7885514283083269
0.5679557127450855
0.27788757937545033
-0.49705364623183884
2.5000333506017576
1.0799629669858473
0.8618968181863014
1.338375789913378
0.8216909959481766
0.3098975689770947
1.9468686477152009
0.2631802287557454
1.3585004476214022
0.25005659319076107
1.254118346627642
1.50651398489206
0.6170317106530326
0.9081381961070802
-0.13914484504465272
-0.94535709188207
-1.628221657779075
-0.3014740505527757
0.35887444297581456
0.9940202229767829
0.5735199387803936
2.1131984721289956
0.5191208889144057
-0.9688421416922129
-0.30796346741606406
-0.7702286239146361
1.2486618586596754
-0.1645964632705384
-0.0736386433161863
0.20508095875062252
0.2141469179293561
-0.34927046073265
-0.24797302306322436
0.8112118756562484
-0.2987265619946525
0.530179506455447
0.09642748740560345
-0.062339783718415726
0.8580395292226606
-0.2910399151997386
-0.673376873418357
0.12022521364967176
-0.23082045303664997
0.3856508670564845
-0.3014096262360711
0.5624440640550626
0.34026914152579285
-0.2445815036615772
-1.5141737801699973
-0.4647938623670215
-1.828621073029663
-0.5556932735323431
0.07912835731804183
1.3691095364396009
1.5233896796153281
0.9743578867167811
0.8968139462573111
0.5255850777668539
0.08811560025147952
-0.19645088312875963
-0.10890556563793606
-0.21558120348230408
-0.033216490563347245
0.20160117356892318
0.26771293271829066
-0.695629941863583
0.6728116488456933
1.1835047720680023
-2.9490928427536405
-1.537772640540739
3.4604809995185057
2.773068490091251
0.4024296807804884
3.6865656353439187
1.605579098378436
1.9884791326985074
1.9308107027080181
0.07213978888857707
2.333326594326785
0.5435638448881069
-1.1658063210399552
1.5430929096644246
0.7975602951702707
6.709350220266909
-0.8836143252176032
2.836018330018151
-5.488301943961502
1.1161196040946437
0.5421582295511208
2.6110337318498558
0.048508410838410176
1.8554502542452904
0.7784447357950411
-1.6119469138065379
-1.2831380442023295
-1.330412440776863
0.7271323572709417
-0.20504028046646824
0.572247219809637
0.16995975532665406
-0.12615338604744558
-0.04396925964968086
-0.08258181570074119
0.2796227705000391
-0.3364014858441425
-0.9078198555522551
0.019954517561434022
0.02356897858339828
0.024507898210210575
-0.8258966004746535
-0.6227538722069521
-0.8318137188216925
-0.7014941054216637
-0.5583490705019108
-1.075860833791949
-0.731054095774068
-0.5006289327601939
-0.6169474973869936
-0.12770596022649622
0.5124605089395823
1.1892342509584475
0.5468421481304273
0.45076076158043576
0.78042564728656
-0.29566568188406167
-0.6960625169089745
-0.3516394585150221
-0.22214863223415415
1.2648691516521433
-0.3808728692058821
-0.2915281534439366
-0.2423457169833463
-0.6361440221291174
0.10713128546730552
0.061800489041237
-0.5379840113102401
0.8430891413523905
0.8244121793933802
-0.6902185884271723
-1.177168040490358
2.609664091214839
1.5077153605374725
0.7498212232975769
1.9080215178941273
0.9718715826798755
1.1202405448615085
2.30142825437486
0.056788781623218536
1.413537100475961
0.36478649324414925
-0.295943480136086
1.5067904973136297
0.5512510656510488
3.0680814808508847
-0.3050828108323283
0.6672022377704674
-3.5599565152418724
0.9085704493649222
0.8103323930678458
2.1452180895637425
0.18492093838144172
2.0512983499597115
0.7265466477011593
-0.8900162020964459
-0.4519278971300063
-0.8499579372886058
1.8244594005943076
-0.4062801581471108
-0.009746227145478696
0.21993273154263687
0.1692706272704266
-0.5962057453045578
-0.3375793546458214
0.5899068154913191
-0.07736788014710466
0.27451839186326604
0.09916692682652817
-0.12157445357748739
0.809571050383034
0.5154079721001104
-0.18506424825275225
0.18025716209422207
0.4095714013948523
0.38498919472007476
0.4328352682460878
0.38938034804785976
0.1715737965423806
-0.4844157257512816
-1.9090054761546726
-0.6986198368882212
-2.446817978471794
-0.49955520698083805
0.2962140449837329
1.0630353502488137
1.5298706977310181
0.794429310562035
0.529357810378131
0.32225609005511163
1.1139911549304315
0.6236536061088959
0.7934481637628045
-0.978163141772125
0.5385165724279785
0.146137950566932
-0.4189259119800247
-0.11559413641612981
0.2240929977412235
0.23123328713104316
0.021165833865422787
0.3050875432897069
0.3016188767737692
0.15140841339924854
-0.0034434112286473137
0.25688604974521095
0.07457850089331229
0.231888658549443
0.16453445896213648
-0.07129969938582255
0.29960339606716346
-0.11735561245869598
-0.20314486439894308
-0.14526859706284329
0.3972696567414954
1.1928534255222258
0.418420391760973
1.1366859417451403
0.032591522644879675
0.11942862336525646
-0.2949527159771251
-1.1688130696033905
-0.5174302089429866
-0.35195172903924943
0.6489150302787704
0.27956433877669234
-0.3073409148062941
-0.2023584043324907
-0.09644339732270663
-0.149498649934586
0.2980846133068525
0.10429076489941587
-0.6273397042606506
0.5037395344634399
0.9687434474187966
-2.2851558636774856
-1.2150233001761293
3.0215854756173073
2.721366513676963
0.5859635919666287
3.2880846914872146
1.597028753808331
2.20906179787272
1.987180811282561
0.05655591805700401
2.48446941815521
0.815200633712391
-1.0478847475017337
1.5543365065375012
0.6026280921715577
5.9171690166436575
-0.7754684270146263
2.060739655639394
-5.015087583997224
1.0137933149126515
0.734066497077194
2.23123316835156
0.06679645245957731
1.6689233556321574
0.6721011149339484
0.46374510649334705
0.8383594674837587
0.6549055360912395
-0.41783309701271454
0.7507955882132715
-0.030333407870764762
-0.35941588185720574
0.06628180634975406
0.15085623729417216
0.336430506693874
-0.5684184822242226
0.6796708758216221
0.09676486660267063
0.22770671042986487
0.17344668348308637
-0.2191962482554695
0.3541442167213635
1.304141174771247
-0.5479947955705087
0.740415803132165
0.595619247608075
0.31674969494374333
0.10748786714917088
-0.3212564702999718
0.6468104952655901
1.1497077379130056
0.3590640578616412
0.9232885893478141
0.3441649604140079
0.34836530073293914
0.21516407120435124
-0.5008374417576767
-0.16644222679195514
-0.31995013230774144
0.7620654744728094
0.7294216504542378
-0.33148349537251104
-0.07746373089596949
-0.2618143355127731
-0.11629557046852547
-0.14772029756074753
0.5528656421120421
-0.2504287942679127
-0.20492594119908009
-0.22114937298157747
-0.25143412622854866
-0.7226136032393885
-0.3883778101431545
-0.933262363428962
-0.7539209772862903
-1.2585112731795904
-0.7549765996279288
-0.841748996540776
0.2857010223712733
-0.4690232384688066
-0.5980248744146816
-0.17181200568997923
-0.6215273451091481
-0.6236829175282024
-0.47415436122173876
0.624896065312464
0.07262134598495033
0.11274837553840313
-0.5000146274345689
-0.8229450036636091
-0.18397351286008787
-0.06481229585072901
0.01378219188898306
0.01855143098155218
0.06929474847535434
0.284942032507091
0.5468230352258363
0.2506206913309062
-0.3461503049474657
0.5751515372485239
0.0029784563623330563
-0.40082035394060195
0.00882265210645207
-0.003756019629877542
0.10769289949636734
-0.8604887123014634
0.21532408263998778
0.1575845718421096
0.1941954608137195
-0.24773943119974257
0.17267032550914715
0.662422798838916
0.6351348192465646
-0.2977749057014297
0.09737040755733894
0.29357809003452673
0.07155679824294295
0.0644232692311548
-0.2689539193259664
0.20573523924475162
0.6382239467666782
0.33931027870790187
0.9449454118381425
0.25346172402141764
-0.0030199402152062426
-0.14716336781257747
-0.5221137682768752
-0.23287212702173868
-0.4213683612786314
0.32777890375375623
-0.322913653104458
-0.5413239006925991
-0.3952510727463762
0.23219845907772382
-0.6727132916299664
0.14903032116772558
0.3162117428263711
-0.08482665589125568
-0.10745016016293657
-0.2006973740328514
0.5843261202969664
-0.37319689956701485
-0.2154237586935816
-0.19639244592106955
0.13346752541305165
-0.05229910629012918
-0.45863999096670194
-0.6012092981734872
0.343001508302587
-0.14997610514282517
-0.38542705694735785
-0.2177261642411309
-0.16120220778789585
0.3373869672941374
-0.46904047330842247
-0.7753824556341821
-0.3335278222590928
-0.7864832165570727
-0.2821190184279128
0.09627209971542136
0.021740472182682373
0.5474585379162751
0.1044519620108166
0.198862920255281
-0.4349754494164783
0.18709960442072898
0.6498347972990098
0.30906997284896737
-0.41931740900850645
0.4883183784221291
-0.028768636935514746
-0.49247157729054264
0.06366599339162253
-0.006336921058526
0.10087544062245227
-0.7616045760845613
0.41495587314906607
0.21945685309526658
0.16001712071502694
-0.1820299893905903
-0.05748955128044924
0.8111958940101529
0.6013087554956418
-0.4665947588244632
0.24105967765192732
0.35887356982058405
0.13084778763334456
0.0507308577775918
-0.18727358749733095
0.19016539907017999
0.9551095982700251
0.4064149145937314
0.49731032434490785
0.6117531721490191
0.2667487352865192
-0.015167905514626935
-0.6124913886819404
-0.10363251503213931
-0.4887117339213847
0.46549084533697216
-0.6098516115869376
-0.627367558129166
-0.9170229278217609
0.5919332755647774
-0.19267398659558488
-0.6144029325069499
-0.8089040655569034
-0.2916493146298544
-0.14329725087536369
-0.3503946231724793
0.10408335886442814
-1.102454465372131
1.286490511299198
0.10203689651651714
-0.2114630351941166
0.4978525944778573
-0.9612717989878521
-1.3116738592061292
0.0740773498903023
-1.3712768616380513
-0.07023690460811889
-1.2354443747202324
0.4494442769994668
0.041599711449724776
-1.2331557566289995
0.3924194049096606
0.2545069220354154
-0.5479468135064192
0.7174800403229067
-0.9903683932314911
-0.26873494671356385
0.3880461608674281
0.0039024923595177906
0.575152973854133
0.23370496114596703
0.8860525094512337
0.6607538437505597
0.6773531171925665
-0.8833698912356199
0.4117210199177994
0.12409381192974343
-0.4254105665467204
-0.03627829735439445
0.38918758240985935
0.18906937221202075
-0.3592216690707787
0.36809505703956896
0.014695099906018026
-0.03789857377937814
0.0062700024371101625
-0.21315744779346923
0.06986528538002763
0.5225900387703092
-0.010968935741445598
0.08085640723136849
0.5676635868935507
-0.12326745236969315
-0.08136181274404208
-0.13898753724378085
0.554671564881236
1.2035743638576437
0.38378437893710726
1.2532439052650326
-0.3936602725608971
0.39575506503792446
-0.3838433647333108
-0.8069378842243227
-0.29529627731713803
-0.2492899111464817
0.9040443359049587
-0.8581749943411905
-0.5195142220822697
-0.5729531550862219
0.7272409739069647
-0.35220047670359134
-0.07615076775895467
0.47768701451608714
-0.1439227854446052
-0.34024796534483037
-0.08015038796144316
0.3989465203399228
-0.1836129614542163
-0.17060564792784988
0.04594909279834562
0.20287573221578367
-0.27594234672109924
-0.1318309497077098
-0.17242786975033214
-0.22653264696688075
0.03241842473296718
-0.46166517720128125
-0.2698639345374158
-0.01766682135236275
0.21400695270073
-0.39307187676497884
-1.2163653096770486
-0.398694061251617
-0.8032166789538845
0.1894953658126833
-0.06233471597091289
0.5486041243508091
0.8991020270921655
0.3135638268799758
0.35148100365339574
-0.4665822339999088
1.8964467599745871
-0.25449840491603154
-0.4069502510489614
0.0332691756283852
-0.9742160505448996
0.16763831704852972
0.0034821759443080832
-0.36321150265332897
0.8723164758912484
0.6154618695640885
-0.23914576483147948
-0.9285842657264771
2.781794471932614
1.411305854680363
0.9634538470519672
1.5957392410240943
0.6404663645943677
0.5840231237581542
2.481537267452883
0.20952973890574828
1.3894315997333797
0.2841734031511543
0.4261827128502729
1.7831083541707664
0.5138443927012053
1.82406595365347
-0.021787740239472043
-0.30644238618117325
-2.202328215327823
0.35523563727839524
0.5148363114321591
1.5401418156932936
0.5090129895799296
2.197096064723066
0.6421142502942001
-0.786899981219322
-0.48677661549781764
-0.5572984879642963
0.3600741016323579
-0.02906245622152937
-0.1900591075660481
0.33186124133025247
-0.16222053315396462
-0.42611768996626515
-0.04203276082650818
0.2051934274082336
-0.21858177031849702
-0.1089596362468286
0.16359311924688677
0.4139984989847766
0.2552440749924901
-0.14756389741320425
-0.47942932285298856
-0.14986460340227212
-0.012105269379568712
0.3576104866119829
-0.13961624350466692
0.13206117681326746
-0.05975096114083842
-0.6367185904145733
-0.815169757580429
-0.26546591985408585
-0.6775448321474141
-0.7340623716048578
0.19416060116595374
0.605999218527833
1.039824042442999
0.35237416135613
0.6433270292701443
0.6722769372057917
-1.2742924969896896
-0.3026692778765493
-1.0087965788118574
1.2841128885953603
-0.16346867621214423
-0.6333270715839578
-1.1145678499120208
-0.16520202407034315
-0.5490974153502418
-0.2769003489772107
0.45016565768722433
-0.5733011954504817
0.8133297900568011
-0.10385370479269149
0.2177334772259828
1.0755654983996301
-0.00511915617284457
-0.7126640383935106
0.30068231406261503
-0.33382997831345335
0.4492987452283217
-0.2134094881882363
0.6165312510417141
0.3617459365896569
-0.44043556406443535
-1.0644731783515877
0.2049587384488579
-1.2112297849244926
1.5801802284298403
-0.28437743832399537
0.7748253871196871
0.5495047646815137
-0.2777066696417316
0.41605107137853775
0.1416188296225643
-0.5850318835948043
-0.620070778887584
-0.7506743085003289
0.18599718941441384
-0.05199099884668599
-0.49120043404269287
-1.7438632723799186
0.138607093143071
0.05190101923788326
-0.033787032017462186
0.3089174320659748
-1.1577015041816143
1.6510212694621766
-0.3468107836900207
-0.044291632872627267
0.22279041352303147
-1.8265293774398113
-0.40411134119995223
0.022078450483123537
-0.8762619551608788
-0.4472244687879786
-1.461216823328742
0.8107596448438964
-0.26277860065043646
-0.5131031071419204
1.1644508216070033
0.4126851814209987
0.8319836690230921
2.4011575470337885
-1.995520045468205
-0.5463080205954842
-0.5128669232383025
-0.19410672105119425
0.5014172763393149
0.39500435921441074
1.3090447285890323
2.414677935607901
2.636980099027431
-1.5166116754560657
0.1120473202581039
-1.617353265898909
-0.9847341047081513
1.094551817805111
0.7968751590023034
0.33608542424129295
0.37896842992051416
1.2952192960980908
1.2129324689040006
-0.2234684242099608
-0.010367072002477985
-0.007377925360021041
0.39834190875839637
-2.055488721716157
-0.7788930246096039
-0.48110056927735023
0.628024072658079
-0.04638473754395175
1.6447799163168115
1.4201550686944968
-0.3667372023499767
-0.17648996743151502
-0.5756215000972118
-2.5050645919594166
2.989245395718809
-1.9620602729053116
-1.411415231093638
-0.37775601500830464
1.2872754171341378
1.5454033397535087
0.13174060953443234
-1.3378104981530208
-0.48774156611898617
-0.7703612908638731
0.9247210589087721
-0.07697560010730897
-0.5469419931833471
-1.0807310279284763
0.03994735797188131
-0.3122548617990239
0.14207917021757255
0.45307906159929795
-0.4995640978293187
0.9095040468389796
0.003121850179439308
0.3444635309318119
0.9895892395175175
-0.37695221440938503
-0.31269704713704877
0.09887140389135986
-0.10718334928278855
0.470292884937377
-0.1763978316957485
0.7094675298329302
0.3192718951178212
-0.04386783188642949
-0.784179893878199
-0.029879247932429895
-0.5680028109829938
1.8335603395739781
-0.037756981826511556
0.6473042474307968
0.6998647399286919
-0.004417786563436996
0.18228318707237595
0.27441397490369357
-1.405004487437797
-1.4744647320051547
-1.5992486361599465
1.0306054344707212
-0.4229684736686313
0.4709628103970829
0.4870809333223697
-0.4122474135474105
-0.41302710667019343
-0.2278368021327447
-0.3870532936574694
-0.4264624431085135
-0.9920323726239964
0.17048120268138817
0.08825056901868453
-0.5146165153844761
-0.9305745331380564
0.5485316569457919
-0.6145544073609085
0.03929657061547718
-0.6226450535406468
-0.25656302837835226
-0.5751385836750009
-0.2449746189302154
0.018710422049935185
0.2592697778740127
0.4195263435032475
1.1080450004073223
-0.8534210764174538
0.4168882698136795
0.508080324791236
-0.11664505047808389
-0.5886025267993751
-1.0011246053243175
-0.9671268248064177
0.5448887730391533
0.6515998043016675
0.2677513184327203
-0.30288771919900853
0.6170270543434474
-0.06674015701673823
-0.509281962894726
0.2204023561657821
0.15494098591646827
-0.11740476130474431
-0.5388888104314263
0.402107153221777
0.1792033274749356
-0.10876117838394102
-0.435758651628838
0.15469226413676243
0.6335519526381661
0.26168889282656543
0.16436919650940618
0.10398904414236988
0.569434774916857
0.012983644864588431
0.11019100724683857
-0.027896233496202648
0.24645979274353755
0.7027616456613747
0.449779981012447
0.33796670985456867
-0.09028778320374518
0.283572615606527
-0.2663199724127795
-0.8644375359568418
0.16110070370290325
-0.45881386069957214
0.45382495749090157
-0.8025133968310267
-0.2483581153487271
-0.3716602361199492
0.290955018670002
-0.09434611583705287
-0.1796291473423437
-0.6081200984205696
-0.06795442651783225
-0.07256443555277803
0.10708974615341102
-0.014101915813150843
0.31911190404203005
0.09222986976869617
1.141453512496031
0.775569047638059
0.8179582545712776
0.6824669956862698
0.9396909172095133
-0.0680982252725683
0.4634588398229003
0.4524278262436939
-0.04426849286116442
0.14446814121505328
0.20693583631139803
-0.1691937745708652
-0.18560275004740118
-0.163802200414494
0.29894544249239047
0.5019042270657327
0.5916067522587
0.11363053856401138
0.14035653646948076
-0.12746588179612295
-0.20401554847079528
0.09293261174717742
-0.412012040959242
-1.160774611889759
-0.38952681328822075
-0.16763540738185895
-0.0548934835898888
-0.31723958741307773
-1.9185260187323605
0.7042917654195111
0.5378174410063199
0.20693311809699097
0.9636337965728917
-1.156040653469193
1.9918997804873104
-0.41715246167039816
-0.04775189152873936
-0.45375936177629694
-1.3788844217438876
1.1739327276751792
0.3521994814163761
1.614526690675717
-0.9164467950131339
-1.9074739274773287
1.0745948107360015
-0.6664820869120235
-0.19725221537744794
0.82852605101225
0.4016563118537918
0.7089293455107394
4.231524128354072
-3.321869456898466
-0.5757772696803499
-1.132112452149742
0.06900733878965226
0.024428613926904947
0.5869800043274941
-0.40038476223767094
0.32859993082097316
0.21409651271840768
0.31890787434650625
0.18666916660052615
0.10719184492683284
-0.11205952841369092
0.46654128481230517
-0.4042690396443525
-0.5150613744741728
1.6365717735696244
1.2471947534745274
-2.954853218738396
-2.093593694650948
-0.548040135597162
-2.362634020616187
-1.5285968835089334
-1.7047123399654078
-1.8453867600725369
-0.01823879123699593
-1.610431230741515
-0.992193428506634
0.834912681599596
-1.5581275655360562
-0.6777036751500686
-5.08866777794832
0.7898837427957939
-1.2735275929594443
4.925138510293483
-0.8412305528090145
-0.5766445231374664
-1.889386885591293
-0.24939485038164882
-1.6046554459821007
-0.3660109738613852
-0.7005048873907949
-0.4791310137631822
-0.8318954540773144
0.6909104116622031
-0.17853985271154957
-0.8512967136025171
-1.1631753759927634
-0.4347900413004349
-0.10035207911071806
-0.26785790448923014
0.17995604391111616
-1.055713677154967
1.4020569673031025
0.1385482477918457
-0.09959641156711926
0.19748722866218812
-1.288139797271657
-0.8191478901598186
-0.185539759861434
-1.1953377419458424
-0.03952596384930614
-1.5025396218771518
0.4032773396779155
-0.12199747070164688
-0.9477433371153595
0.6770002335916141
0.3276810645848435
-0.026089719654303994
1.1772529500461315
-1.123243882828971
-0.23162799142020787
0.4632084486839415
0.01626568427091366
0.8960478911963237
0.2620488159014912
-1.0593623178052551
-0.5043824556359797
-0.5699082258293874
0.36862245227104595
-0.13499739991990325
-0.43756337935069284
-1.2555634580314388
0.5146559086927143
-0.08907995429339112
0.3802216144950872
0.932257875206824
-0.5441989586671396
1.223927228568007
-0.20995317210524728
0.30125370498787135
1.2345753470713547
-0.9283189505381548
0.14575780240774128
0.2647020063905829
0.4683718425336423
0.12543434773509402
-0.1863086263120696
1.0203882120034011
0.1596463911057959
0.6091420588423799
-1.0693903080698457
-0.05234998191218063
-0.07344977765613028
1.9565494815479687
-0.8933728680599674
0.42731452013274723
0.42543272032816615
0.33487863026589004
0.4823875185688781
0.8001824312048724
-0.5406026151809316
-0.6553739182223449
-0.7093373906830696
0.6888625204194881
-0.6230363395217199
0.1042499844627845
0.2150469778887228
-0.10069350715190252
-0.4648630750216561
-0.32939999262751146
0.4344841934441536
-0.10983101954092286
-0.006911780656886956
-0.1283470940763209
-0.005807298158657386
0.5093619942149294
-0.0006432986282285548
-0.5078494609594996
0.4441663062992036
-0.07047237107169367
0.4571171412685068
-0.29256547012953693
0.08904627509351615
0.18737543239567608
-0.698756469382331
-1.133153969961538
-0.5462229703082466
-0.8394095192402203
-0.5026422037456468
-0.0832434194445111
0.8984050689891359
0.9187906720179805
0.5918072827033435
0.4048176119232916
0.40426386355807553
1.2490606622515525
0.13040492144194074
0.8596496039157066
-0.8239200456975551
0.18149777564991149
0.035835527910158
-0.31930596510604903
0.0630965073704437
0.5956137554497741
0.028535577069782752
-0.5895561358121151
-0.13921818336861236
-0.09451197750015566
-0.18822934216771228
-0.23260196973497302
-0.47064059814998854
-0.04022910089121122
-0.09306337430882362
0.15064125572672685
-0.12199204104634685
-0.472934429342186
0.26814045894033434
-0.2619714965675741
-0.05546867023485013
0.3041191935487511
0.9671247364451885
0.571904686030383
1.0423310045088434
0.46689463613963955
-0.5998629738502349
-1.0752412083151204
-1.3218253424042115
-0.6363746319890122
-0.5264711738110514
-0.40786613819490203
-1.4887617182835833
-0.33303729222805584
-0.9276682100978911
1.0822783964354865
-0.059998185322258965
-0.49647287521537553
-1.1046716752436603
0.06594202924737379
-0.4607308800620677
0.07500970067847854
0.3832626797966433
-0.4081848918819434
0.7336544591314844
0.09296438860130757
0.32193135784490734
1.241542688849405
-0.14424078070277369
-0.33655615470412187
0.2029812403291114
0.04336567292570429
0.553815576769516
0.02975156142084594
0.6573796155421049
0.5588261384483558
-0.07546509697935956
-1.1910549284935188
0.013507827286348941
-0.7841448631743635
2.064895900992047
0.12207454336178192
0.8662274824428473
0.6866075228398728
0.012380931738944716
0.3601458547615207
0.42085784745562177
-0.37675301170129355
-0.9750375671603939
-0.35192928124256534
-0.05310487470975363
0.0018535496466957338
-0.12835054376354962
-2.0498169209664776
0.5413305205620176
0.35507737724133104
0.17975049923675504
0.7975142684535343
-1.185289342235404
1.8642047276236575
-0.6638928855738387
-0.21635105799246912
0.18534851883206607
-2.0819299786898458
-0.06236723691335813
0.4457879290148991
-0.4274466492490004
-0.5866030985632453
-1.2958762920069529
0.9829714393229322
-0.3618834514427815
0.1607219483926641
1.1228469443463502
0.0015654090421339853
1.4011053354975804
3.4010506144738275
-2.976549962533895
-0.5129394142118907
-0.5514119417451508
0.2106654086482786
0.2248348085980217
0.6545575371218783
-0.9214036804757908
-0.38048388731533433
-0.7340062473108678
1.7441398449650591
-0.41842723526310754
-0.0936656419187137
0.3425978363245156
0.11199039381189847
-0.5137849217487729
-0.25664817725115446
0.5314455042558967
-0.00591040691341396
0.17921473379791386
0.3016122443916115
-0.02691500950234033
0.7054669483953764
0.39594840305087703
0.1579997931037333
-0.07776729032607232
0.4978547892054072
0.36859260339025035
0.40711802357208626
0.2872742256231981
-0.09388622582456485
-0.11395265089659697
-1.417212801547198
-0.6754205489755097
-1.8101092956241898
-1.0746809867455807
0.3923945129348013
0.9062718549312749
1.3713259696325033
0.9153363653472099
0.3363016306149388
-0.10256875232261681
-0.639955022506623
-0.8886453721646156
-0.6316998770759461
0.5511535299408349
-0.03361699556271162
-0.5648719733915082
-1.5559585701239518
-0.08527749240432603
-0.09410377498905849
-0.04656526722968375
0.17627800573280833
-0.9545555499705343
1.3864013658375631
-0.37692662161982105
-0.15408928178662934
0.3671975025487665
-1.260099201342032
-0.6643623957088601
0.09617933891163438
-0.8501052810647924
-0.12424305790801624
-1.1615476315511444
0.520503769929111
0.011072839722836767
-0.5505233260511545
0.7609262723102623
0.16054387419911373
0.34591324235735726
2.0509683330808124
-1.7351667675708393
-0.258006329935264
0.02940193809265887
-0.08525787075103831
0.268159049495792
0.38764032393915093
-0.8818387758922035
-0.5870904375842958
-0.656760675910308
0.8299965313680191
-0.5544155496288241
-0.16862832865478905
0.4035089918683249
-0.005035736039970794
-0.3121450797258646
-0.1744895282347202
0.2831610830501828
-0.2871060408120657
-0.049527853821490074
0.06786570963743406
0.03785323954027182
-0.09357662652325517
-0.09100319173886258
-0.326835348068322
0.022661530261330526
0.14710530325304935
-0.6818228869485471
-0.006688317477239186
0.14233880943479055
0.008875371311248865
-0.34998444971187975
-1.0539139466656073
-0.3403936646152813
-1.075443954325996
0.23891395216551237
-0.0722465960144263
0.16508113254833556
0.8124818876333545
0.34259328681366724
0.17823523620611886
-0.6878315265695993
1.1738283794507347
0.519024531844071
0.835873209201057
-0.7623866422334635
0.042283398711160686
0.451530175872556
0.7253575944262899
-0.0608128844428175
0.26061758038452243
0.06890516142063127
-0.28250350275770697
0.5530025831378336
-0.7487968355209733
-0.008554977196914757
-0.10705312939108255
-0.7534462275389576
0.37942790926208814
0.32034125227636256
-0.12435415284769281
0.22142475751674892
-0.2839294374590456
0.20138546152206704
-0.4393923515484571
-0.12890351852368828
0.3949244960553576
0.597048428229978
-0.06883023107373477
0.9159337912746253
-0.8600900005152761
0.28924363574808737
-0.44027951178544755
-0.626404718338218
-0.07504238822404606
-0.546953684579377
-0.2668411319443865
0.42187855416961106
0.052272554051681616
0.6253731510101315
-0.8230089295152977
-0.04802738847716408
-1.5275662961867544
-1.0621321622046962
0.8199399325694849
-1.5442815933831493
-1.9378259396171422
3.6365596087473007
0.686393027062185
-3.029175822578001
-5.051633246410555
-0.2725225677601649
-7.50283858841679
-1.5860537055926553
-3.2086526051522632
-1.8823940145520113
-0.24281841460267803
-5.3795153722135955
-0.64279562931882
1.501594236295848
-1.537101413203853
-0.750140291242583
-8.762650994700794
1.0154854762007925
-5.711992708530644
5.746392739773451
-1.5972705037211423
-1.3098531265965838
-3.1967484364503567
0.6385624217067931
-2.2939303980213213
-1.4130083969779759
1.0104059650719912
0.3646771176747703
0.45125134487673424
0.18686820677814273
0.2788461232927586
0.1094298215813456
-0.27148347450021004
0.28027539343491
0.4008239598898656
-0.1363665202014658
-0.15206604493102396
0.1616247028828204
0.09855119490071686
-0.16849372357395367
-0.5397127008645518
-0.35083890171466864
0.6302609592174926
-0.11419905714493972
0.5909797863799606
0.11035821924490477
-0.4862513677298886
0.5456354334973151
-0.047315598473457114
0.03193551232800842
0.22408961469592367
-0.00964977486986043
0.22905586378161272
0.029941227951685842
0.01927685474875418
-0.10533423748657061
-0.47387770397930584
-0.6462084600059145
-0.0613836105978089
-0.3673428260466748
-0.5132936808070533
-1.0768641587340317
-0.3932379681268018
-0.7133601443915791
0.6439230011493559
-0.22010438842553154
-0.08867008914702326
0.3829741445197654
-0.08895219710689227
-0.5320745101266793
-0.08561193254791485
0.38406243979623034
0.01725051423038874
-0.24821585756860468
0.07764185816741606
0.24678628361001975
0.15386745931826518
-0.019301133772921596
-0.11928264091095613
-0.007589935619175056
0.11490714473726209
0.1648208429939608
-0.07305856724540369
0.1037280120434243
0.03029997142007039
-0.46233232346520875
-0.8595331192162812
-0.45535408840778024
-0.9923379922307644
-0.6631890861446658
0.2565172644422588
0.5876675718164469
1.2685539899362663
0.5863649622774978
0.6537585832361559
0.4725727278299584
-1.4140732077979306
-0.3990488932589645
-0.8685483083245038
0.8644668967828304
-0.17092166046399504
-0.6593771507318863
-1.132351262825274
-0.020298648516678626
-0.41508537493569875
0.049374252406666444
0.33282010971671233
-0.4715973714172621
0.8254275994596236
-0.10184829886222502
0.3438112921090062
0.7559944847327281
-0.26498660786315886
-0.027063995522220764
0.13986855213420016
0.30358662006244336
0.3034028633059095
-0.4161831362296022
0.7270855434124759
0.14204612855695142
-0.4663043213602859
-0.6071577832221473
0.25537169572059304
-0.676237088886687
1.847675819725854
0.15157524702765499
0.6347471533451365
0.43908740069220714
0.021591480848396054
0.4570154498477708
0.39272755852261
-0.5516656638135806
-0.4353975094354606
-0.25633284185782695
0.01224754507805541
-0.38164897739165604
-0.13503961756973168
0.11185920869429115
-0.13521311313657927
-0.12239277077339504
0.018416771092710015
0.4852376192416899
-0.09485980057534418
0.015416604085522449
-0.02375389334071507
0.34646429247996835
0.39136429559422786
-0.4309501592386189
-0.2720737903958318
-0.24058533737156718
-0.16517323529707173
0.4617480466536769
-0.31262587669165015
-0.09299912012768985
0.15432760338184615
-0.49534274242829035
0.7086824394257409
-0.24321197878393894
-0.6331250224491608
-0.9207714859636698
0.4840833258171173
0.5076319514896215
0.46828992676753284
0.3521899509587748
0.13440083030286976
0.33173678994250705
0.4283140947433946
0.4558929917616067
0.3316005914462795
-0.16519502734050406
0.5956529368544727
-0.18654326855203046
-0.3338884775233059
0.1636640641716567
0.13939731768142022
0.026946561723601308
-0.785978930695729
0.27653393450754715
0.31249437055668083
0.18298233815834797
-0.1924059351460904
0.1193665818297917
0.5751966526524337
0.1936961245856911
-0.2659509479940926
-0.018799836526187323
0.5533879312649314
0.22105132050476495
0.1559776198204873
-0.11008713624564521
0.2738433771097636
0.9273668848688391
0.34109628121082713
0.27631106389578414
0.18198062482679778
-0.04043799277302378
-0.20803720491093866
-0.35446995789207475
-0.00513155003077412
-0.18269048601893717
0.5113585522022386
-0.9967234727034568
-0.39176812358067614
-0.8606482609584697
1.1840402964438086
-0.4650181208630581
-0.0586003672488377
0.4936883902710247
0.09163868402349756
-0.44028730724239623
-0.18530257111402612
0.22496719898291084
-0.1445742489124313
-0.16911945532050612
0.25508137451247226
-0.13754689074374432
0.41138620507954093
-0.06042059983682281
-0.1924859806353434
-0.1149295632806799
-0.10569875543239209
-0.21909182069734648
0.13287230386865928
-0.08233477081442755
0.3382381042471762
-0.16275766069274974
-0.8721245022869099
-0.61339293805708
-1.534464393631945
0.08974392187769549
-0.29001356394472755
0.9186637851265831
0.8132646552082847
0.372892031485793
-0.05644998721210234
-0.6893094572135408
-0.19277009384814553
0.41298612912266264
0.009283546580158245
0.5617019858427637
0.13671170242061745
1.4554671275454698
-0.9955778109360971
0.7297266813430132
0.6512948727469661
0.13798277708467319
2.5513424499666013
-1.3138877751716682
-0.7418078907110965
0.254398611637689
-0.5460142091853332
3.488904557284212
-1.2292310280510617
-3.7338427093893394
0.6121058710217826
-2.9750720818859526
0.3286594147436867
2.3910926608041603
1.1178799047227912
1.4439878131385604
1.1669693825610377
-6.208031257296814
-0.9542413465393996
-0.8833483342168825
-3.5424429632734107
0.3335163664787272
2.24321591739201
0.482578491407494
0.4610870221090812
0.6879604988741266
0.9996589406590336
1.2933537857940673
0.35817896385530695
0.785525486626663
-0.7597623575162991
0.1274176134263265
0.7890051617420653
0.9160440502703626
0.03237232886109029
0.29902742008185
0.11076417522332949
-0.38538026513228224
0.5702938306938603
-1.0873351905954662
0.040753705015028334
-0.27721454073048973
-0.7409375014311806
0.5480416608490342
0.03949946815431136
-0.030709498637279738
-0.03963266722494226
-0.20638349154669916
0.6454962673210559
-0.5233522199844046
-0.14602380702008094
0.17262641880779775
0.20559398808780285
-0.321628923568895
0.4167907295108855
-1.3149932512980846
0.4732586463134727
-0.13530060314355916
-0.4743951975066939
-0.14075255194920294
-0.6019582981319035
-0.34755969222648303
0.687725547998592
0.14647865211603509
0.054969508466687814
-0.35636562346349937
0.18969714714987093
0.04031756743668038
0.7268314807468277
-0.06133741927569895
0.07763327236107703
-0.08595426005012889
-0.08375426689205359
-0.47841727126745276
-0.1619397820917524
-0.8119920673725257
-0.7129449768045737
-0.9073896137519775
-0.5540486120177222
-0.7684835834113257
0.1649599727425671
-0.5255650213032035
-0.3760352814372845
0.2502592200041085
-0.2861437855876951
-0.5494194182459325
-0.34771424477554574
0.639297077078304
0.017817602305290715
0.2444946614699395
-0.6293223016549244
-0.6937424370760468
-0.13989683394103827
-0.08431824178505888
0.19669660836269467
0.22859240557929655
0.07359397077125637
1.2608638177987648
0.26029557174958795
0.8745640902663722
-0.4277121397111377
0.29244640026111773
-0.3720255032554557
0.060953689672793944
-0.0007825569638413135
0.14072687250396873
-0.16139132552532337
-0.07072500375486888
-0.37684104294175397
0.3334443302423362
-0.21301964164825163
0.013390775884035745
-0.3847072864243142
0.49585543199017124
0.4075536009320198
1.082966120932338
0.5846304658930861
-0.3926222494534181
0.998500414046274
0.5236462814866965
0.5722380113454855
0.03626655533751249
-0.07358043849222598
-0.24377500508054578
-0.8391555137167813
-0.2483914823886771
-0.40023342146231267
-0.5985693892843925
0.45798469663332153
0.20426447097295278
0.2535860137629185
-0.6925520689752495
0.5537463250477707
0.6201992943373509
0.49675465988665896
-0.2890231118166158
-0.02317216861972673
0.7676077598384043
1.7530833955381453
0.08211977974096556
-0.18320933721408642
0.08081761229470409
-0.3875354163244994
1.1215681252961374
-2.0921469477737875
0.12497354691009306
-0.07027125430571432
0.22088284956379678
2.2066513378239767
-0.25414006968067504
0.11914348668084529
0.621107203427579
0.7760936118714162
2.0433452601090027
-0.8775845201520599
0.5693060142295062
0.6022263975177107
-1.5663835362885257
-0.5250992368458938
-1.0278210610920357
-2.3574731570319636
2.281370815505283
0.789314780685924
0.305758889854137
-0.15193303021509738
-0.6910676871031264
-0.4871747255570698
-0.9640125850174339
-0.5034945300515625
-0.7642590885061378
1.9229381350713552
-0.4407465184371621
-0.11549889670728579
0.29306193108113515
0.15164757570425696
-0.5673646589121095
-0.30959827321189526
0.7338072778041168
-0.029987166156509037
0.27713822344457084
0.16808344845555795
-0.16775603006909334
0.9717177660868871
0.5848683285591578
-0.009533544032452256
0.30963355433601136
0.5318322297784591
0.18621064501053883
0.39038191711320464
0.40827968875162185
0.21549788808404247
-0.42385679271172083
-2.0076771424964193
-0.756148890202761
-2.4102846593670675
-0.6474348288013837
-0.009454885844821178
0.8307488693042616
1.2104314157925697
0.8370698765927587
0.8487496923997714
0.08842819020721064
-0.43463922397305405
-0.8497306332398344
-0.6746497285325871
0.7992989605744342
-0.8091503140690534
0.06375987303315729
0.29402905369312693
-0.1421689614012219
-0.2486215002592065
-0.40124159154340944
0.32874181490862364
-0.5110202090417107
0.0604983398439061
-0.05522536594756469
-0.11482631725650268
0.04557709282752835
-0.061720963658932086
-1.0463629687473512
0.454397876437162
-0.46710007941728865
-0.39348035253154146
-0.36274154263020036
-0.05097999429510706
0.28325873941787716
-0.703950266045564
-1.158008243133152
-0.5064255615937485
-0.8397770109748357
-0.13924105040706558
0.18780416705860883
0.008606326016236834
0.5020888991435681
0.2785840595798713
0.21494275507546143
-0.8554244659205271
0.552005496030762
0.7162808095102247
0.32281198281457174
-0.577751151512658
0.5027164286972272
0.04283573459586464
-0.45476710470892645
0.04796530751057686
0.2666315589851481
0.13074288351857727
-0.4126566346780665
0.44087118250584756
0.1684556184897462
0.04480167133636592
-0.13865149020992712
0.10258201655538204
0.3068498968032963
0.6038354942013303
-0.08558727845687736
0.03432824216861854
0.6628879848414463
0.0521321856330485
0.08148164441538049
-0.03590564835577978
0.30676435074396846
0.9709459292810558
0.30798079996439326
0.5907094133318272
-0.17738083841658966
0.28840548845367
-0.26146473995479147
-0.6247453727594421
0.043865692077424426
-0.1595346712370694
0.5588325999793154
-0.0345645536054713
0.4577660946543047
0.8435660085663613
-1.0245867710553154
0.03783393042609706
0.5799213874871697
1.2322112139239145
0.6067587315735619
-0.04032023485900762
0.5497911826850009
-0.12812946816141593
1.31810311463263
-2.0240300932973545
-0.26072800154311276
0.35986008029274363
-0.34806480320607863
1.6150231583674102
1.752488335277486
-0.0937912810746025
2.3038857916219566
0.31251995639187397
1.820147848745024
-0.503201816265829
-0.05285025905424159
1.014265866581488
-1.5941221532665653
-0.04378543991936009
-0.35281468367687985
-0.7094579303325053
1.7388934120381438
0.3150871613612814
-0.23100169894505965
0.06253713507370529
-0.9808733456526564
0.25836220307230495
1.1314971934422047
0.4077781823544048
0.738691851428932
-1.33371062254664
0.2825758139821128
0.15677196528892948
-0.3264263589735226
-0.051934940316022526
0.4616100163042417
0.1834838618768987
-0.38134263368496707
0.00361562755590291
-0.126897507768582
-0.20746339837859892
-0.007961048707372034
-0.7723246124179899
-0.18413118377712176
-0.09942707939789519
0.11099623203250143
-0.5765742209290383
-0.34747455906826435
-0.004936150149972916
-0.36597724605011767
0.003341016302762649
0.24315917081333824
1.144536015449148
0.575115431852483
1.7025670281102765
0.813361875381863
-0.27757746368198977
-0.704355368265669
-1.3457645977024555
-0.8009145757152887
-0.4247642002479292
-0.05082951403303902
0.33880833794151666
-0.351866247306692
-0.18594775531207144
-0.1864132063828209
-0.24798371192797905
0.016239451754538257
-0.0031627623291023885
-0.581426301776963
0.559691757988891
1.0016845818339055
-2.1089007462193203
-1.377720095492034
3.3960744554204347
2.6947861591309024
0.5680253545669885
3.103252325959346
1.5878585798228397
1.8505856763028978
1.8109983398393419
-0.05876343497153271
2.168454958900935
0.6544487731625421
-1.1088526352566057
1.645095897618763
0.7546671726466844
5.743740893313087
-0.7890834081501557
1.75692169826066
-5.397696562070022
0.9360207161778844
0.7994219627185845
2.291777805123071
0.20942811691115376
1.592315258406379
0.5961929714293892
1.2813829332307252
0.04686610200801247
0.47774706009026535
-0.48834683918397587
-0.44162662166582056
-0.18423708301538141
0.5709633682307899
-1.1571048692668882
0.11529393693048581
-0.5405330043347805
-1.5429257440648614
-0.06122657409044713
-0.6787449079957953
-0.2097297139007479
-0.6474692989106093
-2.00976066724733
0.3526609148686531
-0.954333738792602
-0.30146627283355226
-1.1908874637165876
-0.6674777216439703
-0.7626255025777731
-1.4478522087510866
-0.42342819223152534
-1.0704412625383304
3.6314311061281352
0.6429325216800629
1.0150059288609135
-1.2437530307283455
-0.8248046455131058
-1.5684084774355587
-1.0691233954972639
-0.7576528441507513
-0.8415663974903852
-0.9848538090836242
-1.0331559876858014
-0.15619572431531648
-0.832658735580025
1.802853705871132
-0.05991369719930637
0.3869350943244761
0.5157825964769169
-0.23302168003903254
-0.3072102411620025
0.31103684177802293
0.028772581320709784
0.17664411045936124
-0.8031063034152088
0.43013701742059435
-0.06634231096884172
-0.19315327967802728
-0.33340951404136
0.707663614086792
-0.20053400802970087
-0.37763159711089156
0.1596811056435825
-0.17075620337731753
-0.34892088604231003
0.06384609014916683
-0.18138436169628386
-0.4418746404214843
-0.48469449692215805
0.5428974761815782
-0.004619243752944476
0.6540493020948503
0.8434695160732358
0.46823562088810994
0.06564409687050893
-0.13770187991285876
0.13910062086647243
-0.39443544251620716
0.1947554946113519
0.12219488753747515
0.2852672451979045
0.17478803575975269
-0.3182591867751175
-0.13461324329727167
0.7055957536708476
-0.6051797784789397
-0.7146984658359563
1.771308296577341
1.18061581291329
-2.715096243688357
-2.226979813246901
-0.48677545051548154
-2.336072439047201
-1.3905517170531512
-1.8605980237556499
-2.004558989874867
-0.09697409262919192
-1.6606567881465837
-0.6161105775505918
0.5559173193136282
-1.5575062959649846
-0.7839815559809935
-5.155309418620146
0.7642756133638495
-1.2728029938448844
4.4488440188371525
-0.7749166462437822
-0.8271536645568021
-2.1737715989826376
-0.18630206729516702
-1.4951165186535111
-0.49018153148040505
0.17531396195422766
1.0403987646390518
0.8800619391519378
-0.4422760036000838
-0.08874430939238928
0.6713892173936481
1.328648167514599
0.4606874249993651
-0.3953062288056859
0.7144815991553255
-0.16392540229805236
1.5986279016809601
-2.1895833544448826
-0.601850279692333
0.4515286029525885
0.64205634149635
1.3058065389782925
0.2949425690099046
0.061562768289751386
0.3599064726291926
1.0552270255673564
3.2336045721189928
-0.7009731152905375
0.4246470843641608
2.3399274013707925
-1.5089945799282505
-0.8046133934670997
0.44522013802985705
-1.5166244061788907
2.826910483172442
1.087447859583625
0.826109653753548
0.36012872860057604
-0.6520524626999535
0.29154167778302864
-1.1085615203977426
-0.8358172432262532
-0.5535489320684863
0.10673362111225727
-0.18522855016973477
-0.6394915640503519
-1.3396833077508998
0.33778741305897103
-0.17530110027307746
0.24676295262274386
0.6283090572885941
-0.6768072739064538
1.1109591283224023
-0.3373773549284842
0.11570613076449465
0.7826026633521799
-1.0158199073799512
-0.011487944634310271
0.316538755951186
0.09206927630612032
0.12476626854977468
-0.6559547066378586
0.7989598487922249
0.020725300939214115
0.05126685843157009
-0.2659636015960132
0.12980668098410553
0.26219097078588177
2.3841935922002233
-1.228954416278367
0.17896055884242773
0.07882005919332678
0.20334625774404977
0.3620557312567827
0.5799167435322095
-1.641976664169437
-2.216391073517604
-2.598974588968694
1.1713281808661846
-0.003328947633054776
1.6780883875953767
1.1260807694020913
-1.0626996764566146
-1.0138392664914866
-0.5952750459880035
-0.5667172182163303
-1.3039408597761633
-1.6458490070013532
-0.20276084227862942
-0.12572752980617333
-0.2760012578715301
-0.45711091574113766
1.7834896427434772
0.3799535107716652
0.5300387888711621
-0.7969313583029057
0.19049541539319612
-1.5348207224529464
-1.365550136182616
0.3212739641867751
0.06484549921611135
0.3113237940665627
2.587719223296728
-2.5101535509380155
2.029277342237032
1.235983148219821
0.34568214917066314
-1.1170711851162727
-1.6124127349744453
-0.5494053209406576
-0.6932518630580623
-0.5426674850642842
-0.5787396747775075
0.6272480610505116
-0.3753496752533898
-0.04574162999503657
0.4557605218490363
-0.0843203784194847
-0.41807782423405415
-0.1479006998936647
0.6391276480414891
-0.22209655190264957
-0.21788031296187513
0.10568946957601213
0.23178282466395017
-0.03429481618469102
-0.1356988262105507
-0.5432996663721585
0.032557233949394075
0.05875154760909365
-0.42075095606143564
-0.32316803137012945
0.1607006601970681
0.17058850194565026
-0.433766554158626
-1.0260516288861843
-0.4030961491677139
-0.757837024234512
0.2397217942569966
-0.009375160963845762
0.6062892460472281
0.8751293820362009
0.25784869183899245
0.46074646773679684
-0.4987308271479374
-0.9917680854812277
-0.5327851235933515
-0.6018694468267803
0.7323911360433146
-0.0796959170610743
-0.1184035152808323
-0.08825260482244128
0.10774574940480909
-0.4475168089584357
-0.043139165757554034
0.42737437824894725
-0.3515735196288691
0.39055042567553366
0.27310503048960794
0.23890007674826325
0.6228551381533357
-0.13573789746648515
-0.24628897603392258
-0.030295739000095703
0.10258902101194076
0.23687604852630037
-0.474439857797063
0.3963692247139331
0.06293192231617276
-0.32578964977136443
-0.6938259684773099
-0.22484741336401792
-0.9721158068028698
-0.0054658967772052945
0.025414895623247467
0.4618909236133367
0.9141065901973885
0.293914083907527
0.5806086220663942
0.682385553989915
0.8202303435672507
0.6243148839746143
0.6106282480123838
-0.6355405984072903
0.5393134340224663
0.15305325232361466
-0.42462532551670146
0.030690697642061684
0.3203966405546851
0.1618701700538562
-0.4976327269549276
0.3737936546849213
0.1316924973912839
0.04084561490624555
-0.057535923523748075
0.22015675951232958
0.15803920306838812
0.46670554090073246
0.010878502665253403
-0.032238411290171916
0.6876773179537979
0.12288254953117228
0.022808150949097016
-0.11731968735565883
0.2949411108995058
0.8813990545468876
0.30468257982503544
0.7815051611282348
-0.40937375226764783
0.3777194958660529
-0.044209418200098854
-0.7156124872080897
-0.17430105039665733
-0.3584207537682992
0.5350229221056109
1.4078622326471628
0.4265490224290398
0.6922899033012189
-1.0147423230341137
-0.012330439859529047
0.5040511248694998
1.1793371649089452
-0.36723207663768326
0.29974394334567855
-0.23476803181051348
-0.8736302629166293
0.40613868637660266
-0.9114681884066228
0.04332069893501108
-0.46080137651837
-1.496419622696666
0.38818592777316924
0.03135240197941269
-0.27978850713542497
-0.40954924457529124
-0.3184034397278842
-0.11910400349511084
-0.9478712144896195
-0.517469851271287
-0.26888276673854444
1.54600833716447
-0.045039349329375644
0.8569596608159259
-2.3305530215261063
0.16248008557001048
-0.9712749693199282
-0.8087222368053122
-0.32794575403714693
-0.4607060531065883
-0.3684025075688011
-0.7278033819734139
-0.6369905557455978
-0.38157203459973826
-0.16303009239922375
0.040046035469160315
-0.7453980163184087
-1.9485614852663082
0.3551912241405223
0.2902325629304862
0.4362736317910129
0.678778151289376
-0.9489310272817076
2.0476758834356126
-0.413371466578122
0.15249806707932817
-0.11402370930986339
-2.162546393194604
0.9253693163216323
0.002643456602075578
0.4804743182312252
-0.5932671466228174
-1.496219787863944
0.9138420202486988
-0.5897104370727079
0.23643431884903743
1.4041919259275966
0.18427856056365555
1.5301275466497786
3.7359619947557077
-2.360690387324663
-0.7425289272529961
-0.41090823990999986
0.0850150106392141
0.3357179259762716
0.7142445929320522
1.4072196329641693
1.246394549511618
1.501591452946308
-1.0322214821707747
0.30191120946058186
-0.6104980611189267
-0.5986609073796273
0.4291399175353873
0.49164214440693066
0.20893480163072972
0.3360599638352451
0.28041643432923735
1.005486327606199
-0.20617322694547674
-0.05336118917652713
0.6786520047478286
0.8370537662604653
-0.697380116569525
0.5361177676582398
0.0821084878555799
0.7086360053248788
0.031154173144189043
0.5885579249394592
0.320090131130113
0.06456577330234362
0.07257225083122985
-0.29125731543988936
-1.6027747110599349
0.978291555133028
-0.28894839504162334
-0.4615141972832026
0.18592642461629183
0.7087237108812611
0.8691389670513112
1.0445811130823675
1.3872035297024161
0.47808475906200465
0.7805957898977031
-0.6693662302953128
0.11857200080526206
0.7386878863649735
0.8002123272078309
-0.012101609610922093
0.42795371411274225
0.036964243277860416
-0.1593332904682266
0.514137266266065
-0.7279105726303461
-0.1605553967291489
-0.25001059201581405
-0.7704652742339482
0.30510914847881027
0.038121906432806045
-0.0709762499751961
-0.18933239524768156
-0.17877265094878073
0.44714727537634175
-0.40724125040282017
-0.11066919163753228
0.31203876978254125
0.31703203122940016
-0.3735149467050131
0.6448118843603816
-1.3604924583333027
0.2599219655568392
-0.4092541249876818
-0.6131445165205488
-0.04953437200492234
-0.3986060738597679
-0.3181734740469752
0.9536413129541595
0.6540042733985557
0.670516052518036
-1.4437288201040404
0.5285812889932979
0.10753965473793019
-0.3906423789776002
-0.06945548602911435
0.2810316308052085
0.2665502619587171
-0.28791515245338856
0.1543996681955046
-0.05291418457391502
-0.037880342934120695
0.1304666109375371
0.0381674347724025
-0.1881241849847401
0.1288636353095889
0.07145359408744921
-0.46291889133649267
0.4412150909030711
-0.10682594753959145
-0.22480931493041478
-0.18781262968768195
0.20897648781072328
1.2484517104670487
0.5947844524889087
1.5308488278107353
-0.17986774443433595
-0.025949604535056014
-0.24072226887827203
-1.3206970678586467
-0.5573049819491275
-0.3265107970585804
0.7482740385863907
-0.25014379144805876
-1.7619417126388868
-1.7218247789848038
1.5786791718911666
-2.1245638504439674
-2.36791136647281
-0.70127248890556
-1.3703570177892064
-1.8319382236572614
1.128896617188904
-2.175739694648012
1.469576219606259
-1.1655802074192045
2.381699402552074
2.7482356774924575
-0.889961865004016
1.3879132566274621
-1.633256012789088
1.7860881331775769
1.1141021429980504
-1.906889119490142
-2.772576440901137
2.1293930502701324
-1.302260550598383
1.1396685578159587
1.6701036910463403
-1.6984836981257612
1.2101941479364389
-1.7401866460930577
-2.2082599826008176
-0.43086005610181327
-3.7599197491174903
1.7310132410315897
-2.7676886840165515
2.7419946260284465
-4.06672210573501
2.0893638682052673
-1.5414818647137387
-2.2093539789963477
-1.4439712818865489
-0.05169952930250201
-1.9529292492722716
1.638428489764315
-1.9350121015229578
0.9429741136103735
-1.6125313098143448
1.6412020491102077
-3.690337630861896
1.6199109537113874
0.8153856459749906
0.8491654966991461
-3.327668425073028
1.073896674912937
2.4900376139818308
-1.8590990799980567
-0.3625477990449858
0.5186103523314544
2.644537253953588
0.9518105175110876
1.5563738916529393
1.867323033975297
-1.6780295573612831
0.8350431308988981
0.553498523398495
2.1049629030545214
1.132901325815483
1.6493181792528813
-1.3144564158295498
2.1817354743857544
-1.6842440121203819
1.638253370633564
1.061672427165609
1.7658654819356836
-1.6853127115745337
1.7089931996816106
1.7953891027601945
-1.1874620210845122
0.13086217642178904
-2.484899339698843
-0.8667552638247988
2.0921608798626345
1.6961441314900854
-1.6196394216935268
-0.7192540485747356
-1.8463549790739502
-3.12281272304907
-2.1347279541763724
1.6943738176036598
2.901760909612248
-0.20912675671773726
1.1209696166618461
2.9731615119270325
1.714867426919849
1.6072283363341726
-1.5633769145289247
-0.8525091025471121
0.6740787382110434
-2.5537075536012006
-1.13726660060735
-1.8613374408845702
0.41163092532234996
-0.003801381103019791
-0.0008900285942495103
0.0017106028734834866
-0.0013620131000105264
0.04590615805602588
-0.21600535265781617
-0.08639754634482721
-0.0023792708342027856
0.14201279384800883
-0.0001268003773712724
0.0024001901720806626
-0.02879817366063883
-0.027749105990998325
-0.032406811769045994
-0.11823191336056768
0.0018793490981186215
-0.015976661288086436
0.0013914514140738255
0.03732259820058397
-0.00034616138576426693
0.13215850584440614
-0.013917719849096347
-0.016864355650561203
0.08925538672886547
0.0013701100004320393
-0.0007702915799115287
0.043570850363649674
-0.003669699045796768
-0.01109670279967937
0.333854651121495
0.3022268617380732
0.00327215378614804
0.23242494471583505
-0.048935167726924376
0.5454071185566084
0.007285813216260913
-0.0023046900251878456
0.2460088081205393
-0.004003717792959969
-0.287781832910531
-0.0005673414644597673
0.0011911811203187412
0.0007434990733645007
0.0624626511711276
-0.0022421789315294955
0.0008512810738958592
0.4445394941656926
0.001180083737941734
0.1310008550594078
0.21743056308560352
0.3322486298420749
0.08473503806655741
-0.03288422481344035
0.0026997038250611764
0.15599210762775717
0.6063278500940974
-0.1898024682950267
0.07536195731511576
0.07177748990702282
0.002704548706212304
-0.001519549607407465
0.12538549387214873
0.5163841627352027
0.004737031168378644
0.10292035152606739
0.0019624892964690385
-0.012572744690762028
-0.6231699931239725
-0.0006659723955155834
0.0013991082868336812
0.050979297829185775
0.0002839435553415866
-0.00036415959549396487
0.0017190522257723858
0.4223761324515347
-0.02714258895147543
-0.1375288738229507
0.011763112086225103
-0.23195225838235467
0.008651735655906847
0.004329278317942196
-0.0011650126705865535
-0.20463076994062937
-0.003209597990160828
0.4741719523346948
-0.049671644891582524
-0.0009272292906739373
-0.2782715085424856
-0.5299145371463932
0.07590278704057646
-0.30223189437036735
0.0012823159519280492
0.002692726537398767
-0.0015994119520967862
-0.1889043331507128
0.3621850523370482
0.02218037166699101
-0.02274529252893753
-0.003371925037962338
-0.14015655471365865
-0.9679369083546248
-0.7575633168221374
-0.07384060691944126
0.0458314519667977
-0.15606163591751313
0.7271793539976706
-0.8601604441084588
-0.27801797400680844
0.1440187887875228
-0.05461815027873402
-0.6852197157167458
-0.8110282991744373
-0.8068898769002184
0.37876248100619353
0.08483147651047457
0.17346630837402163
-1.4362825031415172
-0.18062936971489432
-1.025830498594515
1.7480846649173214
-3.385151068221328
-3.8011785801876923
-3.8542022033278758
-1.1761879156762234
2.3260223031795624
0.5375822672636833
-0.3504150972756608
-0.6713105485104244
1.1011382929132363
0.04233633985711105
0.1719573651745743
-0.691455960077069
0.45193231124013833
0.010240696131562713
1.1323928681058728
-0.480515424600747
0.23860120912741187
-0.5234113348844425
-1.1724407004681219
0.5372074948653762
0.14169970349060493
0.7669652766121652
0.13929566310068117
0.2489881160110121
0.6896474648954958
-0.24705129213201765
1.1219396479938812
-0.6893639701091205
-0.7042815980202082
-0.1411538124250519
-1.447804228241171
0.5172221828162589
-1.4641185665891587
-0.5605959700106832
0.43347615648852456
-1.2055680914451516
0.7428747245121778
-0.7867901383192516
0.36469478333995936
-2.0142467782679683
-0.19502605551928678
2.238935325036255
-0.7734628838704286
-1.199265924614885
0.34460708116338956
-0.03149596205315171
0.45827836388927895
0.016495297400013112
0.3541558723005734
0.07993891720522171
-0.5802478683283274
-0.5017517128156097
-0.14233761820224478
0.016668720691956664
-0.2142302356538425
0.700142684202331
-0.8209968121205176
-0.17562257908454082
0.1809644607330103
-0.37638833124359317
-0.5564191910305526
-0.4621632967827763
-0.747480540200146
0.05858863677066375
0.09692182548230349
0.2842074089154256
-1.3007883378435434
-0.009575087509381632
-1.313121835613647
1.6756272953482794
-3.5648920140154794
-3.9935441381694017
-4.184239009154777
-1.1189391571604146
2.138837390467446
0.3436844513644477
-0.4364626135208865
-0.33838114408458986
1.2079261168546744
0.06777762414576924
0.25852447727103844
-0.4230115012872426
0.6479705586200419
-0.018731779097946863
-0.14645640873073415
-1.0399146613941426
-0.7491506180018193
-0.01888188662115689
-0.08463918592492227
-0.1624580624369436
0.9283327898625807
-0.9872778290557434
-0.3356447342917806
0.005823753904246486
-0.2757617085378976
-0.9319882245561426
-0.8344286050286315
-1.0870466523068807
0.21942786685776403
0.4458597308313593
0.15740887977699175
-1.3473385393559467
0.07641459541372295
-1.7615914532544998
2.0060366958798954
-3.3707202665665137
-4.111837438454637
-3.9186495962042835
-1.214834927073614
2.425139248852495
0.5133898582579188
-0.548016121185163
-0.5498400545962618
1.2806959953648822
0.1658538066609349
0.11472467362667896
-0.4621543005251928
0.6531046499284454
-0.008477518745958519
1.2184688142033469
-0.36358914635092265
1.5461496419610856
-0.18024468177487898
-0.4399867591240724
0.2849296405485735
0.13423904843807064
-0.023550584331715307
0.08960472491046373
0.12152842300284368
0.6559196420849748
-0.2459026421700939
0.46267362046124816
-0.3169553696002996
-0.027785597981286787
0.719895522908689
0.16355747963859607
-0.09190703141639238
-0.27761721031141173
-0.6467345047489335
1.7504717313356963
-0.6824103421722311
0.2624526100114741
-1.191875751783305
-0.8350493360915249
-0.4503497788499888
0.32580106554476307
1.63255537003009
-0.46001499731709344
-0.3531049737622806
0.3665602748009465
-0.32832652476128205
0.03377431430912264
-0.1288118666076895
-0.2146782047310408
-0.6677846574681833
-0.05148555407308127
-0.18911528826165944
-0.06066112241645027
0.4878327001266698
0.0583629561007298
-0.005259863196660601
0.0703775710505788
0.28084988771564845
0.4635661606164544
0.07293963325369834
-0.2843686985869589
0.7049187084633113
0.41414226136380283
0.5208041333572457
-0.3367142010678024
-0.3633616166949775
-0.15007644561603642
-0.4043941793750106
-0.09023805092412447
0.6391035493377418
-1.3053921356952807
0.3654797440520328
-0.27664923691338866
0.12134823996505724
0.06550756407752886
1.4207494907831892
-0.16801941597088244
0.22140841546170706
0.7253778367038787
0.127854316306332
-0.04544053123983343
0.30511873560323266
0.0877167133491307
0.6394485183895154
0.47092737332474943
0.3207431622261621
0.2439182356600664
0.06772821510656186
-0.1483762392570811
-0.041120293726961896
0.1465237628859735
-0.12329758047903396
-0.14907000990927824
-0.15179285654526853
-0.09330303862922461
-0.046401646783976055
-0.14162285121558313
-0.18994992668560753
-0.26675685276905775
0.40442412032881225
0.09389012720989698
0.05414317717140195
-0.05046052781743538
-0.9805829230901967
0.9585650622302215
0.31731979821909395
0.42526690428558994
0.3931684650810526
-0.7233722605549708
-1.0948872147477242
0.17673697786760667
0.04473544322597163
-0.021910038012847334
-0.08065452749010912
0.1777544264295474
-0.34155030031433453
-0.22576295241276717
-0.17450336796421098
-0.7964172229080305
0.4769296079044123
-0.014831690712269559
0.2030543951683499
-0.07105028039665479
-0.4326826111303359
-0.0953435962387646
0.04812345245530964
-0.05623166004822259
-0.3104136008714798
-0.424462739533609
-0.16322110101250317
0.41270829145226595
-0.49905897460170845
-0.3501676123048881
-0.6477488866497448
0.16430129662610146
0.44146683235229
0.12802382751960184
0.22768418716031616
-0.0151605262816701
-0.580135784909444
1.1468936247365245
-0.28253534482045145
0.2543877656379025
0.23053807862047096
0.30866191837377327
-1.144270623331047
0.17435875882845622
-0.5835154515218012
-0.7628398460021502
-0.05084022730248111
0.12009073064561897
-0.24790431817973252
-0.2951753781672212
-0.7777728150596798
0.571030538179876
0.1521411080347467
0.18419668317347515
0.05393382535198899
-0.33107589890543393
-0.11305038543685843
0.09699677841051259
-0.19740209001191045
-0.2616049250196851
-0.29773843182582177
-0.18774185073589786
0.04251013958255835
-0.10910779870906949
-0.27114905784848525
-0.4913329013073438
0.5140859438032932
0.14293602380023493
0.03656621636568843
0.3910488426883662
-1.0478402015644854
0.5771208322277238
0.5131505101733653
-0.028869285477143732
0.5073584435342855
-0.5964252066917726
-1.2335102957358504
-0.22729822625176585
0.5287725390746945
-0.9851824374210775
-0.9416346413284546
0.16995123359238348
-0.1635188753830303
0.0994726207530597
-0.21079066257898993
-0.9150067679192713
0.45075598532555344
0.14387345963213843
0.22043456820002383
0.0502819332563182
-0.13678364804168436
-0.027488233048494543
0.06285215656922429
0.04802119268228111
-0.1771763426395016
-0.2568386250495844
-0.04128677837623778
0.3147962756745125
-0.3898376572185499
-0.043907455054181685
-0.5548947160184339
-0.1090147037751702
0.5065092734141221
0.26923774689926827
0.008320479732487226
0.4999749344917703
-0.9055189769883158
1.194014101923301
0.2058380487742003
0.4193924790472196
0.5094439655535853
-0.06797094490495605
-1.066452244260926
-0.08930642555668922
-0.6693658099951363
-0.2515471719315828
0.11404798999166696
0.009609911901222777
-0.3750191074014932
-0.5180987730421273
-0.5726689147924398
-1.2875271857888106
-0.5878246863428314
-1.2448199053444398
-0.14485618767400227
1.9757410163590943
-0.569843373055287
-0.20518810692896977
0.020893302121764032
-0.06276467023501946
-0.4479155200799821
-2.2131715845450772
-0.20138614456385126
-0.4355600287340092
0.19476207545914725
-0.5122896122503324
-0.8768523519672742
0.7056880980636577
0.4874170413544698
0.6010530571482349
1.010937917576224
-2.009222536802522
1.4782953614301102
-0.2304048081626826
1.3856468513462212
1.0760717331515948
0.5607906213454319
-0.4685607319428913
-3.3707325070377165
0.5574013600182273
0.7370556884422925
-0.3916878409881426
0.032850148165251024
0.4831739516966503
0.6354829158093305
-0.2887961463477562
0.9316954296465532
-1.0974392687990586
2.0908080516512233
-0.2504605991304493
-0.18871599471325962
0.4715176983782894
0.09930389198005586
0.3844146387965783
0.0365347049162168
0.23842776157616927
0.25214385846329673
-0.3981833017065986
0.7100206922212716
-0.7721302943417773
-0.34168825934443675
0.34681086178081943
0.0472575504867574
-0.005766463241014033
-0.8818048979907136
-0.8778195602989559
1.6630115937064682
-1.2459198545421115
0.3759390464137297
-1.7648384818540697
-1.3351621281285202
-0.5697175866575784
0.6245157427839165
2.298437777733336
-0.9228860881315815
-0.48196279722120694
0.3719266940942286
-0.03350756016666731
0.021885419248098396
-0.6347427442904953
-0.3015952535509962
0.26952309938299596
-1.2071876504338317
2.3087499912944858
-0.4148698485954787
-0.5603974674901159
0.1486813652962583
0.024036535188836302
-0.34731083547557307
0.270359037507751
0.05953540608190024
0.7635651294508792
1.20956760338808
-0.710583325052801
0.7444258654056485
1.0013104599685216
1.04096478260794
1.5310473146968566
-0.3293477828937041
2.0298286402065564
0.449415894026346
1.6451806400066429
1.8036737778539134
-0.5528513617710137
0.4899742754928488
-0.4825308030133681
1.2295436090832101
-0.09570533819834662
0.22958123404595476
-0.6889575156839378
1.1450182292981212
0.26527842539213625
0.2025543126057018
-0.18374279818563694
-0.5097803922137522
-0.3932878061390461
0.17033871470273307
1.0668385401695697
0.9180611354823941
0.047384551848524796
-0.2761974052247678
0.12971542817125056
-0.7251934507250161
0.8477808365692837
0.2999162186086881
-0.13886229256233498
-0.08731145278805504
0.6974589354306853
0.7705243555999919
0.8214043523780703
-0.3213398176264156
-0.10056337786891231
0.07641647181335896
1.3823929684302372
-0.03167214474316958
0.9030523543970017
-1.7972895549127843
3.1639089082168903
3.032190528815893
3.32085562995998
0.8189541503638812
-2.1279718618077204
-0.9142438678545813
0.14013592823582127
0.8272675565682046
-0.8571771408845048
-0.13266604271410076
-0.029468309070651438
0.3753318897968997
-0.21440788992331358
0.052838370249259754
-0.9384676765365128
1.1547990606891276
-1.18781235024545
0.45917090226449064
0.7563977843555671
-0.3725189643493423
-0.2023867970464676
0.29943345823712525
0.41002950677853706
0.28285977053202216
0.24265552686192826
0.8924072285191974
-0.01784538105890537
1.0914543747547227
0.7102524961212857
-0.14895838076384849
-0.05703589401233674
-0.03226033333454462
0.803168582899046
1.3512712159870799
-0.6040070871032662
2.593219985169596
1.1352190314248252
2.474182867695618
1.3806506194343553
0.3924623159944752
-0.1717116756801102
0.3943285504593555
0.008107517885347748
0.21427133111745927
-0.2999788922321034
0.010300534293491568
-0.13659404292152003
-0.0766210116385737
0.3892258534231564
-0.13011685547527715
-1.1532330513565496
-0.9080323126921062
-0.0872787205592945
0.009194632005713056
-0.29603337298615146
0.7523478439358171
-0.8471279734430934
-0.13533705369966004
0.26233315522485484
-0.2017638613905605
-0.802740292892814
-0.6242989105311184
-0.8974334786963171
0.6524114295211267
0.18143634893198382
0.3077427543194389
-1.765425760819305
-0.2798313113829746
-0.7149546677201366
2.0497465036684877
-3.797531149150715
-3.6968927222154946
-3.550282403351665
-1.1057445774064512
2.6692661438759657
0.40512240269289285
-0.10548468494879952
-1.3614938137275412
1.035024664749285
0.06947557219902586
0.030020847023175822
-0.48706198136139667
0.18055185924405912
0.04380595184918938
0.49984296309941456
0.7081244757738145
0.5171341906374266
-0.574286630217065
-0.3306592795969504
0.01846360509675806
-0.28452770499408886
0.11945340537674144
-0.3315498679712957
-0.21827170093116297
-0.33307985847608257
0.33635860103824716
-0.09843045456225183
0.17223853277176424
-0.5576246202118296
0.12837427970450588
0.21305477347227084
0.707068012521596
-0.015294984738268222
0.18967419603695346
-1.4278022110110162
2.3865285116385255
1.3891168181847129
2.4009932200770594
0.3456774127747975
-1.4011136435303706
-1.2764545141584713
-0.12126191839152435
0.08095005508347945
-0.5812480281875514
-0.18841693995516734
-0.14053081616406105
-0.07542148646035647
-0.5938886048680012
-0.8590100921554091
0.2964669193621246
0.19086695207375973
0.20496558791805927
-0.3080586758430481
-0.30398672977361835
0.04216551266464203
-0.03221806782993819
0.1328526317071444
-0.30444735801914896
-0.32405558135140977
-0.2885656548465013
0.5078385683332495
-0.6669149275833751
-0.1403474771482818
-0.334004687932723
0.0014192371731280825
0.3913578681112952
0.15292706658309807
0.12103892146975935
0.5980384763621395
-0.978261498077256
1.3999476321960025
0.1531064182130369
0.833314511346073
0.23085355027323193
-0.3240515134025909
-1.2737447986633468
-0.2787342124560523
-0.014415973578795456
-0.3223329204457134
-0.26310431446279114
-0.0272657639410981
-0.6672410704342642
-0.11969124030859224
-0.7600685999413577
-0.16633177978153493
1.2682923766224976
0.8397018110619557
-0.08032937843510551
0.09302954183855475
0.24179981996268832
-1.1569376824056108
1.1926563421568526
0.2386563241613809
-0.10693286041701182
0.6796845816893305
1.2027963244614324
0.7688015711081652
1.4327768023837024
-0.5205103144617962
-0.5735354815247878
-0.6814799585943725
2.2297475100607587
-0.2252968879412373
1.2496421377322153
-2.7199701229551545
4.259763191098877
5.064139652742115
4.26055459203418
1.0711002614905758
-4.004160447798361
-0.7182776395384136
0.3613872965924918
1.450632894420384
-1.8216692799148893
-0.10518159462393233
-0.15141735213574903
0.640343158540436
-0.348627519856201
-0.020042113127838813
-0.5484413034427056
-0.012222949540917332
-0.20603466489307246
-0.011828613870603766
0.40116422368900806
0.04905790380587995
-0.019670141225788803
-0.0070869039296605416
0.28374055585131036
0.42634831380016747
0.2462958609569355
-0.4791887952641517
0.5217629371025678
0.37541025647492376
0.4395340475405462
-0.24385449538643536
-0.4045149781090545
-0.1285431258790176
-0.24284365998142932
-0.08182921729897025
0.5747483171898603
-1.13487928351796
0.09621051510002661
-0.3803509915518488
-0.008982019875466405
-0.21754230380077094
1.2224767112905977
-0.14943813246087936
0.09057534523524516
0.8311072102841546
-0.044424951968943596
-0.12286136276902107
0.2799745757196029
-0.03403221890751178
0.7558380383949703
1.3767812719372643
0.09196439573850688
0.8738692007483801
-0.2875384655915576
-1.612443070635768
0.563189043253866
0.14091637242301094
0.2647144880677947
0.06011364300982896
0.45717126921732265
1.3972031361456008
-0.03748164942992563
0.9564690482837113
-0.3629693818174792
-0.19023450796255326
0.1567206119163445
-1.4470610780423427
0.15738748848863016
-1.3347090875110559
-0.993852895875486
1.0106401803332037
-1.268409359468595
0.5767796190735105
-0.8356674644321749
-0.24587277398271226
-1.6343948876173866
-0.003727726723397178
3.254667806000757
-0.8718791989659888
-0.9994336612091933
0.3347252153506608
0.08329231810125483
-0.12913158466330507
-0.35583237062839784
0.13040559129061355
0.600501033968731
-0.5153519684461095
-0.3707474945291994
-0.019925208645007967
-0.6333697210348364
-0.07977218619922198
1.3216419336308223
-1.1912547537395215
-0.436502202159498
-0.386156429021083
-2.339030591573085
-1.7571041442197641
-0.57144282616076
-1.4766222956128272
0.49465194827117465
1.107417187073383
1.3608237874707865
-2.0101002841588387
0.375568937455378
-2.0548710188617245
2.310398500565599
-4.136823918925781
-5.408381937805518
-4.1201014083873275
-1.2381940504114322
4.565382153237118
-0.2633398425251302
-0.6790475133491429
-0.6020053448886923
3.0523981726997715
0.857677084909594
0.13977952737172109
-0.33733374418751216
0.9844218957231106
0.23000548754478767
0.46303670201667774
0.2643161573522229
0.15263823036146865
0.16888734314903595
-0.19662005851033384
-0.07578878505557615
0.0901959608403247
-0.16818408336994056
-0.264274784190892
-0.29323439879829694
-0.1943903217065196
-6.150512622522782e-05
-0.16143654759579124
-0.25024107742436047
-0.2945794808068823
0.3592135825082593
0.09562848896422253
-0.07172415111652064
0.2673654889196471
-0.9671186815455333
0.3210641126658177
0.5101315291038014
0.2260052621726435
0.39286009455732884
-0.546858714203846
-0.5290796544911756
-0.3391008762092238
0.1487955870727963
-0.544699712519616
-0.5694698903154668
0.039782908311398836
-0.21247507296308135
0.014732164897388447
-0.27320287799566395
-0.705521362523201
-1.7551731231791603
0.4690446462600668
-1.3362598546730455
-0.18672377099269719
0.6988846861763425
-0.6185330181776583
-0.034502698093613254
-0.2508978532985393
-0.3251107607857903
-0.4776485087441337
-1.5703056397356592
-0.2690948815737266
-0.6917919787475508
-0.06548249786298393
-0.17118177762170309
-0.8234552951530687
0.20793189401970988
-0.19166572234868015
0.6077671755146404
1.4639292470266234
-1.8298530714632593
1.155903667504813
-0.8439369149402204
1.1914793631530392
0.8194321996722613
1.4124106420642593
-0.5806130103956899
-3.2567471542887607
0.5773945120700087
0.6391583913945149
-0.6155966976307652
0.029448131711817697
0.04202367336472696
0.6948567658439008
-0.3079819030576144
1.4505068016708518
-0.5895938052292048
0.846707049950212
0.12685732069784453
-1.0534102921756776
0.7659228689587104
-0.04352419259088372
0.6823873978197943
0.2174333645768748
0.555158390294061
1.7025608495946445
0.719661811671525
1.4170540958803544
-0.004893303905614828
-0.16088054207591815
0.5689769078460681
-1.2112981237754965
0.4166652187062182
-0.9989346244548231
-2.137415973469242
1.3517165111307
-1.153859414897066
0.7790605811420532
-1.0783259237193201
-0.13951835119943265
-2.602541139655876
0.31322007413455705
3.4697496535413466
-0.43942434403563607
-0.7196630719886473
0.6922183897374087
-0.17158054646871743
-0.18435979450457815
-0.5244351287316326
0.5925162365116375
-0.11219885127505992
0.06944687787339797
0.1680155208191089
0.1633057090983352
0.26483122705766177
-0.010350479611351118
-0.7475489720333908
0.675325841770833
0.16242543625179362
-0.03746542104033842
0.3775505787859387
0.5426670925536546
0.24774548460318285
0.9925481890485405
-0.05118109711062485
0.1755996779458416
-0.04425380830380918
0.48364522445162095
-0.25603539086275345
2.075874123826927
-1.3629673436965972
3.2382976173286964
3.0371898050443478
4.255233920056225
1.2445720805155138
-0.9537083686297412
-0.387854048244759
0.691646246604852
-0.09186461535239208
-0.8977747445505575
-0.32337066762037325
-0.12088355894942655
-0.1459455098993566
-0.6421078686445889
0.12493646426267378
-1.3599206574609923
-0.41717720691749083
-1.382478564748404
-0.059799656301684004
1.542722662908812
-0.3313450145336084
-0.18393041629456844
0.25356683299838445
-0.04480318705671127
-0.23386638941546706
-1.5406975100646976
0.21730170677190846
-0.042758203966984897
0.42633277224774974
-0.31453828387891636
-0.7814406707431877
0.08625414053544316
0.28313541133299225
0.3730654157921011
0.4962058283848779
-2.061146306162344
1.3664593728335406
-0.34047652740194567
1.2770454056056928
1.1809586332254287
-0.002634181375898663
-0.3385081944925511
-2.8825844152498394
0.7607917706026592
0.24409347832628436
-0.35855223712442125
0.07304965054891407
0.692363742587227
0.9111376166951027
0.05843096997078413
1.6690355116379405
0.24764498459267423
1.024645579618083
0.1524224333539464
-1.433838945810738
0.5402795895938813
0.15722621468469722
-0.010523638052906382
0.2567511755608933
0.30579641526582596
1.914009748548861
0.2784960304012839
0.2971584366603496
0.15473125196991147
0.08730026133858583
0.934257881350744
-0.1532787161924899
0.11778096957897846
-0.34816357987738805
-1.023465205739539
1.8099403954384892
-1.0914326184931742
0.30613145560260335
-0.9704301436512196
-0.6178891659787886
-0.68670505313789
0.30018325180198974
2.7192380509867444
-0.4832220421080466
-0.341819015837113
0.4245970674465878
-0.06260779123802847
-0.3645106316098273
-0.48854507349815535
0.1954786158152306
1.0036122685178928
0.10086085545409083
1.08974147442954
-0.11107315755470303
-0.6812549322705925
0.1975029536047315
0.15651359977055956
-0.1864403263045127
0.035904871736578726
-0.004891276519988458
0.8236314232059547
-0.08254568876475257
0.29741195146687355
-0.2582442870473763
0.06916132777339988
0.8615526327746843
0.1233539748060645
-0.04496875324582408
-0.14998127796022467
-0.7885029415109477
1.5738609298115172
-0.5281820932169595
0.10216941957576482
-0.7483936230746939
-0.4193009457943955
-0.5947132096967364
0.10159803783919717
0.8550018815398603
-0.4135235168561052
-0.4894426701386615
0.1703697924260938
-0.25006366509616207
-0.07293779650587179
-0.07474048797811911
-0.2188437152377441
-0.4838363287223984
-0.21237798147688772
-0.3022083256354461
0.07635461392650085
0.062203566566582665
-0.032852228403220905
-0.14889454475230823
0.1293251603981978
0.1399502125780652
0.17159175037381277
0.04039097678777637
-0.02256390158318648
0.003120170398260619
0.11899420324611694
0.014843600411312576
-0.5798878889866601
-0.04515851449974683
0.11121875011891799
0.12132519282734677
1.1935226029638453
-1.3601782699851799
-0.11506821792262882
-0.3944574484102589
-0.1263799455161211
0.8279785201707256
1.1600137542363587
-0.2275344264504059
-0.1279644160813212
0.09400472489065233
0.3000149432035007
0.20421779578870086
0.3840087273578442
0.06536796811857865
-0.2402357367746443
0.6400253807257184
-0.38659564080885994
-0.8733592810832095
-0.6269588256046958
0.4978154231549756
0.34816556266704274
-0.018197823115412085
0.48927702054365474
-0.2589844726710699
0.2302381784837862
0.23059821207079798
0.13135846711915616
-0.48639567455036964
-0.16723508662249637
-0.33234141195813716
0.5096406520997365
-0.01669847980026406
-0.1479459713607222
-0.8264896506051221
0.134720191310616
-0.4296040002996107
1.5842843072090909
-2.585002756321763
-1.7688215657424857
-2.5784973969987695
-0.524529965668314
1.482870779285041
1.01939736658771
-0.06120433707268989
-0.6971538476854738
0.6255777461772296
0.23291063748548113
0.05544913141766994
0.002967840327085367
0.2709371041686673
0.5553589546244346
-1.630972653045031
0.11030626785117617
-0.9793307691649884
-0.00902919613786003
1.3587941295659252
-0.5952919367914424
0.03147654960328434
-0.16367222209413126
-0.14531416368314012
-0.45894868553891416
-1.594749093303453
-0.29417980797969295
-0.5132460715215331
0.15240800549951272
-0.034176786038972985
-0.39457704743916183
0.5535171856457035
-0.3390142910344734
0.5458545512037208
1.5429278556736679
-1.4187594796787268
1.0954618192158734
-0.5794130103939327
0.9672458608082849
0.1827156660913968
1.0680500207059769
-0.44496903301802787
-2.9174463605747802
0.7185208856737038
0.690476421864827
-0.4011607629378972
0.1741139274749933
0.29252513341669517
0.5017307817554612
-0.42312060367017673
1.0928111674544314
-0.2539836519726445
1.6228356982894219
-0.05075116912301284
-0.4872251545100242
0.24329458669068502
0.17521868084852338
-0.017847305090961888
-0.02712604390830409
-0.010642044526247759
0.6767605651126783
-0.1193308476100284
0.27255068278838035
-0.22486754386103755
-0.03250713735629098
0.7309741850730241
0.28368524218009133
-0.18573312895941776
-0.2848162546599163
-0.39024001501599653
1.9234968305856415
-0.7761135757146551
-0.06766926181198432
-1.2739195789555806
-0.7688644838471386
-0.19922744879079887
0.0966729866655767
1.5564974621855872
-0.5139136949336229
-0.2933424504663414
0.1738613250071284
-0.09612439358347502
-0.16648854116194764
-0.03337055055121232
-0.16629183892820054
-1.289587471924348
-0.5363450608879401
-1.4503155980725388
-0.08862115470418949
2.011091755336301
-0.1797805496832413
-0.15833250195585463
0.37018302363769373
0.24757467515564238
-0.22146074869239482
-1.7007400334312768
0.33634354971860736
-0.04638293468398099
0.5983092179843214
-0.09226100305890866
-0.5583867035257164
0.6035923197357844
0.39706740624135867
0.835722816497938
0.7127075765189591
-1.7500018969418945
1.541401027811788
-0.166835346475347
1.5670295958787948
1.1371230071129381
0.29857675009447554
-0.18525940824389966
-3.2137129445925394
1.314219113654675
0.6928390959399063
-0.09963364366059611
0.49995537105756394
0.7837675988761786
1.054128351015826
0.0719339428150469
-0.5036761324951589
-0.26217651058680125
-0.3698143531689088
-0.0025648389643882193
0.37961170630005125
-0.04612887409025757
-0.14514909598540535
0.11201404563294351
0.15159090479723458
0.11969988122832169
-0.042718862365969876
-0.010868587881432816
-0.018939758353480017
0.20406988100388657
-0.07355446631856481
-0.6584157617085098
-0.0005002755149826561
0.0883007483981548
0.13677585354461505
0.9633492501362603
-0.9404385280008214
-0.010515271399941238
-0.05597524832939681
-0.20901801286699626
0.6703182969407971
0.7066974703821353
0.11621709790295551
-0.4434167372680662
0.053726876491794334
0.029296663541937704
-0.1647917529609234
0.387739836793773
-0.023208658297987298
0.021111545852328124
0.5186338327943452
0.2382925463872144
-1.0935520557174456
-0.5987871902145403
-0.03613481749562832
-0.22954235811439602
-0.2826697078065077
1.2364112758609542
-1.2383712707332961
-0.1969221170357465
-0.09966438113589421
-0.8019664877675813
-1.061404622146364
-0.8528941883770534
-1.164992876994672
0.6013829249480913
0.27463028431293945
0.8217722230018382
-2.152249948276234
0.6560847608611475
-1.5184678949143107
2.6072832610588548
-4.5974340759313375
-5.428534692278996
-4.640541449027541
-1.0655996124849672
4.248607883379636
0.563376287549499
-0.9309827711858996
-1.1134932278378653
2.291845247217422
0.11634293140455126
0.2359179714605106
-0.6300421314551445
0.9299561920478968
0.0886963738803394
0.27794165424345413
1.076450703313615
1.0308968216830783
0.09573431129355482
-0.12287876443558059
0.20989073899423016
-0.6563933311404584
0.666611496342314
0.21302970207152588
-0.007081013355480192
0.14342087253733346
0.7811916957441105
0.45238852515518085
0.685171191669867
-0.24746465122388553
-0.19376701328405183
-0.0626935662450779
1.2361737001914066
0.18440060764754954
1.2949088243454936
-1.663972484829341
2.623101405021292
3.0696016805022777
2.763322294954738
0.826517986566602
-1.828226918007711
-0.5917721537936461
0.18887017440365308
0.39379447004492485
-0.6682941522437826
-0.004970870661987352
-0.11039058578368774
0.29543435334522133
-0.1997894325026999
-0.0342499045909095
-0.1743419036082564
-1.1801786241765213
-0.8915605331053015
-0.08338572035897096
0.16398370433507373
-0.17989697341748273
0.7741912369433613
-1.0608435790186834
-0.3172694554028721
0.2296238811874877
-0.03267082185747246
-0.820192561634054
-0.9612824097924699
-1.0135341121629533
0.45879686001767206
0.3412192844309421
0.016053883154255398
-1.6811243952036052
-0.011562715731325121
-0.9022422022623295
1.9548011231004792
-3.5696076255264275
-3.8200074992096624
-3.43956744881662
-1.2015909873932862
2.4544638629257025
0.6877537087832293
-0.17591394590748058
-1.0239590925907713
0.8754187348379395
0.24738738753635436
0.15012448042398086
-0.6258180187697446
0.176608506005528
-0.05134467601874974
0.530936298320891
0.19029568510755102
0.3523377960274565
0.0025675912258306694
