nep4   2 O Hf
cutoff 6.0 6.0 100 100
n_max  4 4
basis_size 12 12
l_max  4 2 1
ANN    100 0
-0.10365499305715875
-0.34236492562723275
-0.20567437628510254
-0.04362391992900701
-0.08878325070588235
0.35956650984776806
0.1848462871618923
-0.2563766788010643
-0.45416486906115094
0.894032326981516
-0.22468687916955593
2.4822065428822206
-0.7155348295594551
0.12660319020582214
0.3197371308913139
2.4799028579174407
1.8969427167020734
1.112686901760491
0.40273149539813446
0.31708760355168913
1.4174318894918099
1.0412568069032395
1.2671737429103425
0.18844002248563438
1.4018970651585798
0.5429172927465735
3.6763990742960644
0.3234346259787403
-0.4484070849089578
-0.4673267461635321
0.5432810798954067
0.22437042648668776
0.8265687714804911
0.06156714763532252
-0.1271342274518928
-0.7744202210544492
0.5727712596961996
-0.03092880714188294
-0.04518868091995239
-0.00285337211359628
-0.321453464254695
0.6152545846661945
-2.385410400728368
-0.6945810511718242
0.7488946807925952
-0.42770238718341996
1.9808198280634541
-1.3346320857983291
0.9848006964252778
-0.003039085560093606
-0.018855370165974272
1.1508974072905245
-2.7688657945112403
-0.30180370069508533
0.4546954457808714
-1.8051152059139473
0.8275606357893104
-1.9870946073366174
0.01555197369587119
-0.032397952597327175
0.15808683942868934
-2.7071780446796763
-0.010275535952124937
1.9025493921583165
1.2011494876982047
0.7787357230330622
-0.13272947801630855
-2.300171425386886
-1.019097344503893
-0.44745253376829097
-0.11243235188676103
-0.6264574662282321
-0.33735669596875995
-0.15695855447315266
-0.2565422924688723
-0.22134978944078904
0.8487018225523189
-0.37710453404443345
0.40189301026364455
-0.9344430458514896
0.11748310994863835
0.40871749032618115
0.02809108046063612
0.6105665534410503
-0.37621352424149423
1.363254906129262
-0.10443759855986194
0.8029146967221669
-0.40291294431792785
0.07356044756067809
0.3934734192511819
0.5081425882133758
0.605515219693926
0.42139737908469715
0.8334533302671504
-0.8033618666370831
0.4113855206795743
0.10093377278839985
0.15529382913789735
-0.35827401606160936
-0.83200781121512
-0.23496677555344306
-0.9117071710198266
0.14931986919866164
-1.7254109011354009
-0.21404124886742565
0.7539424835372489
-0.18372456445490615
0.16199571729880374
0.17608115350722395
-0.1621760735707556
-0.4820411992364886
-0.48370847696623187
-0.9187888674093739
0.4942255895541998
-0.6098582149473337
1.0481813747239526
-0.5093293218535396
-0.12729840950154686
0.11960301641262905
0.9312554248905665
-0.019500067004928148
-1.296369273830562
0.10835412898042
-0.7861901099223061
-0.0786636235246434
-0.02851868748511501
-1.599681048782767
-0.7019369017257726
-0.8721799766472037
0.9543092843053966
0.8924672602463968
-0.25463146836715495
0.24169235203065453
0.14718421764997466
0.2904472500462021
0.08943634411338706
0.2601401230530291
-0.6802213611297444
0.35636455482305895
0.14843105367910472
0.6351620198309106
0.4927112304666919
0.2304251323656136
0.16639522668952014
-0.060524931273740465
-0.501218908545819
0.15759242942915289
0.2484716742260441
-1.8252917578895258
0.6386650633790727
-2.7274147196547296
1.506105294929655
0.17383926731947974
-0.17883207429183048
-3.5575628790401885
-2.2411645458631457
-0.9092009104051533
-0.4388444543535754
0.1778454253093155
-1.8899347192962876
-0.7768737108857457
-0.3493263331173078
0.9797627006459332
-1.4173315287134478
-0.8100788465811772
-5.0311658674306985
-0.11386835830762243
0.9990331605435211
0.4693603704246661
-0.6986096333666266
-0.6020575995732401
-1.1222545331256457
-0.7577296474164492
-0.19320028038152035
0.07240706241834376
-0.5262003853213449
-0.42993730239013367
-0.2091613337391803
-0.11037657728261507
-0.04796414763306922
0.6068052250114584
-0.30977073984567033
0.7425515756654023
-0.8419782351854508
-0.09893471150021674
0.25012209844233324
0.29771746230992835
0.5934455978306193
-0.3430474977251685
0.9146725559289236
0.0725157780254574
0.7889788125365339
-0.03167050366577738
0.2736994499580156
0.9537931925944527
0.7504261906722464
0.030169975853958277
0.6519356021045671
0.6466017206847876
-1.1548482132390978
-1.235811909757075
0.06494090687771889
-0.2671786799517746
-0.6463550763723829
-0.2823272916568307
-0.15471192536801667
-0.4848547901164405
0.224473924998204
-1.0728139288401222
-0.26100009072439745
-0.8927314734655813
-0.19652439352935033
-0.516353467642633
-0.34429851582291954
0.2646374097107667
0.3665216888931388
-0.20600228421408778
-0.3624993372880931
1.2978379898673806
-0.013291476431697048
2.395215773917915
-0.8927497266383372
0.4445329089663124
0.16743882424232703
2.026678393028162
1.1346724262751058
0.8433567697047236
0.8922786892518333
0.4154124707353297
1.09344927627879
0.6670388733645919
0.6692228164174354
-0.22216265369423474
1.3211874694208647
0.7698279241897975
4.348626675646554
-0.03210721506775291
0.12243532821596095
0.06426177194651897
0.2541796115430418
0.5020595324798268
0.4031057626819748
0.09548908294211668
0.018517873284539892
-0.9766539886833064
1.0641118904574354
-0.14690354002599498
0.06694789508356128
0.03982484480563693
-0.0997046273632659
-0.12168487483546023
-1.371505561029318
-0.8992328850901621
0.26948137994285926
-0.7371494245851256
1.0802953400739959
-0.6186897804565671
-0.0382057442413258
0.11458780677045483
1.760372460415771
-0.21077811571573637
-0.8516509845994886
0.1038979794993878
-0.3937955638791163
-0.17372797945469884
0.21983838178085283
-1.3299386793576295
-0.7804895132252359
-1.1621853220298803
1.6909508233887163
0.11667811723055016
-0.32167560384169436
0.786561502252133
0.6477345245726207
0.5678532984774842
0.11768652006121981
-0.3830027565108195
-1.4385593163470713
-0.18774667152751537
-0.17818596623115474
-1.0456656842992038
-0.3195549160210866
-0.22838363812650822
-0.4261768330067661
-0.31013809886322075
0.8802888908383989
-0.4731945640850237
0.4303068684439164
-0.5947785890157735
0.15538702588206138
0.6853412930664927
-0.10838148063327732
0.7898245949061529
-0.2752332469581659
1.7390892519421344
0.04045550059881878
0.7776906389958026
0.03464414624186263
-0.03563956882322533
1.0135502572771078
0.7472341220950189
0.5043918408887028
0.30452493049516394
0.8038577702976211
-0.18649774223230164
1.7605171423150043
0.155752548364796
0.40236317159532353
-0.09918662571391698
-0.7100685030007244
0.18046144814702592
-0.5675420335895779
-0.00627406769355641
-1.3745942888663938
-0.24221780880388563
-0.6414224949034962
-0.3486750445657687
-0.13531003454790103
-0.22724412140751835
-0.28084351987945283
0.7363928005550059
-0.2989013890949737
0.33778236265896044
-0.8542140039933236
0.2591596183051571
0.20374049244198353
0.05429048393734811
0.5162061054320247
-0.3618081988729455
0.9658530097451046
-0.10766727022028953
0.7409354829306065
-0.1978544658833654
0.10640608630465963
0.5257547034786008
0.4764184245641795
0.3551141200197174
0.3104754858248264
0.7119067340800244
-0.38527885178515375
0.24033919804597192
0.014972667315409383
0.2670673650102257
-0.3765992348355444
-0.9787253011690716
-0.11612747955490882
-0.7995842939416096
-0.049564985251485366
-1.332330870740517
-1.227661409346299
0.8322565330815238
-0.3150222521137456
0.12726345698213196
-0.09728953462673683
0.029650949507969176
-0.16160215250906948
-1.5308141653138747
-1.0592423245087552
-0.09290446550445229
-0.6353683490756565
1.189746334757407
-0.5966232036787003
0.09023265174487073
0.09565546788321179
2.1331259883161735
0.11832859893274493
-0.39175054647232194
-0.13339355263533254
0.49055923415199154
0.062043344254578706
0.14417833498920157
-1.6958792925592263
-0.844410851630533
-1.849789616742902
1.6676060465235796
-0.03449846645952043
-0.4405040015086968
1.1581295755631127
0.7860932244634068
0.3328986580964757
-0.04145308678264309
-0.824902440514607
-1.5633058103820234
-0.5942923141875713
0.022949476105180912
-0.6088021995627447
-0.2369773217627991
-0.008196107169273083
-0.09278281066506565
0.10028622823439198
0.33738518851944727
-0.22607780536895306
0.6492242984893849
-0.5813535154201619
-0.0867826049435951
-0.02910426263268161
0.5773526718666764
0.1758700152612237
-0.31897812875180476
0.2627446392551787
0.4365878254285277
0.9605604420464765
0.22363330105426393
0.8026534011023869
0.6985950942770293
0.5845012730134475
0.10020155144125366
0.783754498695039
0.7811142230966076
-1.0079402435781457
-2.005926513194616
0.1061131161400311
-0.3384471281007729
-1.262241693677958
-0.47993505575527473
-0.2043492090097684
-0.503230081231065
0.07042641872222012
-0.8292112840594318
0.36122968919747744
0.2784075209979869
0.08422145332170519
0.5123672360577575
0.05044953490290936
-0.1027679613840482
-0.6878191023134206
-0.005685194184907503
-0.08547838135550712
-2.2352528401674836
-0.1462459659261944
-3.190310640550802
1.5421738970980459
-0.1438175225256807
-0.1381761058077744
-3.242472046281096
-2.027681464314856
-0.9433640208523639
-0.7200505390397213
-0.33376151479056315
-2.835054478380844
-0.7277452412037745
-0.2514845176854862
0.7417415172574406
-1.1804853930893189
-0.5282871788282719
-4.755228006680584
0.10476596047924534
0.6531485170833689
0.6986639913733916
-0.8598359245963215
-0.7631846145336838
-1.391026668237097
-1.3223270771804636
-0.6141682970955619
-0.06528616832068046
0.5001138295366262
0.24069239884277738
0.20864207547750493
0.2165799806794974
0.2059968528929864
-0.9479644180402665
0.43229298998616794
-0.7659737918234192
1.106342249318351
0.1769974826371908
-0.6908455745829755
-0.08656054055168234
-0.538168585936711
0.4972220062675903
-1.487309676428752
-0.006661736789289706
-0.7201285177378077
0.06661951874588151
-0.023012622012767874
-0.7236593433637802
-0.7573955626917465
-0.26348293787239446
-0.6793440743608168
-0.48957857489403483
0.7143164019635889
0.6451446725758596
-0.155712582550616
0.036304991337422224
0.3225857977548855
0.7422139255455792
0.05987331144550188
0.8000488506634679
0.09092452447331456
2.088320475983604
-0.1715209549093182
0.4480348005294997
0.007333913383120236
-0.13984419955828406
-0.10159035534002295
-0.008421778107665015
-0.3665987408987046
-0.20069622331177264
-0.2965671748566024
0.35357202343679317
-0.5406766924914225
0.5663309492165093
-0.2242012868151116
-0.3311501569757881
0.32433548676543894
0.7069717987167542
-0.07286584891598635
-0.8434999036662133
0.21533279497543484
-0.44884578659566643
0.09925846138186711
-0.020177260108519085
-0.9339057812590481
-0.2526257241282653
-0.610583872498218
0.8796341494049824
0.2904535002008842
-0.1920613740058804
0.23889957893083943
0.015484039279758057
0.26045439753839933
0.07178602633681323
0.37056988438444954
-0.38745744531324366
0.35795583025670025
-0.039036027551007435
0.16158808608089525
0.28664831835686455
-0.26518377109389707
-0.13237498003265813
0.040069603235186005
-0.3192183243789888
-0.08496929341082658
-0.030403561676665494
0.3585669176241844
-0.4407581216601777
0.33373437621692603
-0.006914478712653188
-0.3112732173800895
0.27691385391773826
0.3379177365837192
0.18190804916063083
-0.4667095054173925
0.34212350918830114
-0.03392316559374893
0.06815317731032652
-0.031576700353869454
-0.5658426222311926
0.047802866970619605
-0.35675251985613377
0.8079199083375277
-0.541071991911803
0.0658976910562981
0.27726785954191274
-0.3231246167080985
0.7962147352185268
-0.03931707113369547
0.7349756516932698
0.04881717103064722
0.42043178775249584
-0.8147499260124413
0.6744650173676956
0.02178221250718612
0.014996012919942693
-0.11351714285989598
0.1491704417362375
0.0880623493715244
-1.7245758945613454
-1.3146666753319665
0.046714529464526484
-0.5048605166102982
1.8575445748758912
-1.2997073189031747
0.5662537713241191
-0.011082630796613278
1.5230653778174332
0.20596510448453464
-1.9795416212147094
-0.47355093685047417
-0.39608628267293505
-0.9001150723863026
0.16951300890220944
-2.9070019132274245
-0.655598672403977
-1.5727610965052046
1.1823545988892914
0.048784817120993536
-0.3728115109589041
1.304600468093345
0.8647328271860933
0.2510220261457659
-0.11277632162616494
-1.641345221564119
-1.571121037150823
-0.8829235818844371
0.01409060683012469
0.3762193196328339
-0.10723432332380234
0.24606889796735598
0.30422069264100315
0.17502544620534696
-0.23200016614701052
0.6281597352420948
-0.03283212537380789
-0.049744756593733654
-0.11701720940075465
-0.796564882274485
-0.350439842478243
-0.09264383855107607
0.0618594197149284
-0.673243887654201
-0.16200977287527152
-1.0105139751517445
-0.49351948688630864
-0.23112753159455252
-0.3223464767297643
-0.4558230161800097
-0.29427435843277355
-0.3840122686791434
-0.7509137851261892
0.03642691373128376
-0.45605288655298254
-0.31724268579218373
-0.3325928224826052
0.645657448110019
0.29693149967491234
0.1859723615420856
0.13103201040182735
0.04953652560775352
0.44122482075321917
0.6398711370300212
-0.961102627010366
-0.27179411759954053
-0.08792762537583936
-0.06222029671800474
0.02916858948281598
0.19544649707187742
0.07112452991300951
1.361622125821453
-0.1629022306343327
0.369548174336406
-0.7991093452744925
0.9041504234332567
0.2808070030989585
-0.46538646832754066
-1.4892907491665839
1.0135838452722237
0.7005698709582521
0.6703210519546171
1.285253930319241
0.42906717578697334
1.210230678521923
1.164932850814054
1.4260429515150213
1.4605943486600164
-0.9813155791790169
-4.6453560688393045
0.190215784221804
-0.5304694036430946
-1.4962393789152955
0.06456227858313582
-0.18028865156900112
-0.37406253397073186
1.1819775025671464
0.13553554708918908
-0.1974579930383766
-0.4929549269074284
-0.15278457547157373
0.01387178321607318
-0.06960696709543718
-0.21719758657120472
0.875919833662642
-0.1913257190905615
0.44315497061699594
-1.1503077502376797
0.25007736289327004
0.12270936056699586
0.017491481718420705
0.48644613746012816
-0.5162439104098573
0.5462781676613914
-0.07156701477081717
0.6480392595719519
-0.39691915035644476
0.10464012617092337
0.17830594809467673
0.32933541587438186
0.42402887152672714
0.49623125090365494
0.7597551552665351
-0.6841557612124123
-0.8040570062453588
0.03574370529440196
0.39896961490664135
-0.6740047474111688
-0.9620836958712544
-0.3345800701156101
-0.9006731518628269
-0.22207131696425
-2.0222297767928956
-0.0172321881692214
-0.2552519085455183
-0.4446599648884313
0.43378461688623565
0.0649637458134961
-0.02508439378599241
0.30831183430052145
0.18584736498410045
0.024494455076533413
-0.3326624347150546
0.4555771528293906
-0.4147333358073864
-0.148811602926243
0.3154244457577879
-0.2601652164610141
-0.19866642216806504
-0.2807122679170654
0.20504831453683495
-0.2853322695745945
-0.11614531617854953
-0.17381204131798875
-0.014759006851941628
0.4855236016064765
-0.11066974192323421
0.1753249581625232
-0.6539161223526193
0.6327726616810996
-0.056791925101419664
0.020566115955109814
0.40943266855214283
-0.6600669754609182
0.062705869797053
-0.5913505315165051
0.1196524847922873
-0.19200782155213497
-0.05150858891379732
0.5204844651642506
0.3779951328640985
0.16862339537237858
0.17221211752680918
0.03083384691041319
-0.4370661590119948
0.3444820985850045
-0.6691275079234686
0.6663870042228921
0.27701245972597127
-0.3520838254227714
-0.4406988563108985
-0.5248112257435031
0.28991689817167815
-0.6788947742254511
-0.24837204417364622
-0.86035254045434
-0.25995367029231553
-0.39609878949619093
-0.8945283455898707
-0.7127856773905761
0.04526837569651697
-0.5243484719762502
-0.6041255230675142
1.074384998473905
1.2133924437042627
-0.11271019487073913
0.3349451532974334
1.14630747262628
0.2292342039421021
-0.06000942583406666
0.3434452997855536
-0.18217165452019585
0.9678750708369817
0.03268354377530227
0.41983655242832146
0.33486379179510467
0.09398446159997131
0.1167232554457622
0.08116499617935503
-0.3948284226542167
0.3124710963160026
-0.6419551214789183
0.6466112177442643
0.15491520525057256
-0.2821754505265371
-0.4739933825038141
-0.24054808125161367
0.37251377746014824
-0.5774422989561631
-0.26330361958556864
-0.889012604239173
-0.2770425027357423
-0.5270657736980584
-0.5454048604567245
-0.5568779892857938
0.00927058777724044
-0.6700387266115788
-0.7495967465067168
0.777099746037898
1.6944392045868244
-0.09841650899420722
0.36783200717805525
1.1206202551218534
0.4837178084448297
0.08575792318463442
0.6173983286694669
-0.13012455913609966
0.9165997226750581
-0.006404034781436562
0.08953457541159882
-0.0032347024705176165
0.11214094802684738
0.12508140719841315
0.17509213763800033
0.07877078975004716
0.3496720436571797
0.02861386946096566
-0.11562848954741684
0.11731460915609691
-0.4442356446783318
-0.7304750350787104
0.06876254176768572
-0.03854246533356398
-0.27877597145685484
-0.4694725759952123
-0.7752962873507502
-0.27549737365459903
-0.2813352062509513
-0.13047557048201078
-0.36683715303549896
0.06607976525744937
-0.6749543463990304
-0.18654037550884045
-0.20710810421713374
0.7036388064722773
-0.06481156991471719
-0.3563898065715063
0.5780814346826204
0.009025165153290774
0.48416392302727346
0.18008126062730717
-0.06259211446873315
-0.2659908451719653
0.23327434301795552
0.2754237322277441
0.11290793202571064
0.0620772783416287
-0.25809086496954803
0.21775343088599058
-0.6410617583419801
0.1232063258199885
-0.1624982569887313
0.930459345694707
-0.10500080244688653
0.03400355478379685
-0.15611152071157638
-0.31085628326449044
0.33159187968526405
-0.5466205932309693
-0.04928692537988737
-0.6915873923641996
0.13538186708206235
-0.2557921040743299
0.13581759050508993
-0.2931993303360686
-0.39836623182511277
-0.37080511020183643
-0.7578314490933886
1.025598169990596
0.9084684628107143
0.2375349492409437
-0.40650413782521205
0.8593828861312974
0.9008226751811483
0.34412440374481923
0.6819001165194619
0.17993949467951526
1.6778873656972506
-0.16342738797176973
-0.22938421349128196
-0.15544492635456286
0.1108005718862398
0.21452050940425674
-0.21031004745451526
0.45702419539102906
-0.0301379709988603
0.14703152124097568
-0.6045636504023361
0.6969305214205763
-0.12711467806528964
0.023033195689109193
0.1947109564439911
-0.38172638592344865
-0.27726103320697243
-0.13478797181009117
0.7017081074397382
-0.3045251508704434
0.36208361041497095
-0.060553697341969435
0.002385085620990696
0.5804739652119116
0.32618301355159807
0.503547159341495
-0.5643798206142906
-0.2708202167864439
-0.12586101317012374
0.4054456054812398
-0.0541094860571546
-0.8195404040473757
-0.2452839183527431
-0.9547159492470427
-0.21872674333092681
-1.1868539881867244
0.10130884765764074
0.1661739258816858
0.15726908961532912
-0.3313501193501792
-0.061771049766243515
0.19609222379064997
-0.4027278141913939
0.047160888639329275
-0.057970888531680996
0.4605003858453263
-0.4800074262325147
0.09661895706977795
-0.017721601317935064
-0.3841956885116601
0.31970886698135126
0.058504904000620826
0.22411930894537258
-0.543002358176484
0.2944742195385826
-0.2692271812124369
0.21774244610815705
-0.07963551343837867
-0.4162324521906255
-0.39811541689206426
-0.6214109271518042
0.37554342464411533
-0.2241474676115122
0.0860843895591971
-0.28941943093585115
-0.05436601078899566
0.631459823316543
0.34216151506465303
1.0706284984832075
0.12256862907057593
1.0759746029978874
0.6356712653298101
-0.7770947789961933
0.1362768846762028
-0.2903026281436973
-0.07389081377951613
0.03281029681294372
0.25376204297331906
0.6360189093748853
0.7487322089367162
-0.13458079170317538
0.5654668733832803
-1.134555479590016
0.7932245091021596
0.0024922919128803635
-0.043172962080139286
-1.2998798129585334
0.25607657318342447
1.2889765113851823
-0.06490257249383326
1.0483038842295287
0.02310181581018418
0.06525683122583138
1.9662598000221463
0.6567731043955956
1.122643139109951
-0.9080329823649218
-1.1056735414356071
0.24898989481588124
-0.5865544608099327
-0.3030005849188289
-0.19645681386103334
-0.11325671205698642
0.21558370197805862
0.7318732411989949
0.27980374351568443
-0.07584289992131553
0.00046405196816117335
-0.37790198884623755
0.3092455630076911
0.09953320581765197
-0.21095001788094309
0.3366895739998833
-0.0364607144549137
-0.08710102246455222
-0.37733469252704044
0.3588619457743476
0.06119611329657154
-0.030000751228787793
0.42086930338404893
-0.2583335633935144
0.11668123917683931
-0.2679061162148797
0.3858127807495282
-0.3522516660084751
0.24940391173023727
-0.2676085786622268
0.026234424191332425
0.5094048693542249
0.1648499181560296
0.3250679408234353
-0.12898962649576218
0.6858073831642267
-0.23162162087491384
0.2916969797050463
0.19377962628820214
-0.673995654858294
-0.3194230024269218
-0.9249440340449491
-0.042295194191487445
-0.88439220911304
-1.5355721959778115
1.0212883508463984
0.14676551453736236
0.0975776341713841
-0.17417579980782977
-0.2379727302289874
-0.01138052914512018
-1.7558467193824436
-0.5277465957982175
0.49702987706170276
-0.6497913218173826
0.703513813509841
-0.5231551418466983
0.201343192536216
0.27528808254488885
1.7174184302272038
-0.4153824626291914
-0.8470676194085474
0.04479606148021366
-0.2600406142436564
-0.05077713384153412
0.8374675872414425
-0.5089867167567502
-0.7986077044916063
-0.7288553551106335
1.2725144298553186
-1.16233325291962
0.013767037981317742
1.1934987685490186
1.0990730682792134
1.0664612887384266
0.5400932795223183
-0.12660955617611652
-1.431315153136448
0.12486507864534982
0.011081332992143493
-0.06517909632015506
0.34372900385047234
-0.3914586458172349
-0.2603388385407549
0.1991530687067699
-0.37760868322119073
0.02419342661633786
0.056124013905367254
0.4419056611173704
-0.3502379642490797
0.05058032904761536
0.08721712327159548
-0.44180834378223016
0.23645951174954305
-0.028475377048190937
0.2810840053804067
-0.29524411678936296
0.24814077754348782
-0.1383979937108892
0.2932748281043069
-0.029189574418668773
-0.42131397595360204
0.004107883237371806
-0.3910054857390536
0.6187342460399129
-0.1672986134646474
0.25764609104142466
-0.13023951582109441
-0.1654098017487817
0.4289313759562819
0.2136699767080191
0.9978004997377417
-0.09537832088100691
0.9094530168038191
0.5505678197285666
-0.8421908266347979
-0.31529526873044755
-0.038975997712857154
0.015584975839308022
0.228655440439522
0.2720526072892578
0.03608466066575552
1.0118537403374361
-0.27252254114172375
0.2869794309487274
-0.3299751092635237
0.7412568714777135
0.44631135218358114
-0.37131132545999745
-0.4782396188245463
0.5432168070390483
0.7845977060523937
0.684520207254692
1.0538086163440414
0.5177382999851655
0.8046120347029684
0.6707340763490831
1.1400321221056269
1.2151006703834735
-0.9005938854368465
-3.046571162270368
0.2864683146620213
-0.4832953717065755
-1.3658130613745192
0.2247589976641185
0.018351074310147365
-0.26604082523401784
0.7703855608733959
-0.21026061984039243
0.4914625053114729
0.04299020107813481
0.22494943382357502
-0.029731338497331745
-0.11222391961661662
-1.0089115737682324
-0.30449795467815305
-0.638934854943288
0.3950122555313036
-1.543382459306849
-0.2113493604156211
-2.967940990771008
0.9749392465077524
0.14548114459623424
-0.5309881540402499
-3.2471009122064616
-2.7317751848675766
-0.8424419663420963
-0.006077305909245066
-0.6350763062187912
-2.7625851223897078
-0.9049590977177738
-1.317396802468607
0.5459141574290579
-1.793495928400661
-0.37422691253681717
-3.8822491296716075
-0.24369369524914197
1.1264543236034368
1.0899568643939648
-1.8137380083520187
-0.10113774316252759
-1.7276495569699806
-1.5659357035946047
-0.4930880755948091
0.03757831321507749
0.5604625766097027
0.3137950188354367
0.24252406043389696
0.2127546472612176
0.17259177222098024
-0.7395032642858629
0.39315277654229014
-0.5828729663622353
0.8136085428151029
-0.06722823880199424
-0.4815427778638253
-0.13166261845319455
-0.7510855418576969
0.37421211260690496
-1.1494552893134518
-0.06960669094587878
-0.7534927633597993
0.12420819055105145
-0.1930372570892487
-0.42826945009622325
-0.5822615001259552
-0.26519449528667577
-0.5873989842601981
-0.6967580824986833
0.9173351169446597
-0.010970165889552169
-0.061789827319661414
0.001020355327683652
0.41708411106630894
0.5536973736529398
0.43244373762678645
0.670501400774738
0.20262448032096034
1.7639456425267164
-0.031730084886612976
0.41542459903587614
0.5203357279413116
-0.0316292979515291
0.10049394381777015
-0.12152533638875497
-0.3448405828665302
0.3015170000432059
0.3267563365285331
-0.9581459807588203
0.41885722551635557
-2.289761945322818
1.0434896913435217
-0.09683667477224006
-0.20634710813921098
-2.947296450737316
-1.8403964614000314
-1.0431494784139632
-0.4388945134935685
0.09735561725631335
-1.6187653131623316
-0.9033076126918098
-0.9090598113218051
0.38381796351692177
-1.3610325021657381
-0.5837091757496534
-4.014881721763252
-0.304031955646611
0.6698209870527502
0.28290848037727034
-0.4578302874329447
-0.6155151483726524
-0.8026772206655074
-0.2213498561371721
0.09185160023565912
0.1400014102842248
1.1172779677911882
0.4000426028151993
0.17049526839945173
0.6213233722362216
0.4022770577292266
-0.81645916608949
0.7321022626137876
0.2563139846426538
-1.7208214050911712
0.7716842826869659
-2.6004176434185027
1.3997569776363321
-0.05456421665956323
0.03888981140557574
-3.304285235189066
-1.8812702795969178
-0.8592137417670919
-1.1747447563523479
0.9774764186145938
-1.7123304644022106
-0.3951277883946331
0.10990054772469081
0.7263494617636213
-0.9135579974720851
-0.5932571666640074
-4.954650625375013
-0.16943611296749495
0.5142420368618857
-0.24769717320943507
0.22534010418585082
-0.9552327581144867
-0.7355508458202166
0.2413571617283049
-0.14416659805222276
0.29613982757499796
0.5378888432001983
0.43637139338458514
0.3420747140597304
0.15978481324037963
-0.42532648782843574
-0.3067655654991148
0.2514198136022198
0.31105183851183066
-1.6473056046346966
0.2691172182385199
-2.901143578966083
1.1025399293456288
-0.16594072554462228
-0.2591243646762019
-2.58275796074955
-1.9997224361788213
-0.937351007513912
-0.6871982358142679
0.021573167173611518
-1.6229748924721197
-0.6045527541984211
-0.8383764703108189
0.4792161977869129
-1.607568351469601
-0.7888072739997117
-4.878372545187871
-0.0871307348270913
0.48347195099071766
0.5474738140782841
-1.0899431138308697
-0.34706825534251695
-0.861750139296432
-0.5437491429999396
-0.4130348804540894
0.6660761846793244
-0.28097318764277673
-0.242943417056883
0.1844421685062954
-0.02488820377761315
0.12679407601455675
0.28566523212702255
0.6681753779883571
0.19110485249293888
-0.36335578498791304
0.07728563459347786
-0.44820081399769607
-0.49327996780736544
0.6541793912502673
-0.5229534645265115
-0.4555540328118392
-0.3495897180481646
-0.4561073985725473
-0.5822810941535093
-0.2722830602304155
-0.8889583145392893
-0.37768695732333957
-0.10209836350729799
-0.43761679952246957
0.2066261430542388
-0.8253140092427347
0.5444084101796633
0.11211060435750142
-0.7648287789324285
0.5145218252506237
0.003101649619372016
0.24056140348336286
0.1146673848745769
0.22294702535033925
-0.2718194125306623
0.08511170150958304
-0.44511164609117887
-0.39237230794238115
0.15868392587325478
-0.09659483110231089
0.04191605437073078
0.22937063924372883
-0.10643216415122712
0.5623326004257757
-0.40338583581222276
0.020748526804265918
-0.20981231707156173
0.5582630543967807
0.23926089207647913
-0.40517145573999797
-0.19506563663818424
0.3504512043400573
0.7275966268015321
0.28251248124064077
0.6050669455728153
0.5765485594293347
0.377781720992121
0.055497053501847096
0.7281123185751023
0.6379888281723785
-0.6543430942845577
-2.488241423299384
0.13134603413530294
-0.4346803385670618
-0.7812247043041598
-0.28626080862642933
-0.26161874220034687
-0.26666679205800903
0.2463786511013685
-0.5761748968856968
2.610051137363272
-1.2470354920495366
0.07059220091483033
-0.0724310915122538
0.004718969331776337
-0.26054569620118195
-0.46327799239231815
1.259837289902659
0.6607985985898529
-0.5947367813956403
-0.3237903379661255
-1.0960641556463864
-0.19314782394846236
-0.9547329444597881
-0.13120958008997763
-3.1155213567415743
0.16901767829332973
-0.2859308884952297
-0.6391646499019378
-0.7199902772000372
-1.2711335008683955
-1.4983051669055651
-0.26868339353983994
0.6266765895044172
0.5796355575957074
-1.6447154763093745
1.2636222214375796
-0.7542224511007591
-2.258116381760677
-1.7552189968691352
-1.7112965708181707
-1.4285151360199635
-1.061812923259238
2.008856795291602
-0.2205488837346831
0.24700843348085244
0.2659621350267601
0.1605148212258514
-0.03145906529691944
-0.062311674263814565
0.27219038569046516
-0.6517876259774873
0.06607231405655359
-0.1297171015306871
0.8980828147763672
-0.019300377176205294
-0.018444136365086218
-0.21047493344370538
-0.09148172250670396
0.36857254622342583
-0.5721413636945911
-0.12095436122332534
-0.6642729873695724
0.14059790928284943
-0.19657158668586344
-0.0779143098835446
-0.3171080371727625
-0.35576603681981633
-0.4413550582723468
-0.5961596759791469
0.7545029504829303
0.8302747210812377
0.14906170808018065
-0.23051328600818374
0.8349642472242542
0.8390750319647243
0.5483692253496626
0.8734851015780934
0.30536208377953566
1.4970009908986388
0.16565604402855136
0.14155848294121517
0.17978087720190744
-0.1354888954635904
-0.05537234705548431
0.2741467697636031
-0.5654088903893459
0.1599814633961938
-0.1684010281913843
0.7552705139136198
-0.41584963254348495
-0.2893158566551423
-0.04133709781088279
-0.4426650740778444
0.430790959659573
-0.06708683681842013
0.2509042195970437
-0.6066792905406712
0.5432992864539558
-0.2637137920186561
0.1004474618822914
-0.16388123679404062
-0.5241869553909292
-0.16182039687939903
-0.4324274093945143
0.5009043125771403
0.07921740120947715
0.14663313912397294
-0.7529321959877131
0.1962403299711492
0.8954510958053478
0.5304247410444934
1.0965924030050687
0.06988422149176549
1.6412169129136964
0.1720444078359462
0.224449864238351
0.23073128023939163
-0.12847097553709622
0.14600120963147284
0.26955346526266016
-0.5080555394770936
0.2074890117996395
-0.12177007378140636
0.6466019899985354
-0.42620518097716303
-0.38183963912320995
-0.06051559918357591
-0.5749237504339846
0.3951018036273333
-0.3186126378824114
0.32440645947954166
-0.6680454759014378
0.45006270743240756
-0.4636377149281883
0.01043808535999876
-0.22703129954151668
-0.5549863278743729
-0.06279952917773034
-0.4669463041262665
0.07185710865169877
0.02832573054318005
0.016090228449101806
-1.1650556058569672
0.4548682411402751
0.8641190917410254
0.532246713525772
1.2081679258318099
0.17642281328075948
1.8942373046583119
-0.7336715049545627
0.21254216430307624
-0.05315130463244778
0.033016694006023875
-0.05794157828049031
0.5248948969813485
0.1807145547629123
-0.3279190593409714
-0.6600520499592158
0.6492721589777227
0.6700348531833535
1.6508048816939227
0.5636381469333083
0.048719868318199834
0.6855913951770143
1.4485526738766574
1.5070431299666118
1.0548131198235027
1.2030480561892922
-0.026823640790241077
2.0589347990862614
1.0583324730147659
0.8156198880997192
0.8624790538194543
1.0486340004771768
0.24662617053946206
1.5465858458404365
0.2835923108758736
0.018713001283796923
-0.2992955355526949
0.7418186648790558
-0.3531236009025421
0.1753739501190825
-0.06642560637884182
0.24071361749750547
0.20279719531046134
-0.6940116381089335
-0.3975916797555022
0.0029143990764796167
0.0027089726488076266
0.17647104844345643
0.2156413187058441
-0.07353927775886719
0.8128270812883215
-0.39629994995532036
0.30356004617321003
-0.3046627734702529
0.5662931889682048
0.3073435404038487
-0.34597672385092193
-0.1058021117583032
0.3618037607509385
0.7856943690758281
0.33143672940481445
0.6999329787541348
0.3928870707599491
0.5804635027528394
0.15023901135018472
0.6596525409842785
0.7997068080893207
-0.9915852190095997
-2.705119471429336
0.22974141260591482
-0.3461660176863487
-1.0865221546727368
-0.11701045178843077
0.06658034491148808
-0.39799231676324726
0.28354217514173774
-0.31539049225827753
0.15015217300515485
0.2753796898571298
0.17376146053637645
-0.022466636362153247
-0.1739009679238675
0.13849814963038745
-0.2534486063314477
0.29328488004216113
-0.41585372727993675
0.3913212368679452
0.36253052054207274
-0.5074901152144098
-0.5639318765536789
-0.191740224381597
0.3374791965577858
-0.22094135743357252
-0.31967226509349134
-0.7908455355322191
-0.1770161893544173
-0.6575692301528957
0.022709767346454388
-0.35903004901893326
0.08819288660829849
-0.7851304044003912
-0.5179376169604204
0.4015492352143147
1.6951417527038615
0.06681037178500913
-0.1514259289969659
1.2434533488558204
0.44212608617947347
0.5580754064666992
0.6799335272865267
-0.1238301050407586
1.0565869115393614
-0.657256487627381
0.8897767447198281
0.23823376747026573
0.09659038208777697
0.10087943197513023
-0.08768118577551001
-0.23686746539388293
-0.01404256868869276
-1.1075313433045537
0.23640196027343333
-0.40184586410929546
0.5221997786627045
-0.8555400500945197
-0.28634771741208587
0.4034192936380223
0.9173158764865795
-0.7729200044232968
-0.8144295028653923
-0.5967719805014766
-1.4232875977703048
-0.42778056830289096
-1.02768872301166
-0.832086950361929
-1.2596277387905506
-1.4236299222821716
0.9184948086894505
3.806531327863112
-0.27756171671416424
0.543732867314121
1.4165242269068705
-0.37747239512711445
0.05842577172447743
0.1891762422309518
-0.9897846642788046
-0.26755994270500666
-0.9334811504158849
0.7306332911259507
-0.18238627217952239
-0.003399631841339762
-0.0019285901784683944
0.12391750982884182
0.2539832570579319
-0.484312514387361
0.2549237807256704
0.6113653238134046
0.3026269095293355
0.9848455946335896
0.6540684036099661
-0.490729334790444
0.7481394755908537
0.8995286854390152
0.43597460514244635
0.647032949096885
1.2090188080318738
0.5994243539854551
1.2284472014514338
0.6124520892714033
0.14153888412810084
0.9370548687453483
-0.005133551497590093
0.5145595472403983
-0.2182242079411769
-0.001180785714409922
0.8860938001166281
-0.47601173994747253
-0.042409935726016285
-0.0020920698600768286
0.04268851063011937
0.1289397727110213
0.6796863712401504
0.9613000140385183
-0.48580487668767186
-0.09814677341763921
0.010113399280290739
-0.07541263393911081
-0.060480866547501407
-0.16716612429968394
0.39817394350437546
0.011655141134569336
-0.579437109945285
-0.3315685603536837
-1.2240313129174978
-0.6667794112688671
0.38661457080658407
-0.7383800824403502
-0.994463497996207
-0.27091179680356536
-0.7340344474340358
-1.2840871887554752
-0.23012797614016284
-1.4095682473211582
-0.5693493200003485
-0.32199277434213464
-0.7964090364106458
-0.17023495147972964
-0.4151615346055953
0.29641556470988184
0.03878235328104235
-0.7786339239508582
0.5446183272167575
-0.010457904142704234
-0.18565674628981677
0.06703758651462255
-0.13440385923115175
-0.5550800091863368
0.7166203737267567
-0.4029938033143662
-0.008681462108378194
-0.000875688761880735
-0.1623063084026897
-0.9914841464427737
-0.6725813989760329
-1.0450727397925352
0.20952120138102764
-1.8705748633585297
-1.0260140934539426
-3.2575832930892425
0.9819306399395195
-0.010150117687832815
-0.4867479705678607
-3.2059039424299676
-2.4222959503129045
-0.9689795329558166
0.07388827632933656
-0.6642280871078838
-3.863467616955183
-0.9111594578352717
-0.9834731598700587
0.5069938873221529
-1.8003975831428658
-0.05477718250409674
-3.764580532734461
-0.47634099982149775
1.1032856108071445
1.416171483085881
-2.052659030727312
-0.24751228078532134
-1.933093661263159
-1.8282338277705532
-0.6119441751426624
0.09810271208797258
0.3065526041965464
0.08209720226376989
0.15561957232849713
0.048990652213598516
0.2506007799381901
-0.4393160583403739
0.3816625434654161
-0.3853798420708745
0.5662279987683569
0.4877117110932477
-0.8783444229576063
-0.3781486726178917
-0.15622601223510166
0.4070711546967973
-0.575470466858454
-0.36484530698577894
-0.957715848607519
-0.24483243328152987
-0.25323958759096327
-0.28739665081118015
-0.3797259394776706
-0.2076974867718081
-0.9868622512324654
-0.5813455500145187
0.45336355382120314
0.7843155389774212
-0.0930444784679803
-0.1148348567723433
0.5803194740973604
0.533992684441222
0.21233495369921765
0.5811144361499333
0.1958461157239247
1.1919015609122592
-0.9149910312000561
0.4487885183366267
0.1103818449892465
0.08668496817756412
-0.04496681336736719
0.016795494197808316
0.28562707188546166
-0.5095095209735547
0.057231736240601835
0.7122057668671009
0.3647356767435208
0.9279366916115837
0.7191920514421991
-0.4390689539506796
0.6803209573820094
0.9954600831117287
0.30332360939050984
0.77700590744442
1.0482472573137194
0.29550983691561616
1.4805343349213838
0.646330905348959
0.2810565240088867
1.0118848296674319
0.041301767062812106
0.4500285413211059
-0.31619956931182064
0.09212037618853325
0.5848258997110952
-0.5555587735342304
0.019883958759171722
0.1661682663085
0.18860048944743205
0.0796357996130747
0.5390100766034799
-0.1498953244675989
-1.08196252170959
0.018360916839717446
-0.1630940457288018
-0.49485403247193926
-0.2899750378976981
0.9098243995566373
-0.7123893276107837
0.09870135127594754
-0.3408876330405327
-0.14534408392638032
1.4633486946796972
-0.22299111784788814
0.6184783154407659
-0.25325573943412627
1.5911737661876157
0.10893307117243863
0.8957810358483804
0.3164539293917017
-0.13638111169845119
0.17674274900207645
0.30407829540921394
0.7343896876246503
0.48033553047100147
0.7374265135129556
-0.6159469360659177
2.1394224463896516
0.6353638382342955
0.0867342083203536
0.10366845010913947
-0.8336783342379896
-0.455953435044047
-0.5636394510060494
-0.5264667510755071
-1.5255116864547078
-0.17402349088527136
0.8060091931988609
-0.17895407932152213
0.15538105830485244
0.25931459638396687
-0.1764006095052184
-0.4062168910178132
-0.6004072549936225
-0.8296754378213397
0.4277715994325555
-0.46315645984135795
1.0306991843025284
-0.3795257339706308
-0.24441454628891982
0.04341680671280134
0.8183877405473275
0.20872755782058652
-1.117844650569123
0.17530669457626938
-0.28145003091900894
-0.2122241713554354
0.045860275065859046
-1.6698295453050753
-0.3699573684417868
-0.6141464647340077
0.9398922934642026
0.41656277085174054
-0.29246813114962344
0.2792369021972665
0.22104800987914774
0.3571056953113386
0.14824292845969667
0.20940968343448493
-0.8775814506326707
0.21422740437816118
0.057762306503739994
0.05480523445419802
0.14436982128500453
-0.1771049516210874
-0.20256839483170494
0.23088322150137505
-0.4476914531794825
0.15802337650003048
-0.16626352309233214
0.6035787443883579
-0.37806079297293954
-0.2740008903636056
-0.11880592313868395
-0.5099479266655192
0.3703139706467894
0.1313505992626822
0.11016346786163396
-0.6404441190702573
0.3185683679450328
-0.2704971293130029
0.21092336785438462
-0.1927833182113705
-0.41028653149508243
-0.3307163555906312
-0.4156752274262793
0.4006957899259377
0.11094441819166546
0.15143895618388759
-0.44815479439507966
0.03246500970769697
0.8303481208452695
0.387696340308925
0.9235133186971031
0.12196190320727665
1.4443315103473633
0.3030048599485085
-0.7869860101870751
-0.33135350549428844
0.0016680176768795571
-0.06868373558708411
0.15193915835962635
0.2084712909445998
-0.05220612307824366
0.8339074193224976
-0.3248690225704455
0.22362313249453702
-0.3842832937686864
0.866770487828423
0.3960884341921083
-0.33255492936619224
-0.18308475705568714
0.6882286712859309
0.9610809376166042
0.41291520719491825
1.1588192851015928
0.5824679140705736
0.6473196243812829
0.369237126708074
0.9935087051526721
0.9268966231853847
-0.6418475857992817
-2.7713726518377095
0.31882491759084347
-0.38375687184944424
-1.4210094803385251
0.11208118552856182
-0.09412821705242364
-0.1942328015525099
0.6260199239592377
-0.18333724382946426
0.06038261349519904
1.0840773899445943
0.4196942684515695
0.15338718624874007
0.34619239142503944
0.1038314604547544
-0.47904464685426995
0.61083474317583
0.280990741531385
-1.0508838589727818
0.20953358205365524
-2.4131732348034056
0.72724022928872
-0.4295258287752228
-0.1702060716755136
-2.392535860143018
-1.3038675283189909
-0.9949248069746368
-1.0193448504374658
0.3469381438164972
-1.4494500659096496
-0.9257165266641408
-0.13463702787291654
-0.03840414340480294
-1.1011265422485024
-0.2532746579546747
-3.8399030694419114
-0.2226970275402442
-0.00829325659626337
-0.2319096954202561
0.007198331599818652
-0.8489520263381471
-0.235284577098771
0.4501303439238001
-0.03776034542472076
-1.011253300087834
0.9261216249558808
0.07876351451061202
0.11047530645477707
-0.055481102014164424
-0.2895688245139228
-0.019256432370466058
-1.615494416862065
-0.9597906678477852
0.4442586408583327
-0.7365523237660336
1.1762029814485535
-0.8001889824029264
0.28369438776377487
0.07005576275098148
1.2215777268115176
0.03550703239664777
-1.629158718682047
-0.46679373097600346
-0.6769913718395469
-0.4590165813575518
0.3487535946821841
-1.5592035724744424
-0.7249786838620974
-0.9573043490864219
1.2223549499652921
-0.7043076220389657
-0.24835554872293086
0.7347043927057284
0.801596162572119
0.5890807053334782
0.05665304837697798
-0.7432746670291905
-1.302893356529892
-0.19067867021256224
0.04010262250101771
-0.7345859525784313
-0.4023030583627447
-0.014264118417945662
-0.08275821813892008
0.09474747145102512
0.28388863866627495
-0.3164027779901925
0.7641326645785654
-0.5495722199856851
0.10402034979923327
0.18594301313892425
0.5876324375288954
0.1961260530250347
-0.36818752177384306
0.38367672735946334
0.3725547765776143
0.9965121736911058
0.11968628939219014
0.8619030469878669
0.6932569282433502
0.5535362689008878
0.09369886627530831
0.77823794627817
0.782450583303005
-0.8137064232766706
-2.2429270138785116
0.2305425184483513
-0.357260034106948
-1.0866786493505953
-0.2740094736445825
0.17998003316321995
-0.6112947226920644
0.5260850935268555
-0.7236595379965735
-0.06741933343107465
0.5130485676799492
0.2617775631696361
-0.015271952306238805
0.11225438676320076
-0.029174048496704106
-0.2954020202841861
0.2606995248363266
-0.5918585725897776
0.5721438053058164
-0.07542618219140299
-0.0021745055275841905
-0.5952208483688709
-0.2961606124276256
0.32268291220799633
-0.18062436384400266
-0.43389142324975144
-1.0086844977486922
-0.17611428753564312
-0.9252149692108493
-0.44908143299242376
-0.5690494472025417
-0.03935331022790832
-0.7232258126324284
-0.8135116284139398
0.9134462168663084
2.1687069508371324
-0.14102843399783832
0.2511338413523385
1.3366747875992566
0.42830276896576175
0.04757227964851879
0.4851096801572988
-0.20285490995855165
0.6619727324713987
-0.16285137327178917
-0.28184155976844055
-0.08684717973042928
0.020002585992020455
0.07686533925035928
-0.13618105964978394
0.38479132239155284
0.009672085052797723
0.1238324510177391
-0.533987108485929
0.4918347924953664
-0.2521933129484312
0.15978640593780866
0.20332671988777
-0.29159220258060403
-0.35073425914139916
0.05358164717803286
0.8927152445635484
-0.1300377375964074
0.4174290667370254
-0.08694733574118563
0.02613794166420181
0.6877959737958009
0.34655655889005516
0.5143453556814054
-0.6788431795001775
-0.12426132839419289
-0.07596099185929117
0.11529687803699995
-0.023645742890866288
-0.8132686115199969
-0.3436120723969875
-0.8026772401816616
-0.08585068033479464
-0.61791681708031
0.04429444721440142
0.3161936260741122
0.11459945789697303
0.09890817918543628
0.07983165754296016
0.20046270730670035
-0.23404356114180308
0.2861809799414015
-0.2458502801185735
0.19424098065555104
0.20864471371833215
-0.6846308229088748
-0.4596440170717459
-0.08106179312777059
0.31304678812907816
-0.08797790356197724
-0.2742587255864747
-0.8492657259432488
-0.05839931762257995
-0.6315718609604501
-0.02849724564824115
-0.35256060380578275
0.03893194282537903
-0.8584822933005868
-0.5891614472872002
0.3347201638507181
1.0535826147872227
-0.1570827998061956
-0.33545958533504744
0.9531413836768902
0.2957131679146402
0.7883500331133474
0.5389001800580865
0.12435859245489929
0.6194668753144702
0.31329499221835666
-0.7398369429517632
0.03923060541470351
0.03393072682480556
0.08558424390212226
0.25967824264552064
0.3642006351816553
0.29687249110941377
0.5351077216748591
-0.2691206726880057
0.6886440791177335
-0.638935051617972
0.20123571389098638
0.4488329623994786
-0.2713871632164498
-0.5332628224812692
0.004102085380546905
0.7199111781766192
-0.0494421732995559
0.45927553254917247
0.13016704724872633
-0.021144170657965363
1.0845148518311023
0.5675033909099555
0.7357069527192267
-1.0128967427932514
-0.07350729935491757
0.2662669917278434
-0.21537589574246366
0.06933069207446921
-0.4379587968865192
0.17813583656449516
-0.2208552202449795
0.42148461798344844
-0.2755026630851929
0.4903342501655373
-0.8984005682203121
-0.35343323097969126
-0.04842304024626142
0.018061093605283022
0.22999855935296956
0.2422111748215006
0.0590380363404711
1.0160690034506503
-0.30740823414119783
0.40479312547188184
-0.28184679572721083
0.6993297075617407
0.39880411861900805
-0.34337753707177837
-0.36189033776572177
0.5193950355373205
0.7675116602427566
0.4946544529611054
0.8555793152986252
0.6618873956269282
0.7397958776811181
0.6181293918881458
1.0143408932548246
1.1179709568953007
-0.8328152582604188
-2.9640901386871894
0.3166958705454109
-0.5921981015726604
-1.4178564360143664
0.16533013882936018
0.05546092254267737
-0.0464243443165715
0.8518989647755502
-0.2227703829411507
0.359139343924887
-1.6365282110236297
-0.1003288953416063
0.08165894894578682
-0.6541679032598062
-0.3843998216461424
1.0256222224861016
-0.7056592035016482
-0.39147432381055053
0.731609069385216
-0.441704520561785
2.1038939343098924
-0.5658993042072423
0.8483243453320959
0.11778222595134451
2.400931701589059
0.8677881926945143
0.9473446091092778
0.43319646463694295
-0.5210528907771442
0.737020672487904
0.7834712146792601
0.402216718564226
-0.29721172976027216
0.5984971462201693
-0.11289228701930105
4.248130468126539
0.21675978796625217
0.3251147209945559
1.002594672061952
-0.8477241541698849
0.4916954782515498
0.32430825318891066
-0.9186668095194447
-0.6709353448131015
0.18297362597886388
0.39415834786804377
0.24104940619331672
-0.050069197321906164
0.10072011559816521
0.1422716301788096
-0.1065174358085079
0.22970415669649813
-0.41424066019984046
0.22700342567103585
0.3512659988092352
-0.3651202149342691
-0.5876429572084919
-0.249021496343626
0.2876127550513534
-0.03718992266727625
-0.3167857869989842
-0.7055348383612405
-0.25216141007255344
-0.5798292154911303
-0.2731043347839855
-0.40451689823303266
0.24782461977219866
-0.8842518261567818
-0.4848219995540687
0.42819603241917875
1.8325853660782099
-0.037521481521330266
0.00902075478266663
1.1685945319894877
0.28852309844099994
0.43366134257701056
0.5430250273339992
0.14611696297128146
0.693893694833305
0.06854122695337966
0.6411783414991138
0.6310530027541142
0.8387688705718767
0.194502999329314
-0.6398116565025994
-0.3178517878669129
-0.005362011151513732
0.23278593059183247
0.01658990324378687
-0.07677849248171797
-0.09399463940832846
-0.3898164076366955
-0.427317688543538
-0.014037582071874015
-1.2417849930624152
-0.9267448960766849
-0.548470565658778
-0.05230260605386098
-0.29065396723288817
-0.8599445987494582
-0.5173642353533718
-0.9935642837017731
-0.24784094760022687
-0.5789172977609567
0.05468113596298086
-0.8563639720922771
0.007830335117695823
0.2935349912761979
0.1940810548386272
-0.37071542468918367
0.16457218812262667
-0.25664278877335434
0.1573799471600579
0.011074015208319046
-0.7734236722078222
0.5928719939555188
0.2818838356342305
0.20059393933010383
0.1502898421797211
0.9797708861334836
1.3707765122478512
1.307286904683922
-0.04170439625269136
2.499477659375468
1.298691274392414
3.320971269752761
-1.3937107175815382
-0.2435958138138902
0.40782911431452534
4.127785446932035
2.9658892468155242
0.958529187225761
-0.6392997761600014
0.6311994830486196
4.867972271111771
0.7395904078277938
0.858541363080525
-0.9427474802327327
1.51607917411128
-0.35518954714882506
3.732184970060611
0.4530453070757108
-1.4844960430825453
-1.551596467462318
2.1721830037617305
0.516934979515422
2.549683360408015
2.64755334071317
1.2258592669867094
-0.10098211031846027
-0.489203880127428
0.04400608808889336
-0.2554731827911512
-0.23737357397794057
-0.19652722195097125
0.2820617429493687
-0.6317618888260489
0.0742799064293274
-0.1338283213851005
-0.20020119146292892
0.9944069020734052
0.3581853449154205
0.26222039083852333
-0.08264515520853422
0.8118530315298247
0.21825302710385272
1.0160336363237423
0.35049027251084897
0.0651873709893391
0.41616541485293174
0.4977952833459142
0.2645450433902518
0.33352636878839115
0.6067684629014745
-0.27799601239774707
0.1999233087316751
0.32661962168448855
0.3519689120327498
-0.7579492708825591
-0.4468951782519936
0.015822707529732766
-0.31135628884054634
-0.10175653632671969
-0.23324121325862734
-0.025797726989295392
-0.3732256231463895
-0.023023413271861765
-0.27900792887171666
-0.15950806655431585
0.08332055485235902
0.016902069941450826
-0.3730241075339492
-0.20422213272716042
0.19574662072510157
0.20805491722595515
0.9158570532893507
0.5039978800032842
0.0632373037017665
0.13805372880580505
0.5519846338107355
0.6135324854760632
1.04746586222712
0.5127447977406926
0.37634443465747197
0.33133733707497903
0.4181607217627673
0.5108136424354712
0.7014428380149879
0.9003710988856423
0.08664484991053499
0.13348160586983795
0.2640526258112997
0.35135984194723363
-0.7193152943847612
-0.2451208380225431
-0.17885730257309113
-0.0425810920454848
-0.02036870503872312
-0.018474900337517315
-1.2203892187574459
0.8400718008783187
0.14725081347553223
0.07408226538947646
-0.06423715012880012
-0.79568875950603
0.3088654819309483
-2.2796014460036114
-0.5963518736740339
0.9022123441487963
-0.5600637210996289
0.9900657695871061
-0.5789958306856423
0.49926126899897766
0.15076519635234426
0.6873181894102708
0.7346398734219327
-1.7443119618922867
-0.2761135994503195
0.45114410310655206
-0.7078469820173103
0.9200158273917318
-0.9835943243293521
-0.5053825221514704
-0.11144440383416336
0.6750440158999002
-2.945587412977384
0.13315640242968035
1.4176007425845443
1.1170686996479218
0.9909980424163686
-0.07813305519956756
-1.1262270670609789
-1.0266792658265897
0.21333992735594626
0.6448980466817374
-0.3043154980754866
0.17324376626636148
-0.09447117763511319
0.028645591060114706
-0.6254222868723696
0.09617121317828731
1.0588625644618874
1.7551237550276246
0.7165075693780383
0.006833813521738297
-2.963418147947672
1.3381960363079086
-0.7731807786857304
0.10837081204696906
-3.498279293145612
-0.15109455472094163
1.3510952207526643
0.5821682396642199
0.374342393193192
0.2680767217873293
0.5190100163025664
4.591209819152958
1.3574384033207176
2.8769194972777714
-2.007012855153364
-3.227477288075774
0.2621250647031339
-1.2308081740497494
-1.1884870924594169
0.46666428649662905
0.22631259262582082
1.8764169360806149
1.3611707544514031
2.077576239886931
0.1084621301169009
0.6691294257971216
0.3444264046555447
0.08533819555970101
0.30045833884902384
0.07181009148147906
-0.8105122804917999
0.37971140802616593
-0.5813488314662596
0.8893458341842879
0.11419330613834947
-0.3475160522277175
-0.22835513861232357
-0.5553477681082605
0.4542024547849804
-1.2776620790988433
-0.08902774582973409
-0.7920475529054116
0.21873481916430393
-0.20451141900477102
-0.7318959543400109
-0.5920797813826334
-0.4450219798784684
-0.5576138345218572
-0.9457061295713524
0.6879913045213311
0.20078016049584863
-0.17342651542237214
0.3550000227304381
0.6381607175061795
0.6708281472451019
0.7701567043064789
0.9144615402985801
-0.034760128367422566
1.7060385299724883
-0.5603212418944261
1.0129832208519287
-0.18808355198360885
0.08583242531243285
-0.005955103605138475
0.007011981087067358
-0.34224223557167927
-0.8025428208452114
-0.6899402648968396
0.28844729195759095
-0.7335410871117961
0.866626934423377
-0.6542083512414696
-0.14774044009157655
0.14070129543586957
1.2004374472406214
-0.3687662998757928
-1.1771935051505882
0.1068347062884149
-1.0761994647242852
-0.1261828893571119
0.07624498313438836
-1.4255104698427519
-0.5963290385233283
-0.8694998156663706
1.042603264423919
0.9665557771337229
-0.2999791594994609
0.5417162922196415
0.4242188144552678
0.25519245801572576
0.2949719399626769
-0.006260040427316177
-0.8722013516602394
-0.35666214417333475
0.13910082201634494
0.3470505945095373
0.12762535366352812
0.10358400035474209
0.010308171700331492
0.23178413546783722
-0.2888362196700237
0.29636203399059946
-0.300044303245099
0.3224747969959808
0.414962606058654
-0.84449679926148
-0.36819548303835925
-0.23963252755125655
0.33121562716731273
-0.42249831247253256
-0.17703957126749756
-0.7932736831155869
-0.14534665253057266
-0.46142758790302735
0.14520356798892636
-0.3233940494854205
-0.03307704043127063
-0.5901712191386698
-0.49310305772620344
0.3292655923923222
0.6752754386088421
-0.07114951845716568
-0.1385498759438616
0.8191832934105906
0.26996291231932223
0.5918499038244533
0.7276610635551505
0.07300010953579207
0.7656489150138097
0.13373703732334988
0.3962945269787398
0.3560164832209918
-0.06733224855042401
0.05061229383095968
0.0921865582019976
-0.23796713360237595
0.2687452401475261
-0.5021465573430334
0.4057115216974307
0.38357688804268264
-0.43254171945303477
-0.5436923773097202
-0.11609681341481426
0.31803721508028593
-0.42190978799915385
-0.26816213188156984
-0.7466489042749117
-0.37893865678656025
-0.6230013323918625
-0.3475750550625672
-0.4581732021813585
0.18066983591762878
-0.8758619703534434
-0.44849969226767394
0.6141040729562771
1.903321360326357
-0.03700738657025699
0.05835901845526837
1.3267206733712378
0.320052565222177
0.26995817572576875
0.6943809686582332
0.22172744539978373
1.2074674852497136
-0.1058746129571341
-0.916793286000885
-0.2745627467923264
-0.13847062085736392
-0.36130486220372293
-0.21770566971139568
0.9610191263197231
-0.6338971897978207
0.5700922673669333
-0.7812079243004444
0.1535107913050383
0.8736142219446518
0.05218852585321522
0.6020593888683097
-0.4116974433718596
1.582986436617734
0.08603676815337795
0.8256591150120554
0.014559192999895663
-0.07984947371741624
0.595940660260389
0.6442127775067171
0.4713724926296601
0.2987839656829025
0.8219110969441843
-0.23187311345441652
0.5614215159159827
0.18466729117484082
0.2585939386385242
-0.1275984479420869
-0.645662551128713
0.05239773097628032
-0.6994402541948641
-0.024684902702110156
-1.587275356070683
0.23760109574138236
-0.6905206675863148
0.05449020916618069
0.07516940505783558
-0.009049143311194285
0.14005259797732203
0.4391308171943726
0.3635018860967964
0.6733270457802127
-0.35786556144220955
0.741396784516753
-0.754388766565959
0.39381682932175727
0.2121441217472658
-0.2613486121107192
-0.7425082317620132
0.05576628969656195
1.069462696448099
-0.2347135312273042
0.8340788820397107
-0.1066820242375068
0.024610871583425793
1.2646567776517577
0.8425730659888822
0.7286179097144859
-0.9187747998361161
-0.7543102113792309
0.2678139246220298
-0.17945029463231074
-0.08799231925034097
-0.3717151114261195
0.006042587353029307
-0.3673861492145964
0.7960974795272647
-0.10931973682029975
-0.34765096948782404
0.7191126912384156
0.2136375632963927
-0.025235954819054374
0.16671495460843958
-0.2198192162375792
-0.31287269054548744
0.07743552020285527
-0.9131212256018983
0.42232333393795723
-0.1579419431727161
0.12328313854569281
-0.6851389924364243
-0.24097033418455502
0.39805188217382753
0.2283869259302196
-0.4021377738923803
-0.8267434573850159
-0.4511392266676927
-1.0807716984023197
-0.837655438999835
-0.6749704408502066
-0.35960186864959287
-0.8696863301103752
-0.9324861440310257
0.8355638289508893
2.681328223836828
-0.28217403806532976
0.4370129054133576
1.3939317796706416
-0.17485509767669818
0.0120217134536188
0.27519346146448276
-0.8092174994098439
0.37920712487409436
0.5778608373654797
-0.9930822758651255
-0.24055086480460527
-0.07797503990073322
-0.14055215319783976
-0.004645759382655847
0.24644304535693382
0.06543800702495381
1.3344547793276906
-0.23882614367828045
0.45267831280494636
-0.8361330953758456
0.8714034406237651
0.3633411100180793
-0.4187552733771626
-1.3220000852762612
0.9098730307156984
0.7386220265761404
0.7077127250006529
1.3226118058968415
0.5636363489043531
1.238052262369489
1.1517331240532138
1.1585740307255954
1.4507675309620498
-0.902455033063035
-4.653936263183943
0.23092295304063057
-0.5044385506261364
-1.6165679417848529
0.25847186130392247
-0.2621295917683974
-0.2681482839131554
1.304398887416699
0.1264914500977355
-0.21121654589980238
0.5124811671539153
0.282119350694631
-0.44371505368335107
0.009490823959985798
-0.17029365562034965
-0.35522958087147233
-0.3585078021270826
-0.19880703678559183
0.2816071033111862
-0.47557521871601977
0.6359574888119832
0.053501306341678316
-0.345126234926389
0.34796465448710234
0.3814593940494992
0.1251427245660944
-0.36904240358841217
0.0777855167283771
-0.027130637170419313
0.37786672451883646
0.0388032788214385
-0.7669480800273482
-0.051158512334445704
-0.5557150190586365
1.0108637273060002
-0.37600219585361244
-0.1597344244150479
0.22576213588709237
-0.3831414377846694
0.569358654703891
-0.1466254884352625
0.39585086892924665
-0.33704141014541794
0.09688912419861027
-0.0595026605480696
-0.05539811374518528
-0.1719737577784884
0.002725647609440455
-0.08656314462027541
0.4545338317577033
0.4969483569081676
0.32640112181303
0.04400217718185643
1.7977150312659662
-0.3099061576677068
2.700100090817455
-1.5801912205670887
-0.23017392483375587
0.13143806951514403
3.2745077223865136
2.3683642977641477
0.8789395645757986
-0.15899650596718184
0.527559237865076
2.464071863512568
0.6173351085427777
0.8750666143173036
-0.856695862338208
1.7687796818939039
0.571653593157716
4.4532551874675645
0.035830408639969856
-1.2417929962936105
-0.7503247103542641
1.3448638063720384
0.23166916417588249
1.5707959511165237
1.3795634238397076
0.2450134265275134
0.008141567445017445
0.8000837991968744
0.26383169545493634
0.26610450931080337
0.17767250853248365
-0.03393190742352867
-0.7581140537358064
0.48293469987938764
-0.9099262147211077
0.7466322464403122
0.014559134129797206
-0.6452400571175869
-0.2219073042898374
-0.8382973728548725
0.37320883554179074
-0.8459306393875103
-0.0763999548969162
-0.8505537981236564
0.33029318666442914
-0.20946448156247685
-1.0062395645967885
-0.7592122709650234
-0.18672087824618017
-0.5014256457087214
-0.8607501724198775
0.9936146748442031
0.16155047853440221
-0.07987795157612433
0.058741012338104526
0.5951128859212778
0.4671369334032854
0.416680058578689
0.9829451143121142
-0.3125026836216577
1.386572864256803
-0.17033596113491678
-0.0008253763230830122
-0.2529010824515452
0.07802511450652963
-0.038932989933739705
0.26662831588614744
0.5352711230397643
-0.1033460885156651
-0.16923620854439383
1.5922510152029115
-0.37674070266829285
2.793792694117275
-1.424284282189909
-0.046550112762596324
0.23999005561927916
3.4353740616882487
2.0779444797511344
1.0870764325853366
0.24259259986429424
0.3233716115464141
2.5710219053809005
0.7483920532355932
0.864306633948126
-0.7229180398311669
1.5771051719208946
0.535304120832651
4.757075923637197
0.2302222404238408
-1.1788836742947697
-0.5867240632261637
0.8013547424253307
0.5376188789681936
1.415477424001989
1.0382390482403447
0.1761536669077829
-0.20919769047788514
-0.13203886469670187
-0.4659701829572999
0.12361739987482931
0.07283669371240532
0.46472961584167266
0.2877619088525873
-0.04289446844407444
-0.5058283662081403
1.1013302529560192
-0.17623538786638696
2.9243637561225424
-1.133903051064132
0.2281095256702737
0.42738820126765525
3.2089392325752812
1.9440175793438816
1.1122756422031248
0.2107139965224245
0.45720345266384166
2.2015576063428126
1.1195051929884918
1.2070649627192291
-0.6618563065489562
1.595883721636329
0.6627339510291915
4.7083651939827895
0.49627165090317066
-0.9493443448006772
-0.6181008842069899
0.78000989227396
0.09410108569257661
1.0269141835347788
0.5518312097114202
0.04229005269232045
-0.9795567061597164
0.8905930141664942
-0.007128098931145149
0.11845254958646093
-0.03471256909953724
-0.352302088942189
0.03812709672026324
-1.9336805712525504
-0.7180923887803561
0.49483678828849953
-0.4394735272572665
1.2403835984309364
-0.6829951285859029
0.6340472976712939
0.13380851845665845
1.1768495376883061
0.6884396064326967
-1.3264204060197138
-0.3781296940633404
0.7626749959760312
-0.605615325508429
0.4739607232889631
-1.5592960634273123
-0.37231362418493713
-0.6649989125392027
0.9997813361117686
-1.6435135115019093
-0.08821766454726353
1.268037476924734
0.7354537072335158
0.7285872439899144
0.17741105415930863
-1.1642669305035411
-1.1701672736580544
-0.10849917236110063
0.15507511795026396
0.4642261598314582
0.23356736423022048
0.0046365001864164075
0.16853596985066358
0.2658698034319522
-0.8797649872211856
0.27884061361153833
-0.4237457496410188
1.0812329456940761
-0.20615605998450323
-0.19573770337966934
-0.05229111306194451
-0.424447500462395
0.5018752544732473
-0.7833855509457706
0.10472808831850991
-0.666380579179841
0.4751267812955327
-0.07748463381528307
-0.42293783773764887
-0.41357251864201283
-0.3751095832313051
-0.6671713090676255
-0.7116408608520222
0.7738156703181267
0.38269716600963244
-0.04274632084107342
-0.3129340936385521
0.37826187415717655
0.9702162293233246
0.41116959526657837
0.8137756261200042
0.2601273710711247
1.927093671216058
-0.06357401169973285
-0.09167728881949751
-0.15594646433986592
0.2025894396667786
-0.06180795370235203
-0.2124718791187312
0.37895560756505775
-0.15820363474117938
0.05163975791912227
-0.43146213447178133
0.3470489080552701
0.31533422701469777
0.1065260751918286
0.5856317801364765
-0.31019556256709613
-0.028744507477716213
-0.1795376710065104
0.6408247955558458
-0.4009001700912242
0.32784397966999673
-0.38038133209473346
0.1937196779296278
0.4822520183290404
0.15976280847202537
0.4263764541758952
-0.16128732864852607
0.4743667406005139
-0.05902463786307652
0.7684543647288293
-0.013987344485050929
-0.7525866997299979
-0.47206601170179063
-1.1067988141017082
0.014905110033741833
-1.3395943307486493
0.7779784429225607
-0.8353997914516883
-0.0505652183595684
-0.1017988384991134
0.19263370980313893
0.27091746191870447
-0.1751167515463119
1.6849179422914873
0.6093290096582178
-0.6233377185181769
0.6417444219157757
-1.0631067829456025
0.9601875986194764
-0.5035395448532803
-0.09424984470709767
-0.6204552618534706
-0.24840504253651402
2.263081715647209
0.13685496878212516
0.48999134352673024
0.7355027331181931
-0.6039681870404601
1.478541622405623
0.16792226932127538
0.40496398332617334
-0.7068815855011871
0.9692291782091559
0.14707131485721384
-1.0326941978328987
-1.0342602093048399
-0.45589986866325083
-0.16346888792727962
0.9990264798817117
1.1254810116925242
0.08444811714370604
0.10360900156573959
0.2751020530316321
0.4597630868523411
-0.08657109172236277
-0.00306260129734788
-0.3755447849343232
-0.23855511237367208
0.2757416641277292
0.4081088288054136
-0.9330366356126059
0.3024210201351164
-2.5347702872048985
0.8255429809690312
-0.01760031635197772
-0.3616085413978742
-2.9155118131433144
-2.058838791370214
-1.1298751637710593
-0.4888977952911493
-0.05898945535212078
-1.6173647893968641
-1.1100053942438337
-1.1159998112606357
0.11937444048473073
-1.4477713197489728
-0.6641621388462812
-4.115397559865995
-0.4051954590274566
0.685760305860961
0.5448432464786369
-0.69091671243144
-0.22520608598876676
-0.8978440586909707
-0.1612866495402801
0.00456105541330174
-0.034780985014829686
-0.5550270891037771
-0.43003542846607345
-0.17031060153236635
-0.10829291524197883
-0.04288911600485872
0.4347446708453788
-0.30579285058685807
0.6110234642967225
-0.6021220086482735
-0.1516487680658872
0.27850940749697517
0.39137756362209025
0.2421455341013705
-0.3588607557901618
0.5796694312226998
0.13182543996251977
0.8908901628908925
0.05756854969002662
0.48470029471011433
0.6332719651136062
0.5171721538200078
0.15278601080184812
0.48515105172258904
0.7518728108629507
-0.844021670879901
-1.201965449713491
0.13490783554752928
-0.4683923048979711
-0.9676021996865634
-0.26110385875497444
-0.06983135048935357
-0.6763173198538964
0.1726343174648094
-0.7803662113050894
0.20349920989933104
0.587054427133382
0.413648175457847
0.05485885115315875
0.1587827210649487
-0.2123390622650889
-0.22162327936457074
0.5215580648067825
0.5260849003577373
-0.8208853688771673
0.1485886380224768
-2.429101678249974
0.4271733602894114
-0.14384372985340274
-0.20481957736534176
-2.3136908791167237
-1.6086380584373
-0.9862969522601158
-0.6815166413211409
0.29724423714165177
-1.4610156757020951
-0.9374744101487699
-1.0673806437178812
0.038980548285549504
-1.1824900670851437
-0.48435969621725605
-3.645332074495003
-0.16383983032591573
0.4060621498730527
0.1725821867747152
-0.33564200044676157
-0.47199650936826854
-0.35269266019107204
0.35635763851284846
0.15807340418029991
0.5178521340736
-0.6822998046418909
-0.2869671801192676
0.24965425011437356
0.04427362454431076
0.22563274888838072
0.4261542661093313
0.5278594542458461
0.4336098656719565
-0.18029126385786712
0.4556114742118828
-0.766922499667572
0.1337912848630292
0.4865320743922514
-0.3292551011570241
-0.7484590489205206
-0.18804007905336895
0.4185318690328851
-0.2144594097151276
-0.0039587637847846744
-0.42403887956431874
-0.006702945792069621
1.131750837489402
0.3328484052054145
0.9116347993464154
-1.119311497437806
0.1352132204754015
0.12638260040990848
-0.2586499190591819
0.3094234718341249
-0.15439028796470103
-0.048901692153220884
-0.4482323880515211
0.574962487258327
0.01473778475547945
0.11590365324038393
0.35303671693729
0.05662828948486235
0.09547995639093117
-0.006142437865746125
0.20995901941683118
-0.3168432559704786
0.3057569515782019
-0.344470974863257
0.4597141010985187
0.4324772009773466
-0.7452995782294618
-0.42508764358501194
-0.09966669849060884
0.32862389046394375
-0.4697722416493786
-0.38382430541960133
-0.9508903390411877
-0.24979523672326268
-0.47167790430140516
-0.14197216459538498
-0.4413486012028183
-0.047353368067261974
-0.6546792958173633
-0.5729092836119888
0.5737647714886562
0.9021173602490419
-0.03180283630028373
-0.12796927130965802
1.0402080743081403
0.5230954554620396
0.36422345006348605
0.6238893634084904
0.00990672024079258
0.9084013358402812
-0.04110331948063124
0.7579961595595426
0.30272848524739027
0.2888118603275715
0.3209661299356142
0.08555086961740187
-0.9246448053728914
0.4897416182637004
-0.8030740202683218
0.8100606969270452
0.001624501842103407
-0.6389963026872949
-0.0699572333026167
-0.8509314002181357
0.39892280251354484
-1.411874623623795
0.020044586988747823
-0.751164042361536
0.27821313646197005
-0.05923175485169564
-0.7617516576886634
-0.7644135351935155
-0.28193352616300504
-0.663509986055194
-0.9531670103721694
1.1802308553319618
-0.7015194833917673
-0.048136424922125096
0.01620541401760926
0.1383865290355168
0.4720551274512339
0.9071920442617499
0.733965244683519
-0.20430910721594142
1.7482840630926946
0.03061118337608203
0.5602278533509221
0.40158764415758974
-0.016575025106479374
0.012744348089445951
-0.029444001433572432
-0.35051909442605006
0.187506493703323
-0.6855119969180559
0.6487998314300487
-0.09829198804356164
0.22529745566283763
-0.5846777083656132
-0.4272023925500356
0.3355390177039273
0.008747334233808308
-0.3833383080504598
-0.9679264048431873
-0.27072365404907256
-0.6572622639546278
-0.537958679375022
-0.5491949711167767
-0.11340304088784843
-0.7609366795044102
-0.6904512912147908
0.641262842700059
2.653561345792523
-0.11107645758704304
0.2940121792077663
1.0241578460176133
0.458715154319506
0.21754758943748628
0.39820253012576107
-0.3089382762704654
0.7589181109362358
-0.46568283974643415
0.8099461666783906
-0.42996020211328173
0.22698635247301122
0.38630903530733157
0.11616946535086818
-0.2278702491961083
-0.5748291294053741
-1.1012656479393284
0.03117513192544359
-0.5867203571152876
1.4693244363808793
-0.7670579567221121
0.036517902563766885
0.023261057092355274
1.8786288240451463
-0.3649461186088179
-1.0818483968691577
-0.2567666434965486
-0.8365220033617683
0.149930181447229
-0.23198626674179532
-2.5696719173623532
-0.7609772181233474
-1.4645901215695567
1.1568286395818226
2.0542518580366966
-0.3495059686262526
0.25881291147932606
0.09331877417409869
0.15286978929488118
0.029142252277905897
-0.25489108298846697
-1.069351150952109
-0.5978011444521607
0.8155549290377058
-0.10921546905521314
0.11616559806357102
0.09590906915564659
0.09572639371347855
-1.0109624125868824
-0.22210659114103398
0.037863228667325464
0.45404617433199773
-0.906886083558331
-0.804578361644517
-1.786810990502661
-0.47290081823893776
0.07289277704006254
-0.6862338158801332
-1.423445429200608
-1.7123641250252657
-0.9539542875123594
-1.2336655607199785
-0.16435194978107986
-2.3106063441204547
-1.0602948142473123
-0.8715140260346165
-1.0336286038408702
-1.1717430662840098
-0.30602344442539914
-1.4247486514615118
-0.2555915692142845
-0.01773184430758808
0.20582283363380777
-1.259338461560455
0.20124687135518696
-0.3489869960681123
-0.21450257452260757
-0.2345430733307424
0.9405279258201755
-0.7276420930172217
-0.02266904778376531
-0.09884047129277067
0.18765062991055115
0.5805132201165785
-0.25642873014070144
1.7682352990856438
0.4343773350816534
-0.7351995892092356
0.6133785063325726
-1.0472158020144349
0.8549039732205869
-0.5048731257805122
-0.09051755563889004
-0.3333610833865271
-0.4877686134609968
2.200903500678059
-0.03249608584388074
0.12847800845550578
1.0567955200941896
-0.8061359633420889
1.2084105650064034
0.3785668242033989
0.18645355155525722
-0.17122780327424741
1.9140531846798647
-0.06221638201010431
-1.0071319086054273
-0.965461410397165
-0.4562643195357947
-0.04526327679154848
1.023560097643517
0.7745399520269562
-0.027002146886546938
-0.09403446627744862
-0.3546849259739458
0.010352448991821016
-0.011457233390624648
-0.07969224572537176
0.025059020700436425
0.5013355632839211
0.01262940550350713
0.24863127395822396
-0.6370585123586837
0.5251136487299581
-0.5128637732068597
0.11260020560106011
-0.0677062556730674
-0.34255452096024164
-0.4396549741292462
0.10744682722223087
1.0106485613180787
-0.11723269228605182
0.49961965505618317
-0.1596186970111872
-0.015544070979636237
1.0538056878046869
0.3928093272313403
0.6295204334914831
-0.560570418665762
-0.652522422290373
-0.0502316776860709
0.12472768638081902
-0.07018412341207013
-0.9944707676601838
-0.32353852323347565
-0.8404454115142114
-0.05011926920693746
-0.9062825999698608
-2.037152147702547
0.4623849409182992
-2.636735011339685
2.171167001433261
3.0413601407441924
-2.5004783330522953
-5.121266626869588
2.037035493820356
-2.6972722195214023
-2.6705617938944846
1.7825332683170716
-2.3192000631731826
4.341843942516747
2.6764442852160246
2.1780658921196356
2.372657062668163
0.9941230977660692
2.2434870203538084
-1.7982098090618432
-2.6788432865490073
-2.3405209916217933
2.42457735420536
2.3937376878884713
1.659293565641715
2.65026164172071
-2.5300633593016184
2.450800423100593
-2.083513413905559
-2.5320317801897403
1.7088663886085798
2.5424226721549257
-1.9235337422699077
2.2582027751656115
2.6019352695477935
2.8553069589396887
3.30278287829918
4.422599112715189
-0.5478178204309774
-2.1051133523369456
-1.6101658274479207
2.6346953062543674
2.6221763954382156
2.557027978006032
-1.3196744508652798
-2.030877944790484
2.2913245486429985
1.8726088247290722
0.061430384775478276
-0.11110654763923536
2.5164883198488064
2.4717330427547837
0.14608899702874517
-2.585926516191298
2.2445660164613783
2.5046172835658855
-1.860045008271756
4.557728757158109
1.8512320658653156
-2.187220918841012
2.2293012706618254
-2.422647259769791
2.172427332139282
-2.1368990583170078
-1.9138108647456131
-2.967670301095751
2.139450565083843
3.4291791609473914
-2.2435580408583418
-2.3064640270790067
-1.9634738755678738
1.9209433210593543
-0.6585375382628652
2.544998229022958
2.1291523726554145
2.3263539165713514
2.3213478948601574
-2.6494031804189544
-2.1516504307403332
2.0082915329471955
-1.887421548354561
2.174468455073805
-2.751555419235526
2.52324711960203
-2.828715770903278
-2.4406963799440433
2.214349756008724
2.6750008135106067
-2.421400326248867
-1.7238916969350908
2.32415220453189
-2.3817222617727847
3.4441910576767603
-2.1240773871261545
2.4275409144608986
2.6396483310013137
2.230697807272055
2.1387915130845716
1.210282578681976
-1.9265266893517101
-2.5254356180926343
0.1056761946031699
0.9743118165165581
-0.0005051176133980112
0.003268477478994881
-0.2324415864451341
-0.00038391600222910426
0.5388561536150938
0.06974380688177953
-0.0003214858514933198
-0.0006262744670841305
0.16425696058861583
-0.0006855313910122615
-0.8062549781579967
0.00030680972090960627
0.002044333360612983
0.0012634569522222887
0.4342599626245657
0.0005003689562061931
-0.05042673276946064
-0.0007062008389422297
-0.0016735684382606453
0.0001928739530309606
0.00042193199373052995
-0.0015857239786765654
0.00014913326958585732
-0.0012923873262107178
0.001146064918602825
-0.021521537150264364
-0.0011964700067174743
0.1705697419873715
0.0010181626303531243
-0.008106300214411964
-0.37007279238185986
0.0005225975845082651
-0.10597559509658129
-0.17068506638474462
-0.5306193258292932
-0.04569741515111573
-0.001017201418260329
-0.5433390138267301
0.00034282297693673106
0.0009594459933577499
0.0009084115431541643
0.25100995109062074
-0.001453745167422301
0.0005381083678371132
0.02370102451486607
0.4008045972493228
-0.3603268769595095
-0.4655262564252764
2.4064827178368334e-05
0.3613573081107899
-0.0005958959413444402
0.0028816964856436976
0.0009959165920313264
-0.004313236033777301
-0.2375209088969419
0.10992884801089332
-0.0009042246470859007
0.0010267772823338048
-0.0012798783262610103
0.0008804110513535954
-0.002162685067710823
-0.006618610707811853
0.023263482078493894
0.00043745211543897686
-0.023075114321276072
0.7814140669229176
-1.684679363094843e-05
0.0009124940697698381
0.24795145225561147
-0.554605142063641
0.0005689777775776573
0.01534509885374712
0.0003754262813953536
8.9330767136867e-05
-0.0005297544017850035
-0.002444196039447374
0.0025490734683498526
-0.03447184995794357
0.0016263031926905176
0.22772785541777768
0.0007485721251613469
0.24061496699946808
0.2066107732561997
0.09069140541424299
0.0005994756316775332
-0.0010533964504595328
-0.14869375432463963
-0.12885578780883722
-0.00046830679107166486
-0.13945748208159178
-0.00527775511300886
1.345605381758769e-05
0.000856976589828722
0.0010219875857242703
0.024284209852486294
-0.35564125901843613
-0.13043840258657605
-0.0009637058865629143
0.8347043650198708
0.3411867939207042
0.5386152799666157
1.0558508270983864
-1.2477103548128181
-0.6583671771192008
-0.8358253790029923
-0.023029168763527858
-0.005446800079054324
-0.2711800603487681
0.7031170894306221
-0.6746340387500755
0.7127163454880975
-0.7576907481733696
0.09378432548292048
-0.6631291724018026
-1.265936690445392
-0.7432313467962683
-0.42668361193553755
0.7782028838528833
1.0690096120339083
-0.7723781657346156
-0.15302384804452204
1.129026830130992
1.3973776919157572
0.31450909731177507
-0.30709501730540245
-1.0633942645270134
0.723390816789762
-2.2643568227847135
-0.38313488510230453
-0.4469936755153171
0.20213333865317976
0.06407423123403502
0.5173662349658876
-1.1290623296801874
0.2163253253074728
0.35853782936315653
-0.5636315516499859
1.251724550545801
0.4734886731392341
0.579421010283637
-0.0254839250522489
0.22077744212901765
0.0846892331118161
-0.13502375711277043
1.2564200763753328
-0.29445574452114215
0.8418684085495096
0.2831558492380088
0.057132040197134304
0.6534184617809639
0.2311898238299257
0.4148105549940481
-0.8952730394216271
-0.7211617768936742
0.9310229060373094
0.03908088708395159
-0.479649240708479
-1.2534196034593459
-0.5829246408463731
-0.07337124192361118
0.8125438055372922
-0.658920252590201
2.099435059771134
0.22972814484426263
0.4910876406911775
-0.3782769392714796
0.5789031155318356
-0.9208588538874273
-0.5337437033538631
0.5845405571247858
-0.05156437217422275
-0.2174317414144887
0.7427730296202983
0.13094112163098354
0.4154998251141003
0.5885374220085106
0.3105769751760477
-0.0026040771820434174
0.08090887930718554
0.6127809657050762
0.6223682684906408
1.312804709007695
0.9121889211039801
0.6041606790463705
0.6080876900938784
0.10777838550348744
1.7978370013281215
0.06961786490896087
0.9284176734818517
0.6589542102600721
0.11527227514331576
0.2784809074212864
0.33577017074259674
0.7674698552578907
-0.2317294418768718
-0.9831290567829853
-0.2475113719052818
0.5695966466389811
-0.1226603711554318
0.2920995766391083
-0.02175588809273202
-0.3745163894844249
-0.6007228473409068
-1.1723000068306664
0.09736461698790892
0.4099324355819898
-0.51269810585265
1.360837988196708
0.40879057146234843
0.6882005335911231
0.004300635495858438
0.3244521188778488
0.40429550815964804
-0.45239707973001075
1.0240957967082236
-0.1663835943360195
0.5068748247379429
0.2409800397404334
0.022965842964521713
0.655745591539842
0.15467280258818578
0.23609920685829427
-0.9904831269424094
-0.8887370730694975
0.7890392541527844
-0.242614735157178
-0.5147337507354767
-1.3414733088191648
-0.44172128134242244
-0.18418221657874617
0.7939995600179012
-0.9138167923854902
2.2653695874347552
0.17515922232942552
0.38282104185092813
-0.16846235319944705
0.16320710145275644
-0.792168368689899
-0.638544134087089
-0.14359388710800106
1.446459299767142
-0.46897570754353524
1.1154441388951253
0.6580830865606575
0.1879638808652121
-0.7038909424909195
-0.07915972218274196
0.6395006171094231
-0.22188375896585705
1.2735438519891447
-1.1641187269277922
0.859620286451103
0.8142583528510914
1.3786335244547705
1.7397885908152813
1.1846006160509297
-0.057425749942428765
-1.0900105122656552
-1.4981622592780253
2.7511669949579587
1.2510045307536248
-0.9793549320216801
-1.7706820726493138
-1.4890433749434104
-0.6911202559205181
1.707355595877585
0.41342272894998344
2.818785220349312
0.037669613810192765
0.30651405668751247
-0.6013093070842539
1.1531498431599696
-0.014555273709733791
-1.1759440506710659
0.12250738275888651
0.3880490395290602
-0.28211346194141246
1.3099859806211127
0.35452050978676714
0.5645772238772236
-0.018643269139777447
0.3308546826136538
-0.2127951321233807
0.13407219505556278
1.4198663706077765
0.07801490382021158
0.7337824774700906
0.1396912881072179
-0.32553854000368404
0.2614776424867422
-0.3103439651993422
0.2385256405911813
-1.2915843071083568
-0.6737400086147394
0.780373979329413
-0.4217512510462528
-0.564615302102599
-1.3076544524843128
-0.5435316365642644
-0.48585282237605065
0.4222767330524983
-0.5776591942204332
2.368625082440161
0.0440504508375119
0.01496096310180899
-0.3306806171469763
0.3560099275462586
-1.4310442369740188
1.1057094194992896
-0.060237764445846914
0.04409217680044679
0.467434832551151
-1.4734507098110725
-0.7669967764324751
-0.7225965582920424
0.04985301501623515
-0.19954531845122786
0.06947823314941007
-0.061833336436259566
-1.7919431561312378
-0.06988652608032672
-0.9314921248784437
-0.39288635404915945
0.3275649186441611
-0.639819478284223
0.17881434548624767
-0.5700882363991001
1.5719705585371346
0.8504693637939071
-1.3670733783295899
0.20336250463477365
0.8678905293745554
1.4663439185124485
0.9354014219948575
-0.05222914108631694
-1.3136125742144331
0.3330266011974766
-2.7963390765000367
-0.3752376571657192
-0.5019113197811805
0.44543131910852124
-0.6903087619278652
1.206380661675443
0.8824569029750585
0.25668800315035767
0.30017794550848487
0.7753616321245709
-1.262468468560547
-0.8481412372507705
-0.6829517576749111
0.11494173158261632
-0.014401338331438085
-0.16239639890696528
0.2530479692380792
-1.3940866455772807
0.7656996839657292
-0.8078227569477553
-0.03825777067840112
-0.5863407817719551
-1.240291890886906
-0.8630759305861534
-0.4880474903965727
1.26751049581393
1.0769494516199833
-1.436501859220341
-0.3853521430434574
1.176548480102387
1.4415990535117509
0.764374148197779
-0.13417231531550783
-1.6752015162906642
0.28409456123162724
-2.7826476666455577
-0.3777534231947077
-0.7651934404292269
0.37467125806930324
-0.2813500069594055
0.6987469297800133
-1.245799771901449
0.2785430929868314
0.3222107819917725
-0.3951904188617556
1.3335855104913275
0.4673149973583422
0.6814829393973382
-0.008633325020704147
0.43958538538909797
-0.12860487867580164
0.015412351829617438
1.571958842713298
0.27715872993062535
0.6734520839389586
0.35820417052287795
-0.6014440344014301
0.18677337195798324
-0.7089646812718797
0.3606490119340928
-1.5861805068934363
-0.5682553662320997
0.8088849939797353
-0.627665253940601
-0.40665467168356645
-1.334596683764383
-0.7937393010870076
-0.1494315290421203
0.8373708808420357
-0.5236501811535358
2.8248954810761795
0.2848350698050672
0.3587981160227593
-0.11659277603752419
0.5228014308403941
-1.4254275610415261
-1.1154286794872614
0.3389251836872644
0.3091792518738168
-0.595915586679479
1.3094640282825794
0.8677676528825952
0.6501498732265321
-0.22260208207490842
0.15753847516842492
-0.02668446725889849
0.34696894169781595
2.0415556899190834
-0.33977142651470127
1.2503446729387155
0.5290858401977582
0.0005629833685665076
0.9060961429463524
-0.06352789687765295
0.5537686219785403
-1.7252159346476068
-0.7980366881198907
1.9519424685751492
0.3589754347954352
-0.7514502226627781
-1.7868601439609502
-1.2645709431888497
-0.193172666114513
1.9493893378411489
0.22109936785127046
3.149380168671143
0.48199200882281545
0.2755394347547984
-0.6622514155464764
1.0703313881851753
-1.249309881432752
-0.16861357593013185
-0.19009598895499685
0.15348454050289112
-0.2382410035311489
0.3164440229493823
0.24538570616575794
-0.08092136196838914
0.16513253618400595
0.2364025548529408
0.17730011636855494
0.5597737028220972
0.4923165858792229
0.9075595731255245
0.294532017369925
0.4360169061539025
0.5642276030433452
0.09620983113525777
0.33391776158956893
0.9928290839801213
1.1722515849063178
2.0880534987175947
0.04293148424417528
1.6360810446645664
0.07674934977539326
1.3481792231410585
0.09403952912038847
0.7465305529764238
0.6528678543888697
-0.2360132501328452
-0.09341058630222404
-0.27178432883429277
0.3111928276155074
0.3865326798571099
0.22137648350078826
-0.3916841011650088
-0.480446553095789
0.4069900611446671
-0.25344398244634725
-0.3546468979939376
0.7485218472292106
0.25228989093389503
0.642449772593327
0.7286843724918388
0.3377507256544478
-0.03653062330855082
0.38932855350485945
0.8016511245112602
0.13033676315327444
1.8260340190198683
0.4627476884472091
0.5854092520762076
0.798729865074429
-0.36195635169459356
1.370590989642087
-0.6728138923934872
0.5850925494757553
0.9758177049663297
0.18327866664777373
-0.053135150407087293
-0.39601154327753707
0.8091183333343116
-1.4526890500312721
-1.2332523794266994
-0.8656155466608728
0.6204863223604333
-0.21124638316707833
-0.20139658382236214
-0.7932943720547867
-1.0833212786093087
-1.1394461324461114
1.1728963289818588
-0.25116079110648915
-0.3358735526245077
0.3712218345413235
-1.3657515138161953
-0.6873215326860185
-0.5629366638205432
0.15174425713414838
-0.23662577995503484
0.0842541828123265
-0.14856343863176477
-1.9364201596764088
0.03762434639529048
-1.061280471566337
-0.3639690157731932
0.14405563909669705
-0.6573014965747954
0.2882152170261144
-0.3597305004931131
1.4374734081200264
0.6840491581348409
-1.5228783108653305
0.07518704577858375
0.6474320936406105
1.5138457657245208
0.7740603525157407
0.4958741377399634
-1.0995276870061494
0.10343497750885605
-2.8145264713993092
-0.248072154929469
-0.24910322429026382
0.5974369998221601
-0.6281043676841439
1.3309250725090256
0.9567394656948279
0.23841962261356603
-0.7361955741503969
0.5869754780856254
-1.0438059517755447
0.15901951050663027
-0.11796430486222763
0.10893407367320339
-0.1080063921522747
0.22916688303628896
0.4478399869529601
0.16212902069990856
0.4095652797591112
-0.15031096271544006
0.2344815058821105
-0.4825310883902094
-0.17794948658659318
0.026795662825329143
-1.2950316975263518
-0.6117141828141017
-0.1523950956420537
0.23420516478238837
0.0003820514278850579
-0.20279151403059062
0.04962355933090441
-0.7840462699916579
0.8519429924169744
0.37413907442046096
1.156269589033079
-0.4370370979085282
0.5556421569549023
0.25555556284167774
0.19575859330696832
-0.4986667532028224
1.019301389522798
-0.6666671205618218
-2.04473850215049
2.5148284335099755
-1.459162534629348
0.9026712143227205
0.3634081239181425
0.2894386140541356
0.6676541184795758
-0.05495347147527199
0.4566127987165017
0.9167207325602369
0.38364843290566486
1.7438911282618947
0.25771797086794274
0.5397648799503109
-0.11925377491256106
0.46998666695493224
1.0505673955107466
-2.727138562174347
0.5292393668531147
1.8112237819295705
0.989404498268028
2.0770882037285343
-0.010263641373919663
2.2500393444023885
-0.7108673538165793
2.2164801378914705
0.3601544370796582
1.5311111769712349
-1.0800563771176723
0.5063692991696881
0.34629057439803396
1.065365160131517
-0.3075497841136429
1.051588031840038
1.126168111857593
1.024237009155226
-1.466936637905992
1.379879600939403
-1.5589807653097456
-0.25025797454831905
-0.5722946412230693
-0.6006602575988222
-0.19211604117174313
-0.350552623378719
-0.38895062951329396
-0.5680643499397077
-1.078102243105033
0.02549349270954436
-0.4334471482638034
-0.16216654743575845
-0.39494209342762293
-0.835843111016739
0.8983514226546456
-0.12992273240842492
-0.8363663186889152
-0.6364563219039746
-0.8585595320260576
-0.06095216056535823
-0.7509821637665239
0.307872375834093
-1.0458661244774474
-0.18403707520099488
-0.4404789367306167
0.8099631442081825
-0.635783742100338
-0.2584037464159732
-0.6958939945227622
0.2066741375277151
-0.9598526345342546
-0.9946631427495249
-0.03369493922971658
-0.47361155052389753
-0.6639167840792777
1.4104523917180671
0.8262619206250996
0.7413936903990769
-0.04266143934453454
0.13100979148901643
-0.27422732581254267
0.24707797608959264
2.0261553980740445
0.08467951582954035
1.1397576673535328
0.0730508772631498
-0.3579135897502963
0.7287837383807869
-0.3848222707052184
0.4799333830382005
-1.9112155818438519
-0.7587274059408364
1.35162723549233
-0.19877551270617444
-0.8753380883980667
-1.6344335240588492
-0.8602219215341764
0.12404547676707557
1.4762933372463214
-0.10024557444879116
3.239652221425638
0.6023507841955406
0.5844373396583318
-0.3536777798506805
0.7282224411709454
-1.5081332387378326
0.9661568453911188
0.21756863082227573
-0.8909337658268385
0.4769945220646861
-1.0832247602499812
0.09752185048153343
-0.25953408939187156
0.04642602731965243
-0.0029033580084402324
0.023699656705435387
0.9369426001738973
0.11040170466733616
0.6363180201684411
-0.11570849716234508
0.043556028381368864
-0.5612103191209215
-0.4068549185735033
-0.13390117835611254
-1.43656321559941
-0.2588531375197405
0.3361025996582031
0.1939972068385877
0.1302213105366537
-0.04330982865429325
0.2686725531924332
-1.3750216098909755
0.37440122029806105
0.014196018328579172
1.958921094411772
-0.4392363066747522
0.6148555199932519
0.10686208818486474
0.42986169733436624
-0.10459703529145276
1.2145988160864776
0.4052300401014284
-0.17572472235993603
-0.08813190575534312
0.05595876021534678
-0.4398719913814076
-0.05658254363122654
-0.15659617061463166
-0.28091366347478774
-0.2299185313072152
0.06929696995075733
-0.23962046646488558
-0.4241524029619104
-0.5768536734060984
-0.5793737898970661
-0.5352177699369132
-0.36004299854791455
-0.18671673403167025
-0.22131039401564673
-1.4233705123957272
-0.561514868860213
-1.0685013422688672
-0.09716231110901226
-0.448716100068485
0.00020770259845452775
-0.64684868674492
-0.6269800933543719
0.058887311498605564
-0.2005981018594838
0.14190581523093626
-0.06356349211095508
0.3863402130793616
-0.3540260571195169
0.19710357338727055
-0.05723047287167488
0.7587114134019309
1.165411389816175
-0.058377462623821125
-0.1449640161435047
0.503323670036788
-1.4632678907614076
-0.20032210110781062
-0.7519785860064012
-0.1870674591671155
-0.41580594269840365
-0.13086582985609135
0.35759325810101295
-1.0148514542340494
-0.1593198639536878
-0.48000549063470394
-0.2587423407592728
0.4641669210346897
-0.22876302877125765
0.12501881673998544
-0.04574062105862775
1.01624267296622
0.8689069075032729
-0.21887361739333347
0.6246379862245365
0.38129203518514787
1.1440949026719973
0.25429906717389433
-0.1891580446266359
-0.3354177823869317
0.964931848120506
-2.1985324483874726
-0.25406444046111926
-0.44098324555021384
0.1887978460756936
-0.12728133267287212
0.7893581696751548
-0.84034292431315
0.05335101912213909
1.1706290142579165
-0.2513158295147719
0.9345119424169389
-0.03290146630872037
0.16906018116779067
-0.08947912080950124
0.14532676228291544
-0.051564407385659615
0.011189822771111826
0.217476132239959
-0.3830694843036949
0.21079495135861737
-0.02737629671669914
0.5164512431570251
0.18982926317360233
0.017183152597018383
1.562495674324156
0.6450380337857767
0.41522991705094286
-0.14011077529789112
0.07429523304763024
0.14204069216163617
0.09053833283103294
0.6697458698646928
-0.6242788683898874
-0.15817820627921117
-0.9557971036930925
0.42685212816886037
-0.6688181006299054
-0.33390110419754615
-0.24797130141651924
0.6307634863984266
-1.0370227111451302
-0.9236717325582862
-0.05153582531082036
-0.04394154765071058
-0.5609714064109685
1.3408104220289327
1.0233203397482555
0.6270451448626613
-0.3099900211337487
0.00232450006762403
-0.1483276320749857
0.293048663464689
2.099406540550564
-0.328216983622295
1.3053091723757395
0.3289940264201255
0.17980058968122084
1.1214431072463407
0.07211809013393843
0.5874219674469038
-1.9645595889144176
-0.9038478824131189
2.2295679448152765
0.2830313360019458
-0.8921673192628258
-1.882437643295848
-0.9389258059721562
-0.595883570634208
1.9814001235050775
0.16835878193439735
3.3484230424078647
0.6558704291127909
0.334884810046325
-0.5289189966630192
0.7445372443681508
-1.4036477425933724
-0.11176950474096527
-0.07324855170640455
0.06631120716738645
-0.0559311681201621
0.32838395674161003
0.09540466838528334
0.057511589271238096
0.15245229611837266
0.21518166151786566
-0.11814383361052513
0.35393601889593934
0.3962160995460703
0.724658664129152
0.3380627574234513
0.47804467445060683
0.5407275107280655
0.18081006674847444
0.04351713714185584
1.4442872961217483
0.8403740062325391
1.4942217712410664
-0.09231668285621455
0.7402071775392448
0.10770549434281736
1.0140174132716295
0.5318325891399732
0.3226235788563812
0.32426945688813497
-0.20796702562079572
-0.14907611669290421
-0.3000363392223849
0.2392242590305373
-0.007565214272486499
-0.07869425939462074
-0.45828542005251865
0.8547684485455361
0.02402681633425894
-0.7821104383593201
0.4214564580065833
-0.9584162135041209
-0.042862033094605866
-0.35033531054215095
-0.10502828776896908
-0.22277888126600448
-0.051698850862478836
0.17754456038793534
-0.2010944135291023
0.20404609832404944
-0.2877370260502179
-0.13095011482194835
-0.6466863555603776
-0.2901395439694234
-0.2513831136886183
-1.313826317189157
-0.4109078988634946
-0.33523878457848927
0.040044396316325226
-0.07872183747232453
-0.1432159064067911
0.03316370223842922
-0.5989235388519055
0.45916480075877014
-0.05331220998782551
0.9050594551935844
-0.4704317515841278
0.3191178880336127
-0.05371584423490387
0.00483453168234881
-0.3838226169075869
0.8188043567089575
-0.2870098794536278
-2.199855171834081
1.5706239854918411
-1.372745735044116
0.2794705514676377
0.7875875567947018
-0.6403607045359376
0.7244395116593624
0.13323649565350656
0.6661547708785758
1.0785895280684141
0.40747335279727864
2.067291820154035
0.3724389029133446
1.0701568434256843
-0.19489919642495354
-0.12058985212266526
0.9552507133995166
-2.372095451542632
1.3470062232863993
2.5788912639112884
0.43258579012715304
3.937843380731913
-0.1119307060815868
3.6172860916871183
-1.367890712081999
3.6375734374893547
1.5145034783055427
1.3536397898153392
-0.4937823546191838
0.7162434917456645
-0.28320995550321115
1.5884028783634647
0.1960564899099622
0.9222285638809973
1.147582499847393
0.0771469704269486
0.03688875748752633
0.7142422517965634
-1.3030102587850476
-0.24734756037341413
-0.7093208772152378
-0.13359124243528364
-0.2949273448468798
-0.028477297069971073
0.5796589902953899
-0.718371073056518
0.21540881083625069
-0.3713568480803657
0.22146664847661426
0.09468420083407283
-0.47093693933449243
-0.0822089577891006
-0.18700956423995968
0.8819583845867114
0.7723490313233808
-0.24499412528631118
0.4919528696159914
0.4085457523280541
1.2392564264583354
-0.14813250026011854
0.12128099416423686
-0.3991029544763379
1.0942094543831251
-1.885918757620023
-0.3201428383899026
-0.32648179129719984
0.08782916339879404
-0.06611798612074712
0.9154632645113573
1.163957833352253
-0.27625932389550156
-0.40595047714389837
0.4016409228160141
-1.426383597424499
-0.6575565831188676
-0.5747183743647925
0.16833089728838546
-0.28601388689634294
-0.17017831345191034
-0.13507166197794718
-1.678292674978313
0.06277707486393763
-0.8966366218376695
-0.6615834540392409
-0.09943150817950344
-0.769030021631595
-0.06633019932648579
-0.24409033869225324
1.2596110193489043
0.7240296523243657
-1.3323331681435395
-0.1319938848328614
0.5962225894093413
1.341087831052985
0.9711363513548288
0.22610731104067802
-1.2105113261485003
0.14666544150484292
-2.6754815783249435
-0.2265181010520431
-0.6340794115835111
0.25045484941667195
-0.6529289497324362
0.7104412968785966
-0.7202275910981512
0.15974748858028734
0.8118330563488544
-0.24288242237668048
0.8142249282083156
0.08600950562778736
0.5629142145268362
0.4882445147831512
0.28049275127881573
0.03652724051243399
-0.1769106087382823
0.4962726113481053
0.1329499437771837
0.4443612704324113
0.6189551138779873
0.34176144075190346
0.44121200997064247
0.12316814561247329
1.631795496710359
0.092786554691033
0.38432140545732485
0.2305295227611619
-0.1455708365297405
0.024886701918524923
-0.01809215651355428
1.0764162834119333
-0.30160281834404107
-0.02227826220315978
-0.7234794005766101
0.2293517371013222
-0.22387210087807824
0.3921142626035883
0.03520988115497928
0.6158141088458099
-0.4813340700518078
0.8951730082940836
0.16719496954666876
-0.5258761099217922
0.510356213935024
-1.0505822968861587
-0.021261096637406
-0.41541348515286225
-0.1601906419809135
-0.13651643903907873
0.02141079153688269
0.3152331790921439
-0.21328472298316536
0.2145239140320499
-0.36366157263344917
-0.14639099487343663
-0.5991493543841884
-0.3549447630346169
-0.2471660939724883
-1.344171112693832
-0.2512291509010397
-0.18307331577902605
0.06402804174761423
0.2004992653322903
-0.1811016088370371
0.086108753367392
-0.9015614837628068
0.14153255992998484
-0.04225391339759439
1.1095902283163985
-0.43185719117680665
0.26003734331395967
-0.16081299043640782
-0.05062835923403946
-0.30262766474231295
0.7125131517986689
0.25737642591859433
0.8397119753647715
-0.03307170648221509
0.5734188919347777
-0.3809608420065301
-0.5908552838077482
0.5553412008603261
-0.3521048627576001
0.009218679871547338
-0.7521633978174442
-0.6188290190893585
-0.115751372412587
-1.4127047512280562
-0.2313869681753597
-0.7556505572760118
-0.3489470990768914
0.29484068269413555
-0.45237129104905793
0.5963555260296355
-1.4914648195105489
-3.0251710306418316
-0.3795503105758125
-4.267277355869999
-0.11554711143407648
-3.449094357619166
0.6584497308785421
-2.1941832174205778
-1.163050782940017
0.08717770803453877
-0.14941560795688105
0.060953959614434845
0.17949168215537079
-0.7762866493520454
-0.08465450372342796
-0.22789705212088746
-0.4190768879494887
0.35875824926859473
0.0008077324974629146
-0.1819870850787805
0.7999884148286903
0.15133917911610198
0.47396385638742866
0.4560515282709456
0.31137904961742396
0.04347631054042197
0.2617585388463815
0.6106534891756782
0.248782605932378
1.2399963251510215
0.5078747112347378
0.40014516645237164
0.6122302025834466
-0.04694614863215809
0.926496661157942
-0.34683646526085765
0.46534671032887276
0.7559040813464124
0.31562145457654556
-0.10194982756146287
-0.3358138497668534
0.8446486351098754
-0.9416030648892401
-0.8374216206812601
-0.4945157794164322
0.2647040425566482
-0.12187247724309858
-0.17509543351671614
-0.4644998371257302
-0.4060981175133971
-0.5671199052501389
1.0492223575517396
-0.19271558212968423
-0.360220017401899
0.4189656454873501
-1.3962523568427136
-0.4124634843844129
-0.6095532027822553
0.011048665737440296
-0.3050458933155997
0.10706930984505979
-0.14385434238238082
-1.5062206694695484
-0.17495577462899026
-0.9040428894134641
-0.0946898545910224
0.3459992240138403
-0.4191748050619114
0.6570106631914595
-0.4662670882221845
1.4898631437048366
0.6126315356278994
-0.863630957829994
0.3868784410193325
0.4428890238037982
1.4378859024286241
0.5823977804735329
0.5989212007281974
-0.7750511408714277
0.5876307259876489
-2.5362064071761634
-0.4443707100687382
-0.29473533431008914
0.2486541597852221
-0.6130485168016637
1.2552459137563923
-0.864193869924553
0.09931100379454906
0.39465183340943927
-0.5707473152290888
1.197276012594376
0.9428183551142453
0.39788666961330793
-0.40670149965989033
-0.07797071660707454
0.26224314118866016
0.4441056844480555
2.0632753142474134
-0.8132243352031915
1.4040862167479744
0.686901483392345
1.0277719158353156
1.6632381480215312
0.8896298097973889
0.07544064768488817
-1.3207479894010308
-1.0995545384770797
2.687903510692899
0.9902143025895457
-1.0728983643207268
-1.7812732892630712
-1.3376115683957432
-0.6023405276580259
2.027285874056513
0.6716077066984832
3.1506124210454765
0.41037791686384584
0.6335294248588715
-0.7584975035778841
1.1900402278720787
-0.6750825017900999
-0.4067558317276828
0.48593084561582517
0.18601982230553474
-0.14760942224012094
0.6593306203141708
-0.015606116520318812
0.3716078200224641
0.5197423507808294
0.3883857188048753
0.009734817250365367
0.18694761706485938
0.5374257537458553
0.3771124637319696
0.9258570811921334
0.6558855059421852
0.39397913611915086
0.5294044779087433
0.12214597855943
1.3343336302791127
-0.0044471035686385165
0.9171979917947515
0.22537690325001483
0.5411986487395615
0.16592861655433094
0.1966160901019633
1.0055005211696
-0.5213790231865523
-0.5421603681866553
-0.7399040919528185
0.18990078137138808
-0.16678945525207953
0.4174848299687479
-0.08088862592714989
-0.3298566099654205
-0.5302510613545345
0.6660638480635661
0.14240835120382128
-0.6564081607712401
0.4292441815213286
-0.9325878730346109
0.051131150488423066
-0.1529451406293303
-0.03728782400614918
-0.09356831282283797
0.0770315518730616
0.08464901127349189
-0.1274402643103092
0.030306026124766596
-0.027723618889842695
-0.0689042316574848
-0.5657921345257775
-0.22487664262593376
0.1789286911640037
-1.3968147105113373
-0.46005190915516825
-0.47170478362403656
0.13771974076941335
-0.16801892362635004
-0.09896855811236681
-0.15703009943120647
-0.8029093472526951
0.2862470726386015
0.1532307832723842
0.5644164828658442
-0.46728201570006705
0.3655881549210619
-0.14362372223923647
-0.028208072054808835
-0.29510656406906477
0.7562563489460553
-0.3712211614925837
-2.105460441270942
1.3028121147959524
-1.285477627710522
0.44972725167680466
0.868608712368177
-0.6777661156330468
0.898187892870728
0.231705139047469
0.8346531170743905
0.9341495407506697
0.36088339840638534
2.0056014220284744
0.6076343663166018
1.1938874752651814
-0.12243963856868086
-0.05330057875478301
0.9946050173278052
-2.3982195195459766
1.217173924798572
2.3314948969272087
0.5493830414051684
3.6300472429844395
-0.10509793285078323
3.2947483725703544
-1.3789334020096655
3.798115154922994
1.4868220644827623
1.6055537991939215
-0.6486087352416662
0.928615983652887
-0.47069173194348657
1.4988503944698985
0.3446151345078479
1.0869229778784926
-1.2133257886966007
0.08593845998473276
0.0657704213561503
-0.5467920660194453
1.3007643190761533
0.7757455593416854
0.6535074397938535
-0.13094645756209636
0.18444989864165348
0.02341521145470031
-0.027959532120387647
1.6101360614580331
-0.25478988291734195
1.1391313151098812
0.3548182006958512
0.12517927346775803
0.8537120361542995
0.040773222390812144
0.45546232455456953
-1.4240678239728077
-0.730455850922299
1.533337003331343
-0.017004783847538958
-0.8921964125500186
-1.5566925040921678
-0.9510744796794607
-0.46918825330567354
1.273617192010195
-0.1629044208301179
3.005232533110974
0.5097253960756316
0.3603617423202543
-0.5997573187302672
0.41795975309463135
-1.222460411355287
1.0618857786373697
-0.5454345868490734
-1.2687145611718353
-0.05547186282519773
-1.4778215390051728
-0.39831781416078355
-0.33966436019291324
0.39450281520635605
-0.5501374838469736
0.08986543348422561
-0.605315604741695
-2.4619537469293484
-0.7041470506010385
-0.8825563350844773
-1.21372843572665
0.8230392690531919
0.04292922880565091
0.9264445140670199
0.21063570049324395
2.2294706184592954
0.7518459211604842
-1.5538037563997213
0.6194580788979663
0.3072472230325357
1.4237911106328276
1.188309050914735
0.30068383809485943
-0.8307949433408403
-0.04360074180027035
-3.229642799804589
-0.11354051070690184
-0.3569774367367798
0.1953135161567156
-1.2632912073595448
1.3753279720949865
-0.5088381670649599
-2.149729087403524
2.1128674177115094
-1.4883916176260987
0.5759567146020811
