nep4   2 O Hf
cutoff 6.0 6.0 100 100
n_max  4 4
basis_size 12 12
l_max  4 2 1
ANN    100 0
0.17307595627468855
0.13270363128818002
0.32872654146358504
-0.021257341328123555
-0.061794664961939805
0.17635256407824637
0.4119149437359955
0.27385081169981895
0.03973136132672497
-0.02189103724006798
0.0025396701411837456
-0.24988271127834574
-0.11701992127876178
-0.18871060794679373
-0.7063706791648975
-0.8020467658549154
-0.6221027893719595
-1.3809281919918066
-0.015964492776616962
-0.46472246809775575
-0.025271367018958928
-0.20126572319981598
-0.907011588196046
-0.2143887081104792
-0.5706041351431183
-0.17903878613470248
-0.19468475345844416
0.22671609512292396
-0.05383736505018133
-0.3951028137030761
0.2468750453247217
-0.16463889259345135
0.03727502539938283
0.03776992579142486
0.15391133831386752
1.1882188116220542
0.4413982937922919
0.28911404564824617
-0.08426159500121089
1.041592851238523
0.2484438877823718
-1.7283201133333725
-1.5494826237484602
-0.05835441784139697
-0.1036149348761625
0.5062044163764934
-0.37652848153773594
-0.5750004416463138
0.15572785404249423
-0.4705793417444993
0.24764947971535736
-1.9357919307453966
-0.3449382981464245
-1.586736194199165
-0.4145460210462847
1.1848936534667533
-0.7429192254257473
0.33121884946645497
0.2474457868689457
0.8544438214801968
-0.47090665841727536
0.5745341033768433
-0.6132089676855988
-0.6279138829904195
-1.0693299219615244
0.9973310294686788
0.637745292585055
0.18379401447406465
0.8360595842454989
0.3334987531145018
0.13251747037149075
-0.7352425093296513
-0.8933649824564042
-0.2635257153046766
0.08069814812059446
0.9956302834934583
2.445222505062788
0.8636264395699232
0.3969085332044747
-0.5048928095834156
-0.376548529708447
1.732504206468384
1.503844467730307
-0.09272164655907296
-1.850276746257618
-1.6896883741555848
2.507787857312054
1.7710598351069198
1.5933616668863895
-0.4018560924773242
-0.23329219842319293
4.479014448252249
2.394357379007451
2.203285628273859
-0.24514317408085498
0.14542850620603626
0.5498232871012402
1.1876085034519213
1.6296466664228306
-3.135054371125267
1.8664259008859052
0.45045375851729036
0.6439677956104283
0.46056411848594736
0.8403906295457443
0.6461907254383897
0.5231415735782532
0.5555304995998829
-0.62509679931204
0.3525989718684495
-0.2912918069905202
-0.002872587212376454
0.20293290575492598
-0.0005287842113049407
-0.3860294217429589
0.22136832801598866
0.030078078074980027
-0.10208914768240769
0.4737689033803945
-0.17400236510380995
-0.511712785027177
-0.7418395659515948
0.4571809893142216
-0.7294319400766986
0.2674192988478244
-0.5356170432274544
-0.40488105812799957
-0.38527755419867526
0.014261139358127308
-0.12871549217347394
-0.7616919625374661
0.8693273766939493
0.2744955707683096
0.8102919711142266
0.3307213506811527
0.5962613928360019
0.7097599311416745
1.431139780658687
0.4863377900680989
0.6516466896388623
1.1613109014813845
0.35949030061225024
0.6210960093237337
0.02007226784102114
-0.699078278253624
0.482179396355086
0.7360502323446567
0.43564339715948786
-0.3914228529985275
0.31730319395477785
-1.00217279037993
1.0538081164653907
0.16559459214913927
-0.24287616755269095
-1.9137842263895106
-1.0546101295239663
-0.9837895274355934
-2.043185404078238
-0.8277953960350557
-3.2364747858933276
-0.7262581220125506
-1.333390668476721
-1.5254322019120496
-1.61577160511931
-2.3106481552576414
1.4041838282629189
-0.40591482031645326
-0.9493282814282319
-0.9450648500623693
-3.3435814154623102
0.8417512018924171
-1.901880084961863
-0.8112275936612467
-0.3153335461229071
-1.2684973373490447
0.9645552344514438
0.5807734130144568
0.37541754872117566
0.44739091591847124
0.3002607894839264
-0.05908166670357013
0.19494263322483668
0.28404115521355094
-0.09895620938517762
-0.05064990766342505
-0.2318194062333929
-0.026964953122593678
-0.4115623942006624
-0.1168677348608311
-0.5180074425058558
-0.26506481580465635
-1.152348427131386
0.0532423687954047
-0.9277638181571233
-0.4191169255921031
-0.7780536997066341
-0.6430323691399132
-0.3705864353038479
-0.7639970982945623
-0.16809023925347988
0.40544622614061404
-0.010632827156667418
-0.22342685757844893
1.092880066508969
-0.7332061810092417
0.4436846949560992
-0.12991791199757208
0.3486224715763499
-0.02262690132298847
-0.44195450010898635
-1.0071712192183389
-0.5913136917042486
-0.7236684710138632
-0.23130894889834033
-0.5655133202017422
-0.014418626486800217
0.33692408739716073
0.5570362510023246
0.06198069867609149
0.1502261247283776
-0.08720459665012803
0.4251653840082322
0.08355915103209165
-0.16749261811132826
0.31565559852448655
0.8463948762799179
0.8051992522626051
0.3441514726564862
0.6003976360818177
0.3526262387136145
-0.1991439261056096
-0.6848956018450824
-0.2746666222713376
-0.3800026693917189
-0.12281794087920178
1.5383237349924987
-0.5455786321417223
-0.6149217889983448
-0.7239710488243514
0.01293783584547312
-0.7566719918839737
-0.9687677316251775
-0.8458255198910568
-0.5149914369477618
-1.1719471758440623
-0.7810062193129399
-0.48722844767169743
-0.7591367985085096
0.469349477054889
-0.9659616986978645
0.5963454605032069
1.6332609650547683
0.4759544638252499
0.2766278568772763
0.6807223229844421
-0.4781044205736681
1.0407773859297027
0.2987655662677974
0.16744927098492773
-0.17589329468008347
0.8492218744300074
1.6343227663578472
-1.031912603922776
1.7795065942123969
1.1295453069783923
0.1591425341007151
1.6487536901808704
-0.23998934237658098
0.8251920584097062
-0.6038881640313977
0.5674616394660377
-0.02999379666772536
0.2640538254716813
0.4341818554024435
-1.4505321292961535
-0.06032241689800628
-0.902369882742382
-0.8301719543182646
-0.5918450159338199
0.05846665675427895
-0.0916037756554939
-0.18862305111490515
-0.04526153681224126
0.5379890687153216
0.002084618370919764
-0.1676783732096085
-0.20797472154639385
-0.22557797921115502
-0.15961198174272462
-0.004127769713181652
-0.04670797229072213
0.3761931754608499
0.17330316219788922
-0.030141318841462525
0.39508123394316597
0.6993795879430748
0.21737650372182027
0.963715023048921
0.0304801117320527
0.19501512828336406
0.4550302814054244
0.0996418005671648
0.6134166276495614
0.10367638452150824
0.6299433652297296
0.6718870458144514
-0.22510765039383487
-0.2863610767940443
0.20145585071966116
0.11374628315379945
-0.02023433166572439
0.12232659330199813
0.18940128170103185
0.15160235241953335
-0.4542309321526745
1.4731660142397778
1.1425893952649528
0.6144816764696047
-0.15302520800799777
-0.015128053828690247
0.009979172789023823
-0.7909894743456612
-0.24530560716169544
-0.22848942025235217
-0.3365630176824364
0.7145302249918674
0.03658588231088991
0.5476040897054084
0.08240924421660446
0.41742322810805893
0.019362646760414534
-0.7547250773250314
0.8408828530105148
-0.1818601031583997
0.1636300915102906
0.060918032231297416
-0.15980231826675587
0.8423814962886863
0.0237418598884543
0.6619471582406773
-0.9395776958130035
0.46076797146272097
1.2368471312966955
0.20859038621359846
1.3962515496949637
1.0120581084071534
1.2875125299013506
1.6181765773835846
0.7579821069997491
1.2401464298679166
0.8729839168322755
0.2710913442610035
0.22665462523622182
0.029843847134177582
-0.061269841054563005
0.5376627513988856
-0.2838624034674862
-0.24922190061650115
0.39484762628921877
0.15795766509348003
0.5242249416806141
0.5251041972161886
0.4993571635237849
0.8244501530367301
0.8029058954063772
-0.043726247583830785
0.1358300360821729
1.9840250665762078
0.726608123170482
0.5702920102662526
-0.20346366101998725
0.141295413116585
2.5058268636609986
0.46055688287721136
0.712436341774928
0.3433363564938061
0.1224355068485697
-0.3031675168492948
0.3902150992904438
-0.4694966094767146
0.1068345879886489
-0.1327039898111397
0.2855603052409219
-0.07555277349750032
0.2760906758722029
-0.8471262128689093
-0.4251970020790517
-0.37750345845971245
-0.3755758426849925
-0.264752596084675
-0.03154137803679886
0.10721765528395245
-0.08111300918392213
0.08300225541961069
0.12245087823334938
-0.09813202566305985
0.2570709768500086
0.37977241298336034
-0.05103399834582161
0.28734919687245886
0.4692244984708292
1.2014110633597865
-0.23015540913564692
0.7992796329324181
-0.1389104293647561
0.28747961256684207
0.26373060794430203
0.42574233040988485
0.3434635044736175
-0.07199255720718863
0.5173083244695315
-0.2443318525212003
0.14088347086541622
-0.32335694635325624
0.5467142041441079
-0.5175523367552658
-0.29311536809139493
-0.34757463126315985
-0.23555552508543035
-0.18027484901620666
-1.639033676203434
-0.7599356193572196
-0.5670303113188885
0.3667259697047997
-0.0023681239028092408
0.03770533205905086
1.1061597150335245
0.5882555734988446
0.30791269375652663
0.7102646274824753
-0.46755912492594043
0.2958561440851881
-0.11624727163176884
-0.2198953831077897
-0.0939404222853553
-0.1042528582710486
0.646886545299908
-1.0358263255397533
0.2671690845116748
0.08502182907892587
0.3524200481977261
0.5978430093514379
-1.2625450235936135
0.21993082319978693
-0.6546564502204524
0.7280328398364361
-0.01815804211506816
0.2804459824227176
-0.5462535997478551
-0.14103875446518252
-0.4561259806433741
-0.5640803745062047
-0.649147761829282
-0.13999843547887184
-0.10335923767975824
-0.8760371547536113
-0.24238152410475422
-0.47820013914977494
0.13107154358340573
-1.1749663015117922
0.25766247029817996
0.21151186054976112
0.12545776275842607
0.27164878601161185
0.3350152672585933
-0.33589352284767915
0.4656259808768288
0.32953167867848465
-0.209830894716115
0.19153430700677937
0.9020087705686746
1.106586907514099
-0.6723139474650368
1.1173108576803163
0.25168702504671814
0.22414601764129288
0.5567176329447996
-0.3784675214305589
0.1465747726482609
-0.45692146368451186
0.8874697189139052
-0.5810670498461981
-0.3131939514654879
-0.6131296099406081
-0.6716807759106497
-0.3064305029448189
-0.7489488389396028
-0.8730195390714435
-0.46356927326890585
-0.2880004592309096
-0.6074520683647235
-0.6314034653811984
-0.6861420011195607
0.6210026747382096
-0.5459281212444946
0.20908638957647804
0.0744098528093736
-0.26382429741346225
0.07053506873708866
0.4963489006805723
-0.09657509904292726
0.05144325434958022
-0.1533770099687925
-0.5812840619840856
0.03176964349649455
0.863922520540789
0.6846792552643458
-0.2240876805143302
0.7608468758189763
-0.08748378357138084
0.6978240988392257
0.1407133674816571
0.13211054479181392
0.052458384905150014
0.13125941337354832
1.2090336208393584
-0.7926096266738251
-0.848706349522563
-0.7366342756256833
-0.7208809641544515
-0.6786219708736022
-0.909660811684008
-1.6615948958527036
-0.5360715156865619
-0.7209684296883109
-1.460533009502699
-0.7465870264070625
-0.668712613922196
0.05905855575584951
-0.48164785966276014
-0.15413766139230944
1.0798318366418191
0.9428451285984583
0.3712666719924054
0.32889212809540264
-0.46661454126723306
0.134203064318021
0.09828467641257196
0.0478232731819501
0.1430280687242657
-0.4696023206631841
1.0661914706985933
-0.57877698470577
0.7577464591970646
0.21573532291385603
-0.2787428486125369
0.3036326796751603
-0.5383776967587482
-0.06724115155779575
-0.8565645883146299
0.5843975577327734
-0.23647631380556197
-0.18735392233388315
0.47758318389669746
-0.17902095909991647
-1.1552504485479909
-1.000248712838602
-0.9270193295304818
-0.7189419590480589
-0.9016355657509831
-0.4993420917539557
-0.5692705469099494
-0.6341042093149953
0.4185327092277337
-0.24889794360379291
0.2681941379001326
-0.020039413405114635
-0.2273050840963493
0.0010973750482769266
0.43507397134159015
-0.1169742809904521
-0.01488884218434861
0.07748007960671975
-0.5413256909004325
0.1950881727507902
0.6403468478532898
0.4138468215840504
0.12136181651196636
0.7796550980705307
-0.09806436733636842
0.5439501018036461
0.16861639724751756
0.2892834180920825
0.07429727813532327
0.23272400345283323
1.2420375650453572
-0.8077121334756734
-0.6947882888469944
-0.5343769854632038
-0.5146482368141397
-0.8454717685471437
-0.5679204237240159
-1.529953284223102
-0.4477564116170619
-0.5914294241835465
-0.21823613903288885
-0.2533887776284907
-0.3817147460626738
0.16661613848979595
-0.5578163430713404
0.007480632524163112
0.06605711768867484
-0.24095087011168445
0.03470790592212013
0.3255962653852005
-0.04916039817379879
0.2847638056029733
0.28704101704237306
-0.23730338574470725
0.2956866099789741
0.6262960298585307
0.5059505812529053
0.42759679397020856
0.3693669554140865
0.2803345050164635
0.5093516162976836
0.0036025844075848194
0.3483312755969079
0.1270773191212504
0.5577035424360617
0.7067502222511741
-0.26261317411486607
-0.4922544757462927
-0.7842135701003089
0.24866706001984018
-0.13480790076966206
-0.38285879746305557
-1.1465014078095084
-0.087475341245414
-0.8102220657192222
1.3899339861577131
0.934459317033939
1.5114355655809257
0.2556437003677494
-0.1288824056158537
0.463319487782254
0.6244010170016343
0.5314859327444713
-0.10930304881106191
0.15318110533881002
-0.6269201899170286
0.3378181571677888
-0.2435775692545874
-0.1570187296209262
-1.4961124396435812
-0.917057401691072
-0.9198459612589811
-1.3679768003596522
-0.5549540112879882
-1.6000304464788477
-0.7937788308099879
-1.46297081788774
-1.351737045998558
-1.124500484152844
-2.1646895094319083
1.0968967178515605
-0.32041679197397155
-0.6463468986070409
0.0582939613082285
-2.0503181818006673
0.6199002079541042
-1.188640313411815
-0.33759482504293464
0.0005531283983973728
-0.9667088930447778
-0.36682535979465664
-0.5473032639988155
-0.9119036002163532
0.27933991097523836
-0.48969922171043007
1.0799283881150756
2.113967500597211
0.3118020850543907
0.44785213145247343
0.6503612824744341
-0.4922313653769366
1.6390842107143864
0.798995546906266
0.08661649033023255
-1.1703388219676172
0.31528906709079707
2.197972543309277
-0.7343524977108616
1.8703156388647137
0.661855924779372
0.45592196535943336
3.696364307811115
0.8683483389751747
2.181400878005472
-0.37174341133075145
0.5474875472110436
0.043012738612039254
0.7476639261435698
0.9302182094879805
-2.8714105311360187
1.2884500726022114
-0.16728396171674687
-0.49690515832785
0.2700635987820022
0.6007676997390277
0.9765082124179618
0.6529443701266967
0.8186497318781903
-0.21402539734180795
0.2790649196396245
-0.14206323221527942
-0.8287808519355911
-0.20668612857484175
-0.36035481886246207
-0.4865130975296693
0.4923527884887707
-0.4467680707646487
0.11749542171325054
-0.0020654578157913153
0.213603510139194
-0.5569451630746782
-1.3098531882557987
0.7952730273107254
-0.8680125304426591
-0.20767426982141934
0.04834852479071044
-0.8938701307387914
0.6824256712515542
-0.14852158831223083
0.540660233742341
-0.24750377586473893
0.44002852331761877
0.8688307462646071
-0.01997475308464758
1.5488064648447333
0.661909794506321
0.9519529844754115
1.5327979414016484
0.46730139389827746
1.1068887867282518
1.5501927407225045
1.127263931596434
0.862392111765679
0.08269705609462454
0.6866530429005365
0.4213300552630303
-0.4734078216568795
-0.6736926453837372
-0.11166149278210433
0.15838615468937292
0.8014857996631451
0.13157563900416955
0.6422448458884624
-0.09099838827094414
0.49634143863002234
0.41396733234878325
-0.9206709690890001
0.8205025367894342
-0.3373440993121062
0.16368731911523712
0.644230428796267
0.332426920636355
1.3307243916877014
0.5029999650850399
1.3230853844966153
-0.9069750016934565
0.37525933037037607
1.5356510813816637
-0.0564522765176325
1.6776953673324924
1.5032883388707523
2.3481944385176896
1.531977189688084
1.5825785109826966
1.824588295288221
0.8403717606261485
0.28523449679077506
-0.0002648187078623757
-0.009561897605708608
-0.30078090737767194
0.23382564869139144
-0.30180038107339124
-0.140906834137876
0.14649592015932208
0.15831233328440522
0.4009803252246438
0.6110259178482002
0.4064367661798708
0.7190601452673491
0.7572459077336714
0.05553236970406138
0.14617483569292092
1.7428933138449982
0.46075147952959855
0.4773520787416378
-0.2744463788395831
0.25784805232853353
2.321189669704372
0.5896734866717653
0.7425301214227499
0.32787774454672364
0.03740515904307954
-0.3748086280462032
0.22048603372814948
-0.48459251344209164
-0.017046400363621185
-0.17458335938495714
0.22838732229178355
-0.2960533319048074
0.2169472744465875
0.6513760757850307
0.6604543818267585
0.6571162467190551
-0.1530482486386263
0.8570232661694507
-0.264370088810952
-1.5962750980693934
-0.8888015849736782
-0.18173763824397718
-0.01922110495044983
0.4000972457519529
-0.7332207430149416
-0.5196316703843249
-0.06793863603839012
-0.029959698858153326
0.22622206008680287
-1.796192734162857
0.0948710089675534
-1.5358087616945908
-0.6785391552787366
0.41146841697545894
-1.3583702352894198
0.20424744911001486
-0.28410371649248484
0.7976781297574036
0.010585294211138498
0.0392816597896879
-0.25895366512218015
-0.7106755436643278
1.034814049623664
0.3377220261324125
0.7493600975470628
0.51055774228073
0.4950190014976388
0.24219228776481452
0.7921602881063807
0.6806166199829824
0.8346523284092464
0.3794429533235405
0.12478144408443274
-0.06426934437935838
-0.02691984516156098
0.2986953237175167
0.09310212729992777
-0.13564355712229
-0.34429677050550206
-0.021832284111245666
-0.19407479410563686
-0.10707268452240103
-0.6594960145386441
-0.6740283500384598
-0.9609955104362983
-0.8733869807671769
-0.5293425301713064
-0.6493187598896996
-0.5704460644252727
-0.4190869701359761
-0.6390539367679429
-0.5560751309270489
-0.7876886350396957
0.18122654932877288
-0.17553497693288345
-0.08116466156670049
0.8578177845126462
-1.029251168716799
0.5848622604058075
-0.5721174231092826
0.9086450681062381
-0.0207902382445506
8.017018465310899e-05
-1.4862185102204437
-0.6035336066226655
-0.48620676553864184
0.38009017562233355
-0.6709276995392905
0.20268313228836096
1.2760724851678085
0.6065619388920385
0.26564281000527207
0.7483933066321296
-0.43187044275631187
0.5037873729766934
0.09181096863338017
-0.1910101779621117
0.1683464649792469
0.19199218975735471
0.7867711564317487
-0.8179262674723063
0.9492514227267098
0.6091903651172353
0.39692654346828754
0.8165039726446929
-0.594117347239916
0.4865760562215407
-0.7091642071826545
0.45566606491319345
-0.035956986708028923
0.43288609882958196
0.06299051498631844
-0.31328419771111304
-0.5454895047942961
-0.5465688801530253
-0.7056138073161925
-0.48850523667728785
0.23166060897793575
0.13289143998221012
0.023107955305327627
0.2474111604286596
-0.8154176868586133
0.26139330319509385
-0.3559399510930633
0.21513018069513792
0.2730411067333089
0.14652289389604956
-0.0862933101967403
0.17433516993236822
-0.1579409638209587
-0.2858974317671121
0.31937069025182496
-0.44321902090569554
-0.5020037818317737
-0.024484371293405232
-0.44082738800140214
-0.41416800354897965
0.08845906733261111
-0.742985785686333
-0.3198379022552108
-0.04284224326338987
-0.167790884560438
-0.30949415569492367
-1.123152920664096
0.6468234318153704
0.1992502188891319
0.8292287527845816
-0.8010600874009381
0.37855024065710163
-0.12365811256742912
0.8142574208546448
0.008498773380319038
0.48712636548385824
0.9884433358259764
0.32553194694657994
0.4646222392438694
-0.004719186769507459
-0.5952297164791981
0.4750674305496254
0.4400605183661652
0.15458535943508436
-0.3991493759922739
0.3341799602852375
-0.8665876130197216
1.3068688053495108
0.20663781964675182
-0.23619004263433044
-1.8953979451000567
-1.2060476517684027
-1.1102979156440782
-1.454749328146086
-0.8363967099644897
-3.025753606231783
-0.9352273775650556
-1.3201973141559973
-1.5109901173365639
-1.5859689382282733
-2.144931630699727
1.5320505484191835
-0.9021356474885928
-1.175353871092769
-1.1708571301659496
-3.4017251002395827
0.8005749519551346
-1.873704021292608
-0.9502843522666065
-0.3464852329209417
-1.1617512488076018
-1.201187872177963
-1.1084507905652583
-1.0475550377059522
-0.2694447429053387
-0.7782060462986979
-0.09623066131596374
-0.4181694333131537
0.21740544272882792
-0.46178187679324845
-0.2487882284900302
-0.2273321976294275
0.07799234198631852
-0.8178579374001533
0.0357865826069748
-0.440734739131399
1.0171329663894995
0.5858678266824114
0.0983855076270775
0.18746275702622503
0.48579386037828837
0.06072657330663813
-0.5241531140133685
-1.4540712265032174
-0.5979359789407321
-0.6928158415452705
1.981368845627325
-0.5358826242992676
-1.6783928817108171
-0.8261955826934525
-1.788102919447563
-0.7705862631653755
-2.3453392837133764
-1.1190793500474718
-1.2542447439655287
-1.7595329991198536
1.1870600680293555
0.5433023249437702
0.9022547973655832
0.140385462757644
-0.5841483147819176
0.29240880095537647
0.6721558824359568
0.3479998333985431
-0.15703129089758486
0.28451825893499444
-0.7565839636175458
0.5063227462533284
0.05509716363982898
-0.40368662825646445
-1.7240776201128973
-0.7850828656164017
-0.9631708173119768
-1.7345059652834482
-0.7517881515658139
-2.7503647326395764
-0.7900358841162249
-1.4983465778099136
-1.0231538132748703
-1.398336952245225
-2.1496151254650417
0.8775379098388538
-0.09045028704210818
-0.6554654382335852
-0.34551721847011907
-2.5062449222623377
0.7036309743493754
-1.3241740861236597
-0.7630004898581249
-0.17405880922302716
-1.015907876620063
-0.9615084086936364
-0.6570302663377642
-0.592159358954241
-0.2835579649360695
-0.4585491005622235
-0.06697337929337559
0.2783424676561141
0.36954904351976786
0.27597058526002016
0.13654993141088906
-0.2102838831458359
0.3488971861276922
0.026793899371588773
-0.20264503505063977
0.13566392513919362
0.839116257680781
1.0690849311601736
0.10022871303313366
0.8574843832357293
-0.13236780043397217
-0.1237535917259881
-0.24019964560765383
0.008665487298131038
-0.29130069300591216
-0.21767277081850242
1.2871611678472348
-0.6948619059112394
-0.47324642295477637
-0.2332455920463958
-0.5471070488441687
-1.031851302303418
-1.0292293355978848
-1.2656775367819384
-0.6242458030814224
-1.2103693532031774
1.1196212488380004
0.5034667181990388
0.6923112458712571
-0.21070132097548672
0.7664554871907446
-0.2134113796770616
-1.2563661881897012
-0.7254386073245973
-0.30465705294614004
-0.3917051259653848
0.37359676544892106
-0.6019203644771961
-0.2179512651536368
-0.02039877448860749
-0.15298350779123482
-0.15528436351768166
-1.352595210897753
0.4075764382349951
-1.4581099598448375
-0.6077147502789595
0.04573597023803054
-0.7979630869396759
0.4664403837230727
-0.32979014560111436
0.6382125004972159
-0.26079322348695405
0.07517885716037692
-0.061156054212371525
-0.5857532797136704
0.9488645990383269
0.5310244114682567
1.176021444451195
0.9605364991193167
0.6857775540361609
0.7036887225654954
1.2959565579795986
0.5603046752843489
0.6340033890097189
-0.20891689091789598
0.6822507891052153
-0.3157413357366687
-1.6998598517809007
-1.0525495853083533
-0.345341647051352
-0.5510427370321413
0.3587426741218832
-0.5990119696422483
-0.5574977571845618
-0.08014448185443566
-0.2790023002166077
0.06561163799487213
-1.4182999244620673
0.41666110852833427
-1.4769726294683896
-0.7266460236594102
0.1444984029958762
-1.213912996745765
0.37473707697790876
-0.46844890056449057
0.5709677323288376
-0.23301898982043645
0.15815102197065753
-0.6327441020969788
-0.6744601217851138
0.11510079153646056
0.443419822273717
0.5868133269565731
0.3022249071505693
0.5358193252121626
-0.2953562189448982
-1.0433793029210074
-0.5471592831917964
-0.7896109883121489
0.34912805907054867
-0.2036607077179378
0.015850514699414973
-0.03381152619810007
-0.18498698636663816
0.23787889722667577
0.34740476113885393
-0.19863773516383137
0.15278491124478988
-0.026277829507133116
-0.27989514042239233
0.5965366543839803
0.7454865179421155
0.9847259390209858
-0.1166650105796905
0.7277547195164575
0.13412098252802138
0.27442294022835606
0.1757881873344899
0.29395889801489417
0.20842258101266462
-0.05878742184972273
0.8273204321722896
-0.610784082991265
-0.48122113446693215
0.23526122427683888
-0.8113439533072639
-0.6165181886810992
-0.7759886856937729
-0.8016479904918464
-0.18135540218321275
-0.6915248955013747
0.34449820368625994
0.18311989848575666
0.2530187337003143
-0.0861834312030989
-0.2927405410746743
0.32307395709342474
0.17427180079526666
0.1951436404162716
-0.5062142670335302
0.11221124525648218
-0.7257012015346403
1.4362485995772305
0.19663941249540615
-0.06070419187454846
-1.7836917304840887
-1.4156795654347785
-0.9180615017946985
-1.9639162605077058
-0.7009451376126792
-2.6447175949081356
-0.49100647859419394
-1.3596908590531238
-1.241884964990767
-1.2074015835522118
-2.1005766976253857
1.014350781832077
-0.7072227764564103
-0.8178369077886651
-0.9146681873002614
-2.8153380906788867
0.7608620430976453
-1.7175020229290836
-0.5148183732248574
-0.12818848520631856
-0.5838107435646415
-0.4043897837920981
0.013852132231458592
-0.04086898331254807
0.30289256766117884
-0.43973852747269604
0.027913745667542997
-0.3010028487468268
-0.15080713535130721
-0.12655709804665574
-0.03427523907378838
-0.10437175849757656
0.18039728853226003
0.4874220711788036
-0.47882225167185805
0.537517820692595
0.4720977065438057
0.6495479253884917
-0.329871678560145
0.6512260431555088
-0.15711426503320314
0.7614968797451522
0.5431844965092995
0.34395360460597907
0.9668385739450707
0.286187772309835
0.7768982343908324
-0.6431510520487043
0.02058068831886704
-0.4277068133751965
0.7466998730066571
-0.21812538312838017
-0.6938644568554642
-0.6350964993166263
-0.6672548653694669
-0.8823263822438057
-1.687377888240429
-0.5938149746074982
-0.4361240299560496
0.24250703615947364
-0.4410658238617071
-0.19234244688047772
0.7797045658597065
0.632113978083699
0.4444264740523505
0.6691698307445448
-0.1909069288375472
0.026721033915096382
0.12473812942076261
-0.20339217496426187
0.12796575875310195
-0.5961555099252291
0.37989515612584335
-1.0505450716850215
0.11809277711021728
-0.008013054901769722
0.3389287195225062
0.4084374028099442
-1.2704586580856048
0.3443515584246707
-0.5398548099056233
0.3306509858432839
0.07228701570702427
0.31012309928962706
-0.2893160955674412
0.18209700316582883
-0.4766988880754535
-0.22043098230880054
-0.5432658872572769
0.09127403923971046
0.046944000513039146
-0.5985064361793773
-0.33055846340499545
-0.2688896904065648
-0.25756960371609605
-0.45641258636750237
0.01883546406869558
0.020028688637339788
-0.045078330094408633
0.1694207280151092
0.23344519419309195
-0.19191510510756654
0.4397157218293266
0.2924023003528446
-0.2872038566266669
0.28796913743157476
0.5232490843454837
1.063463357481187
-0.32733359732820444
0.9407599526117455
-0.027938948126611244
0.3671076893773238
0.26274418609727823
0.2977709078612058
0.37498791584576
-0.020755972735592904
0.5539139618574679
-0.3571176706228104
-0.07585223351972314
-0.20618802106152137
-0.22858001924949573
-0.3598415937728148
-0.619281247504667
-0.71717260853581
-0.38592026576857313
-0.5705655266137404
0.35945945181831057
0.44577979630978726
0.6234810964950143
-0.08237763244258853
-0.7677940193925339
0.6729861911511932
0.23559512387727427
0.3275325162288204
-1.039920283482405
0.4351321635410249
-0.865188044417342
1.9936510268744048
0.25109761632766836
0.0848926643886712
-2.4955917862968033
-1.376505253853837
-0.8508064792767619
-2.264298830952316
-0.6801415978115153
-3.879527747846961
-0.627947734507428
-1.066186413887519
-1.4893565003031115
-1.732983988859144
-2.0310205399867036
1.4294939016488692
-1.1790660987859392
-1.4068558071911446
-1.8818939721908055
-5.002894594218877
1.0076956055371857
-2.7606053670844983
-1.16120490568292
0.09769402913520461
-1.1636556792179966
-0.24135048298662942
-0.14048985719919982
-0.26957282644380737
0.3333095321627616
-0.2187410479757969
0.38569641382622205
0.08356644683083997
-0.32913842430793205
-0.07150209744273049
0.0064145093281929326
0.22268391925419664
0.27200750613186725
0.0951976640824475
-0.33618741003539937
0.40872829633829744
0.701677636040269
0.31733874783047983
0.578192000599959
0.33685590891780226
0.5662426499668416
0.42887418593033244
0.3362689717297636
0.23014894574157618
0.27260789934505403
0.40466010648825385
1.1372236747377986
-0.2401020647195452
-0.16455299587027483
-1.126960752930494
0.5421296620954631
0.0972290126132246
-0.03198408328224694
-1.2965543139751725
0.12572025213713012
-0.8639359991013729
1.1345122443246223
0.5117037437344804
0.6666198577630894
-0.271526470134535
0.895891399767137
-0.12653400746804996
-1.7129188256689674
-1.3350957273309425
-0.3641203758858705
-0.3202463489669473
0.40701525743961575
-0.5588195499364434
-0.49954899176321405
-0.13975107049835345
-0.4955591087229899
0.15785513436636184
-1.7386753485494146
0.19332657632104577
-1.6476729512530117
-0.5975343525889055
0.47406232560751854
-0.9268676032168744
0.47519976656059126
-0.26821002914062236
0.6935360841729856
-0.2987508960787299
0.36456459274465775
-0.5060101866921388
-0.5114817699483979
-0.5148800547591325
0.856153692334762
0.46930405183723994
0.22142532173664167
0.348133375446313
-0.07345885992851481
-1.1644871659406582
-0.6316472578019954
-1.220539783364329
-0.2657182807246731
0.4186014547724986
-0.5549037071385402
-0.5524958336216254
-0.4291324680244854
0.32765377962488945
-0.20928381454544884
0.6553667070819816
-0.9565590625138943
-0.0023256227438610564
0.09603092680376223
1.4979295070740606
0.916648234921985
0.9443445841664214
1.3658489874104498
0.8069233574400637
2.1409147431842115
1.151076056591809
1.238707946724309
1.8834607112782187
1.4690033995297032
2.4472333894393494
-1.4353677827284848
0.8242330183896632
1.2551209526793556
0.6104805686663107
2.8650075320134847
-1.3582616811630543
1.4653987886361022
0.3408601077320383
0.10282166366129533
1.1103731064953029
0.4380814495023001
0.006489370940423351
0.5989094579722964
0.026964301567971007
-0.07459282455267037
0.21627822120857482
-0.0732277194301768
0.25664868231621873
-0.16801528752138392
0.16434530418271648
-0.3575932466931636
1.1318645752973489
-0.061655511000489924
-0.011710174999702902
-1.3301016209544485
-1.1501121894340223
-0.6721286818001034
-1.6958720367838682
-0.6925339481242393
-2.443981630584445
-0.598437724256272
-1.457120896306031
-1.0704146963360206
-0.9187186811637961
-2.0635215819028057
0.5708241822152426
-0.35377919472278974
-0.6721089147895394
-0.5030788515519604
-2.0623802547719525
0.6246743312457183
-1.2143608751120032
-0.4747208189145232
-0.18395506646022497
-0.47399975587449644
-0.4088493801392917
-0.02293967618084871
0.20928825368113618
0.29352342995112635
-0.5609579085658312
0.024818555314990214
-0.22547951616039918
-0.11774870545650902
0.045289699423994995
-0.08782508286506716
-0.1918115159931671
0.32871307425279095
0.5729504925886403
-0.24111338494306675
0.4471474576247799
-0.4129358697056977
0.590709180396879
-0.3670590129677839
0.4541783533114204
0.3347402185205101
0.417611936373223
0.8994353837237447
-0.19878293326157415
0.5419176194449389
0.2597410795235178
-0.1769387382032523
-0.3480167658637872
0.09755672731992136
-0.27755325499015787
0.265025427333034
-0.2718166834912427
-0.6110559157495145
-0.34640296349771416
-0.08855691661014255
-0.42019372093990476
-0.264163718119151
-0.3129483330928531
-0.5288880297792279
-0.054731444868077954
0.16159094591787732
-0.26407984412899393
0.027997477246573806
-0.3589254165503714
0.32989225898834096
-0.1026919871747409
0.42871709895382654
-1.2690177070648556
0.060061876098291736
-0.07846196764217771
1.5959853481534696
1.1414295198694149
0.723872331938181
1.6035308107481607
0.5829740221665255
2.3010825247850613
0.5647043885896444
1.2741563303305226
1.0878933898665486
0.8972921505502229
2.2321707747503168
-0.6479046568658763
0.5290369528638689
0.6508267383686355
0.7152153199030882
2.3867436542414273
-0.8507427095702866
1.2186321308970471
0.46250400944760534
0.08031549586313827
0.4739759528124483
0.4478432377696422
-0.08184386069616444
-0.045112651242244
0.005711741824121788
0.4737976749852577
0.056311286960771034
0.26589553597794185
0.17555088182913098
-0.09265580535405822
0.1214220155471149
0.24133749342233424
-0.2523546413867396
-0.5472602247967346
0.3725649360639363
-0.3867074388781623
-0.019407444575883788
-0.6774056105471041
0.41453008549524284
-0.4603457075615852
-0.03132863813572634
-0.6963195281948109
-0.6906476877008951
0.06211965816216863
-0.6447303150844187
-0.2292305788289815
-0.22004784927021673
0.43987953497786575
-0.09122881415187467
0.7812460949654356
-0.18551660533830153
0.13067105287527195
0.6045751205057924
0.2542094204485179
0.2239457473662731
0.19730007539935948
-0.7423260276455751
-0.5344454459838147
-0.3256874575078631
0.024879119758119177
0.20673290587813262
-1.0105645605916083
0.4811491108940411
-0.8708173430270513
0.665091875619668
-0.8694185422266282
-0.3222501483013036
-1.9057924717360746
-0.5581209194879764
-1.3108211865124557
-0.5580200529381767
-0.06725117403619833
-0.4034861722271613
-1.8204911008999798
0.007025381653116483
0.030610529562186673
0.28641373790326263
-0.31784946602618835
-3.460839167095529
-0.3919233517931433
-0.6131067525241874
-1.7217318473748648
-0.502520077583066
0.9255519698882628
1.71317992818403
1.938131242051881
0.33593410098996496
1.7832268138399499
0.7397555106815276
1.0995862249644042
0.6438487830951786
1.2440920785512688
0.5149260504430165
0.6774666454156328
-0.2493349783625678
0.4375113127715767
-0.2771538520997696
-1.8116293337611085
-1.108266636815263
-0.4082532838336327
-0.4007003353166017
0.49605850297534
-0.7674690470216479
-0.5558104785890854
0.05675645487791245
-0.23855862494752614
0.03100354446643268
-1.7145516864643275
0.4695545117163519
-1.5725088096815236
-0.6117231537005827
0.2672998383818642
-1.2931843793925955
0.06466752393365298
-0.21475671212989147
0.6250632028292695
-0.2543842579777754
0.21301270548393406
-0.2945348142873713
-0.5404350032816029
0.16707357015576654
0.5293483601719489
0.5459256563160074
0.4068842163221107
0.529546022646806
0.25443496409540445
-0.19489590063344664
0.868001228571709
1.2046613618020445
-0.022907937029562127
2.1076395478447987
-0.254898501229373
-1.3789179963237377
-0.5675049884658092
-0.1651204008273749
0.19389514852705256
0.051040199369814306
-1.171001867466227
-0.6278453767606197
-0.2168416323737753
0.5080719426506487
1.5613462723114149
-0.8927070879229477
0.35771658874133516
0.44468702974261737
-0.7284369810760731
0.45011511834516693
-2.0758919247191874
0.47565671291779643
-0.6547955793896559
0.5069971908220025
0.36918837830235596
-0.21831876916640947
-0.5733265828295526
-0.9128018480236614
1.3213607303575132
-0.47986685240837224
0.5187121536872171
0.2192780742251348
0.42249097219946596
-0.5052955872921694
0.7832892933993315
0.0928473873964068
0.6151495523355792
-0.14745941810466143
-0.12674110534181013
1.3010987089661352
0.45222647471696537
0.7084858840616969
-0.8823972554531144
0.3560502780413007
-0.9103100138296012
2.4054745999647222
0.15293084756077513
0.10870161060242924
-1.9878743973002702
-1.4777853597839485
-0.4157620701404401
-2.350288180148735
-0.8150325752214673
-2.5931146700545944
-0.6522105717528724
-1.5551872960655717
-1.8883036391411305
-1.273152120076754
-2.6682745429949852
1.412912110255431
-1.1510930687211876
-1.7146168316326875
-1.416121542303619
-5.755273405739765
2.1044752843372647
-2.649615274755922
-0.7859100060645365
-0.18494658871494823
-1.4273341939134119
0.54547436259299
0.3543034258700998
0.7588074323361745
-0.4434833171142709
1.4287834347948916
-0.505550744313063
-0.6440567006581447
-0.2525294151718809
-0.5382594041492973
-0.4169400113990172
0.16996472693838846
-0.7099029583771885
-0.19690809317402605
0.115324212557797
-0.1469048472156737
-1.650585724849735
-1.436847696065348
0.6298738859339137
-1.883785806972859
-0.26681614286534644
0.007507900796358561
-0.42715373951042207
-0.26692072843324066
-0.42073758337059863
0.3213165221061699
-1.1141884581062496
0.36161091773281995
0.16293950029537285
-0.10820719870314895
0.13287352870720953
0.5088017457440926
0.4747077874776663
0.8327100926829445
0.3485522692992317
0.07729461555405177
0.7972737427533421
0.36649543374289667
0.8674844020777654
0.06998539073436207
-0.3958666673140006
0.4180008861317439
0.3716591573714876
0.36897725903590295
-0.19644174556182092
0.17706328798302653
-0.7710399251658565
0.9730644320327451
0.19319189860262195
0.005579177317819241
-1.6439096486138545
-1.0608985593625715
-0.8114351321696872
-1.8203978166531993
-0.4848416293292495
-2.5694859151965583
-0.6580829201924784
-1.2761869704340798
-1.338920067205674
-1.179360932910387
-2.5212637616708937
0.8909898501512856
-0.40540280744985085
-1.136909472421328
-0.4284401848568477
-2.7470909591866906
0.477956690172013
-1.3275906213959239
-0.6499002681727745
-0.31375168726513014
-0.7778705995209073
0.9900243690409314
0.27701822247509633
0.5559129974423669
-0.21492358549596213
0.6565341307056446
-0.11708569297357842
-0.35458792762724567
-0.04519842434399753
-0.24506510011894925
-0.45654046937790355
0.33520832146564405
-0.2715085760236004
0.035715427378295375
0.269352296266578
-0.2088623972900876
-0.2369927831051071
-0.8654854048479376
0.25538716363455105
-0.7711324249497792
-0.09126362838403806
-0.10896171108408065
-0.7323103567381973
0.34723747932843774
-0.25658356857754705
0.09978179834331614
-0.4108873558216448
0.5130006341483143
0.448256833307998
0.3317425549672401
0.7819198154437256
0.2880932783304643
0.8502267223558384
1.397671600844966
0.36234542830022526
0.6959508274204828
0.7350637919813465
0.47958528704631753
0.8228262950417399
-0.2138999430444416
0.6206360333068693
-0.7730839510145275
-1.8748347025455419
-0.7822898180731985
-0.3414597881948091
-0.372235705476905
0.34047332127657437
-1.185632636821565
-0.8386141165974824
-0.015606450426254685
0.24050206185005207
-0.2933870596296151
-2.1699665052016557
0.22570570346406935
-1.9989799048923336
-0.888029706528422
0.0030621028066047436
-2.177913546212775
-0.5223174558979843
-1.1089543671944684
0.5477189433254913
-0.22158816657068944
-0.14023515915917661
-0.7005921528315788
-0.6452959468652726
1.2305888953485384
-0.5451477961625021
0.18801315310655595
0.280061901308272
0.07529619306826396
-0.43244458959886795
1.0564144595431875
0.5850375538589665
0.05995081943878009
-0.027539827516641913
-0.22215225982329906
0.42982685623974903
2.08072265062855
-0.1695880825273841
2.9441718626489375
0.3688166429215706
0.6900845423588975
-2.6355936715084445
-0.1244357672858268
0.10523536885637522
3.7684679507707375
1.9748676890418009
1.0406579756688685
2.7678318670347495
0.8926741517961077
2.235608297680316
-0.6736849008791567
0.8270752038417857
3.628505361432186
0.8090579246729122
1.5558077317212324
-1.5726679904323513
2.0352934160241545
1.0024691002589805
2.229911805530209
4.212507408633416
-0.9449862743224812
3.592127598139749
0.17750706794358184
-0.8931942796360146
0.11541471295648405
-0.8783029494747187
-0.16365611995385554
-0.0901515462159994
-0.47232065951192204
-0.602902959168372
-0.06412128524095725
0.15945562680534633
0.07810047398224412
0.1768689284527461
0.20516590861131104
0.03270795831152639
0.31339985934321746
0.33389033006251334
-0.10789956945174148
0.26980935708621534
0.007264038143379135
1.1308291778525297
-0.30579036740633514
0.7361135745154392
0.04288657664039744
0.23523286633680474
0.5160659014663087
0.027652185124167474
0.3399918649982178
-0.05248763332329749
0.20879556076140113
-0.13551696397498939
0.3031965027216482
-0.47075260036219957
0.16504235531897468
-0.31796480497704077
-0.4655652403032573
-0.37045606996674196
-0.2593919543633366
-0.07848970586682819
1.2250583484819313
0.26127767628257886
0.7092007279385375
0.20545437541704367
-0.2507068194974348
0.4475222148977063
0.39435455754843485
0.288529977697996
-0.4042953077753315
0.31748828999608586
-0.6625312054140551
1.1963964641750897
-0.04958793556524039
-0.18201970113935534
-1.5579097054993838
-0.8910317041928764
-0.9516773758916144
-0.898960182242486
-0.8986769306812231
-2.152373245714151
-0.8702370882026943
-1.701000406675587
-1.3716640879229807
-1.2923262740146662
-2.054666084982627
1.6040895746213144
-0.48546257283314076
-1.2842020961922582
-0.8475003867578372
-2.698362607228694
1.1407022920182552
-1.3112986418575576
-0.4725047818353889
-0.11852867410816273
-1.0807409941672528
-1.4370352624046197
-0.5782178514676336
-0.4486640661568981
0.2677945201423277
-0.7039778048725595
0.10503531094189608
0.9828442017868603
0.6277997640373982
0.3478269303057701
0.5594409292910805
-0.18027978553954424
0.40303625236591745
0.22047432650729037
-0.16175113919337597
0.3361527468813636
-0.3536153953969839
0.7551014068103048
-0.6987599401769656
0.7133295139054369
0.4014364694634543
0.3742446379277325
0.9678341143559859
-0.3892334404300712
0.43870875933527126
-0.5224216506064178
0.28437733095829987
0.0065128167749892414
0.29407411164883956
0.03504719870416617
-0.25049698264402437
-0.4793621793028059
-0.5317771611058733
-0.5754382142530927
-0.5958711601115687
0.18591412940343297
0.42317352349883136
0.07514205748827177
0.5758965040790726
0.025790093182474064
-0.19089479855257627
0.4171211779212826
-0.017883972132406195
0.3475607930095846
-0.2800661104021036
0.028071148469615358
-0.45589289764687463
1.2652676756954329
-0.12221137868537216
-0.04582297511026058
-1.3121173613803754
-1.2856699875717228
-0.8684583294883834
-1.7728523354966579
-0.6439187896871025
-2.198318632690649
-0.6352545360691514
-1.252980274189291
-1.2941209735706287
-0.9214288240252266
-2.262349060404225
0.9374698369321752
-0.7822639934173881
-0.5634045555019858
-0.5040158217567288
-2.491434174206096
0.772734486933525
-1.2693544675528778
-0.4470584283678304
-0.0942679820681558
-0.5087908584019907
-0.08171413426554686
-0.1547703423184726
-0.2049960192404117
-0.05728494545834999
-0.09181613626137693
0.1237642600972046
-0.1372167012496428
-0.12583597884095302
0.022575315750115
-0.00319800814812872
-0.007549665017038331
0.3999879969435573
0.3167060052651342
-0.16882457161281594
0.19273820735103173
0.5966992181023433
0.2607406433777625
0.5515975496544983
0.16916502373997874
0.48937086204937424
0.41845019892172675
0.18553763487239822
0.3997085261049061
0.23022644473343856
0.20189926386166182
0.9125668845758383
-0.12672097003627544
-0.7245380516566826
0.049350753313686824
0.34153616470186177
0.16234861523472063
0.07925173516745383
-0.6597672953088212
0.1546291532459247
-0.6615895194076266
-1.0519511277697031
-0.8473326357796638
-0.8544849557479903
-0.4024497126063235
-0.34376061462305224
0.011385361965440297
0.024793564967656705
-0.20727578784671033
-0.08245754304875835
0.11142360773559631
0.5241140404884984
-0.036489985639609604
0.13781482106249154
0.17339615323334992
0.6193877168522741
0.7418016299180548
1.0098683381174365
0.9585757416061029
0.5978289527439457
1.0894523715617095
0.7934032516976863
0.6627503364719474
0.6185505428662161
0.7019095922813536
1.0274905726267964
-0.21510843220402684
0.2570615760973159
0.20661306845787683
-0.6621985124047509
1.1195917767803045
-0.451176510635728
0.7365484068732904
-0.4126491492499762
0.3446063774319595
-0.002315404150395667
-1.5963356726768283
-0.7890119859697877
-0.6185931168649026
0.3912658570596443
-0.5127832352269382
0.09381604076027537
0.9894482681315273
0.6653345410593334
0.4523845797461896
0.652492647896449
-0.6079812726870268
0.22285054528784645
0.017048670944424613
0.11974063009912278
-0.04832796673377746
-0.03586610762732551
0.5636209619064695
-1.0766529612247724
0.5929042500639778
0.4141716146228088
0.35718711779366574
0.32511578245288225
-0.9278092376580084
0.1783972312208294
-0.7985341784354506
0.8243887051222698
-0.0029737212225283724
-0.40362513820425794
0.13765915282507257
-1.0939663586428732
-0.8796870462812579
-1.3041526719936392
-1.1337134572943477
-0.8765986607187306
-0.7764141277420922
1.5721903461371092
0.9587963809123111
0.8413518437495274
-0.16884126217745823
0.5566316623735781
0.1199668555033094
-0.8574363353631431
-0.34412052075502725
-0.0732629737312389
-0.4705989610799695
0.7764196344788745
-0.06359438631303906
0.7563792085616791
-0.13430079079055116
0.5431788372541628
-0.02107201523691833
-0.5354739337515716
1.5570925349704132
-0.15770365379505527
-0.24764382799462334
-0.004766036329836438
-0.007164478699312317
1.542509561205605
0.3439711289374187
1.211326858485443
-1.2910253075022433
0.10169748169496123
1.566290322750116
0.2375392932144955
2.035291890581982
1.2061445365364996
2.0922501947361147
1.6742280572197765
1.2050161696096364
1.4890625598721778
1.562714809586384
1.1569955658452094
0.8337717239150949
-0.25988764840381307
0.735233564245805
0.3027339430450814
-0.9706720976570012
-0.41889120937789787
-0.28003667569647683
-0.519837127875074
0.6542668737102005
-0.05378199886185014
0.9780939060677468
-0.16766873480312863
0.36161273296967894
0.22724743527780578
-0.3950633337215963
1.7718730433273948
0.0055010423416422555
-0.24354555755996743
-0.023007128870499775
0.22788044943520638
1.7509730826957308
0.25199063622623996
1.3816508965867376
-1.4081681048682437
0.04044038375120962
1.2143376344322578
0.26324846654392825
1.743733511920009
1.508833430341688
2.047601433669198
1.8162808059061355
1.2857830587255172
1.0911059108243073
-1.6977185031131743
-0.8650527324646803
-0.4839871265520394
0.34095554389854466
-0.32927705771833843
-0.07353760786540799
1.2190302820853332
0.6096405818354582
0.25979985858997706
0.7335373571931154
-0.731623461817886
0.3019155468713152
-0.2125896016718299
-0.1418908831086267
-0.07050052065680547
0.3359982889636623
0.7816467482768621
-1.2621029247003146
0.6181624023407203
0.2594321733708885
0.03240479086573794
0.3107440786134364
-0.9627386684371066
0.1482053314182098
-1.002469315652591
0.9755958412893254
-0.10164830557027996
-0.3459294481813739
0.0548400270473076
-0.7742031792605442
-1.0226756550963823
-1.0543761542724144
-1.0851746238041313
-0.7554750279292909
-0.9542965025527353
0.8150127485124085
0.6002113680524012
0.7284646759421022
0.18452583484111829
0.3334716396410747
-0.10728044215245588
-0.35360853143685217
-0.1806862957284219
-0.18572344520894923
-0.18861534194744062
0.18810628828102832
-0.3610385225845282
-0.01207430135052626
0.29054417163088814
-0.03563709079429758
-0.8683547925065088
-0.9622839971825307
0.09258258551160814
-0.8749363279840068
0.13536408211259246
0.04713679648430835
0.15829242604817598
-0.06944834854912248
0.20983070800618006
0.04011668079345581
-1.5147985479464314
0.636336994531576
0.551362476319062
0.9854670530720907
0.3992469361519595
0.951669261889534
0.8081274115385813
1.3422610348909048
0.5004743702056333
0.9003618462195048
0.6662170401520465
0.46431913857880147
0.9087663065672502
-0.13241097947336578
0.5530063334785236
-0.6929183297390188
-2.2488270242890205
-1.0800562842938666
-0.3526131312999743
-0.21754686662816602
0.5403138037702042
-1.103056039803806
-0.9673667148478665
-0.044113748305859485
0.1023354482694518
0.25828349348665924
-2.42072410779709
-0.3533161396459415
-2.3103615379946247
-0.706357789463987
0.34003686538943406
-2.1189909114424776
-0.6395606724246913
-0.8654657364767625
0.4454511392509173
-0.11660736298775837
0.12860098539500933
-0.9409061715280693
-0.9752147331728109
0.4909591010899893
-0.6431659691916944
-0.03721615513865525
-0.2942458868372806
-0.0536100749731264
-0.8436306438355143
-0.7031357458421792
-0.38145890791472026
-0.18000462213658588
-0.44153079836763903
-0.42977683535927
-0.02832696419882163
0.15766043353463202
0.06492532732686135
0.16868491900486265
0.18200761463943185
-0.004453199341119495
0.29767014697016436
0.30463382182001053
-0.0857871617726729
0.2830835280223832
0.04797108912852526
1.0386859959986707
-0.3376843653707967
0.5913382977056932
0.1333607890153569
0.20101370316675438
0.5450759024566836
0.22593150065337667
0.35623689138030296
-0.16455252475987597
0.37186759126518604
-0.174286843305124
0.2306064184688332
-0.6068745615345281
0.056469101357393275
-0.38347124756875095
-0.31294858258584096
-0.40617706578955604
-0.3409474265278598
0.1404483914211216
0.5248935250442142
0.14573517864355823
0.18307262533085203
0.13107969004823392
0.04029588823404504
0.5454637256692527
-0.17732194808355167
0.3574589770445543
0.016771300318420394
0.30614317026358573
0.45199055411253664
-0.0912453461714654
-0.041268019353496305
0.977883718225626
1.4887524663247138
0.901385067933912
0.9787476884641579
2.033506811573129
0.8445835106139722
1.179289431382933
-0.009545153303219932
0.7398933203871532
2.4682705117440387
1.1806869409617344
1.0175833294920227
0.1535491405563181
0.6243352201892907
-0.3318997739292835
-0.06871143309857869
0.0705855605635452
-0.6306666061503572
-0.32957864695570105
-0.19101099602188615
-0.9082024898093057
-0.29672047585529204
-0.5882482875577747
-0.22995693795190528
-0.10496382059197912
-0.4560016127662059
-0.45857199619624794
-0.06655692172469345
0.05565986513710323
-0.036401573224406264
0.2051851517141662
0.19901004982737489
-0.1174647728704956
0.23589384298096608
0.3868586114479909
-0.08336535356845512
0.25244153060417474
0.01911891785021671
0.9952953421155817
-0.4296335828110952
0.7648929196699082
-0.019059038747972983
0.3138574091446537
0.5008212649379241
0.05961117386057064
0.41188864807693903
-0.14215306227958116
0.30781486393871466
-0.16171890418549767
0.2088776683222657
-0.5013524702601676
0.06659737020421048
-0.32860999905554733
-0.2647480019710092
-0.13623287782981383
-0.31473981396701656
-0.0779500132419048
-0.16118126596984794
-0.06371150863083294
-0.10537787284198254
-0.08276745206144273
-0.3356601991660483
0.23148611281657272
-0.11035091355129141
-0.2022913538310637
0.020181580882732916
0.019620061530279075
-0.02747183958684751
0.4655599261401811
0.2758014869075304
-0.25582994016208915
0.404121153414516
0.6099900085832849
0.20439379177862294
0.7057517407127162
0.14711951214018354
0.45172998272926806
0.3255655351758099
0.06786848901909791
0.4471100163913388
0.21410090371574333
0.4187313618930164
0.639714798947003
-0.21873401861683983
-0.5061618871143893
0.10952095820458614
0.19680893406193012
0.05268226025331353
0.0184885853648636
-1.0265061588715667
0.11428629545914325
-0.8582476217684334
0.08410552212699719
0.009608340165271363
0.15803285595640046
-0.57094798935293
0.40782471174700574
-0.10380253876709776
0.028069385607740204
0.12580137716688225
0.2254746037557393
-0.031329326141849724
-0.23634709811120355
-0.24629311715035426
-0.23253505838346655
0.33634906942316595
-0.4213896850429697
-0.5412645927437573
-0.09880564578849574
-0.5041547029771689
-0.058329667712812484
-0.3019001258700496
-0.5781632517452387
-0.14571910319329412
-0.12336922589374089
-0.3042947150685698
-0.3811718930193611
-0.6685577606160408
0.2216484388383275
0.2618225062964902
0.5564977739853589
-0.4983674637037185
-0.060914865587641136
0.1872408682307801
0.8446760245717235
-0.09127977145763687
0.7089623521396705
0.6005799428888563
0.42802944344107313
0.6561156014041871
-0.1475379486981452
0.5207773692125359
-0.8645512194478198
-2.0323875953435984
-0.698484484664349
-0.3186660447883766
-0.2817581782903238
0.5447636604781887
-1.3317035122554115
-0.9872286334680679
0.019304801652305924
0.8774457543776424
0.19163159203199612
-2.474980307919465
0.07209101256268914
-1.8506573792533016
-0.3671034596413166
0.24361998978729216
-3.1567661400412517
-0.8633529899944928
-1.5221535252972063
0.38602475159319727
-0.3994966696185223
-0.06267849799563088
-0.8586634995928395
-0.7793970349603487
1.718856773825921
-0.8878996677140286
0.25492938984586655
0.2901918434038818
-0.15781498025437513
-0.414431403587917
-1.3770404842969328
-0.5466268685089336
-0.5889836992138235
0.4680996215220024
-1.1019563470470681
-0.17355541134336852
1.3205344741958946
0.7153649799462123
0.23497110769359847
0.737090884026475
-0.5249330361791974
0.3933026415741566
-0.01761179202079555
0.049755088725085404
0.4775106642243327
0.6715010140792645
0.8087806323689685
-1.0311393745608517
1.1049109773395294
0.8863910873950965
-0.08679125643293684
-0.01848271372166628
-1.0680876568552833
-0.0835612292360199
-0.9594652321010702
0.8674438295140781
-0.3525390813697993
-0.12454059955515308
0.30642481157886636
-0.2157191324975136
-1.1016550020563822
-1.113738355938949
-1.0493684823686553
-0.7778466413758863
-0.40210653085416126
-0.17302830402256233
0.003995766869600805
-0.10428281762652652
0.6438373375148261
-0.4500190511402584
0.12440929417865003
0.025501252881687586
-0.12399268803250015
-0.30762558864559925
0.09779726360545445
0.1693865285801368
0.258554772147186
0.24268699400608854
-0.29103196355994293
0.43139710027492073
0.5342421210328078
0.13373435990554827
0.5448474095054492
0.21006551847297014
0.2593367609126757
0.5735407029665651
0.157998257833033
0.2663681926971428
0.1868330533749966
0.4321181811394188
0.6387537386541592
-0.24835018474578965
-0.27208997545036584
-0.6170284617535969
0.741107725206924
-0.18193287831634197
-0.2481307792273261
-0.9674229601911347
-0.1796287456779796
-0.8164873682404946
-1.1383032839438652
-0.647868385994023
-0.6982056312973218
0.35831987284885947
-0.7418630144501311
0.2730173740595796
1.1625674013142717
0.6098469077151498
0.3226930605495973
0.5827440312947945
-0.44846654702266875
0.5538057494984168
-0.09929380720321095
0.07467591859453344
-0.12736037750149654
0.15505988411059946
0.9211407662189188
-0.8298156144027594
0.9781506214361486
0.6771821170231515
0.15896799129668057
0.9069570139131929
-0.583454196405487
0.38435033795923323
-0.7111945371126915
0.5754346014504153
0.060461855026374946
-0.363431760065964
0.4910912931392041
-1.4602115873306971
-0.6921788818433723
-1.2776406119072112
-1.1373331413349648
-0.7818860271774078
-0.7104575165025447
0.6068592059227287
0.24413828516516434
0.043169232140829635
0.07071113029879705
-0.023483500667898824
0.18472000706705496
1.3489648526170845
0.06925819168452296
1.7347872093693606
-0.043218722123100406
0.8494050760353704
-2.2816711634066777
-0.22858970481452806
0.224359148139652
3.1102889057846888
1.7828752279790026
0.9871940349454363
2.2894768830420076
1.0875841517531486
2.7433593285838995
-0.2554230106424096
1.2053612013117403
2.6914807022056344
1.190721080108542
1.702864255390091
-1.2881257312125318
1.548755989599622
0.9621723042813294
1.7106993030347224
3.725831622596585
-1.0192540201923586
2.7982851999336824
0.46228893557788264
-0.5447402223945031
-0.05872811964835196
-0.06967357753243071
-0.08063717323475676
-0.3045469007586344
0.41589762045097844
-0.10442421977086253
0.438477681788801
-0.11387485981502084
-0.33156962954810315
-0.0357602362657548
0.08427949485792764
0.01331480733326519
0.1733133365807787
0.3588962654098377
-0.39201569774970924
0.3273854353910728
0.50934735334992
0.025985667924759145
0.3915490295915629
0.26731348696507445
0.10687268477787999
0.5898592153608061
0.2544454721972245
0.04817101335770417
0.04919985377069092
0.19243170492542724
1.0061546542117032
-0.501341502174673
-0.1795768406329396
-0.8749980053356807
0.7041459663123651
-0.05417435139460609
0.027750295930276732
-0.8084385083890137
0.05012997498959506
-0.8010523016513633
1.0636411723069805
0.3537397383296741
0.6611607034662976
-0.0907384944392957
-0.7508109555290472
0.40021373069249305
0.6962405489232457
0.28976983949381585
-0.27051647090762015
0.4220933913643842
-0.9615279035116383
0.9460135011115186
0.21510544310470192
-0.3690930750253206
-2.070374000403222
-0.885353602018366
-0.9042985978279331
-1.9031191062750024
-0.8724346122096037
-3.3887580131017985
-0.6847689575116656
-1.6001465476302588
-1.2014046804740979
-1.5682435433906712
-2.2995467079471945
1.1174994604637403
-0.17379849233793518
-1.0936646323757853
-0.9984438522286704
-3.250661404688565
0.8122731009719428
-1.6199960214168434
-1.0370173697378824
-0.12012218748736006
-1.0616518594281166
-0.9867987246507377
-0.3810762254842218
-1.0794830261477368
-0.11865192972071273
0.420752883524936
-0.5102959384380751
-0.5082669866373407
-0.3300498394306932
0.25805141299514883
-0.27822896617260456
0.6386025879326487
-1.0517434710610847
0.046401741828432735
0.03832690144286985
1.579245873827531
0.9413530402419364
0.8517206213371948
1.3074023402025141
0.6957054035831858
2.405851098883863
0.9729446226636821
1.4576701119708355
1.4754424611630066
1.5265947636870052
2.1355039279794497
-1.3932087924428906
0.3632175417000663
1.3757941299648344
0.3686882762771203
2.9752962046991445
-1.1496481189926693
1.4596731335055784
0.2811810938258554
0.11061596752719415
1.0849276516003863
-1.7221493081475343
-1.1036926480598481
-0.6792934500803705
0.06903310451992686
-0.4073901608501893
-0.21867408694966772
0.8156953960491524
0.7206287210190906
0.01649109040607193
0.16634825251080398
-0.8237089890656228
-0.09082982536785346
-0.6009670727689612
-0.012575103172476808
-0.46003190585099635
-0.35566737274714233
0.821677368572095
-1.0208297418529946
0.31715313192223904
-0.16197352657888633
-0.29530734606058484
-0.024884943957064573
-1.3506625792081601
-0.45324598178237935
-1.2465227701372064
1.0914769286021193
-0.3641714666243066
-1.164287697888331
-0.13070491280313729
-1.535968883155485
-1.6380312115034281
-2.1373535798319088
-1.5363156687367143
-1.4770252159566604
-1.4489031335765896
-0.18114859590216217
-0.15627908097314497
-0.3844371173884192
0.5439777408384203
-0.07047841429277711
0.4576767094889781
-0.11525360027052549
-0.25197964077699037
-0.04489583734127287
0.015928386815089398
0.10479181436914257
0.17737717365273564
0.22476627324853526
-0.24128510888585217
0.526669105502642
0.6568933921627457
0.2865167503599402
0.29700746663301875
0.46593357099654303
0.38625824135156345
0.5570306091096324
0.5255506818701278
0.1747414198135711
0.41745950135549875
0.13229892890379186
1.2266133390830862
-0.4362362340555884
-0.36871985447668265
-1.2727540247168847
0.5498641973899514
-0.21432455383582835
-0.26257785074325035
-0.8378133509294207
0.10748935171583375
-0.9343528986723161
-0.20465156177913907
-0.2620867656396062
-0.37784927076453295
0.02255453594399708
-0.19991447801521442
0.3338411914986633
-0.007732787573206691
-0.2642040523111361
-0.070311306246573
-0.028100177263907435
0.10736575800116117
0.478999771599949
0.14386364683979913
-0.33721305429808107
0.3295421602919198
0.8760055528332572
0.5100131811158474
0.38726022086632195
0.4472286546466883
0.6297645433228115
0.5288025993471951
0.448065780736556
-0.07305262252065603
0.4294263121823915
0.3513749663709265
0.8245272589779644
-0.2803103143806942
-0.4927067055448163
-1.1739233888142695
-0.08902405935514324
-0.13618489126856617
-0.4459903482780694
-1.5627739317511071
0.04671697867606176
-0.9469706731739542
1.1027645009183291
0.5258018086971558
0.632395789237632
-0.219795576704166
0.45429226469875733
-0.34953967032306144
-1.1517678536370088
-0.6326210090016446
-0.3297060224182516
-0.3167294898123543
0.4484795991320454
-0.720647047316745
-0.3656674484828887
-0.04497518188108645
0.22168638483904296
0.09191916547129339
-1.467627123084837
0.6028298442728842
-1.1491339798804205
-0.34277561678716084
-0.1505323733154898
-1.452176550594745
0.05601565825384639
-0.5559266818851252
0.49166818457049194
-0.24410600786953446
-0.0625498087926819
0.10235771099539126
-0.25039606758423844
1.2192432257654071
-0.02572999933482154
0.874339448982488
0.7620761082456694
0.5015074321058841
0.4686981071921947
0.45413388780870834
1.1108821357782332
3.1916565399377523
0.672340890289342
1.38660841507398
2.7054285373618403
1.5331195918927778
2.586608456661062
0.5700424754563094
0.37456155054690937
-0.20005296508611037
1.2603054671622245
-1.3830175185311278
0.6316245079847538
-0.6562840392010982
-0.36347927244220407
0.4507493320539314
-1.1389597078507652
0.6195890202285013
0.6611470925956904
-0.2559600655654982
-1.0142178840730212
-3.5502032456776886
-1.0507980220056112
-4.010271344944026
3.1238008410502798
-2.915930310595061
-3.5503049542134675
0.8703102842974888
-6.314184341369162
2.708225488986753
-1.169632865602157
0.8886067787522232
0.10545011637454214
-2.5331492148750203
0.8397168844194364
0.3638814308541328
0.7850255632996237
-0.0511099810010784
-0.3373036884415692
0.3584046598778969
0.3564600851760025
0.44283794914086355
-0.20552218482898849
0.3512779774769134
-0.6812364167901087
1.1951618893723095
0.03392690855339733
-0.14601688031296808
-1.4808958243149262
-0.9819983169498235
-0.6865337223530452
-1.7904614093459006
-0.6749161259615406
-2.6683404380744027
-0.8786932225797214
-1.580210516554794
-1.1239822738475134
-1.1515377512988747
-2.3260979733036864
0.920548479124441
-0.2615868656852288
-1.2650988882554284
-0.7663664094787058
-2.9311565669674295
0.7795798703186165
-1.7498133759766343
-0.8392163986436995
-0.416905479398011
-1.1357353044808163
0.7878517059867567
0.26766873880093495
0.7473278500267945
-0.12258031734244436
-0.3554483944722253
0.8409049636132669
0.46404874577283034
0.618862890514459
-0.696466832118971
0.4642952381659214
-0.8765248239557885
1.8603676162467457
0.10115463318124318
0.1151438542735798
-1.9236128794530218
-1.1019024217237698
-0.8019375320263888
-1.7986064650541354
-0.5153300352853121
-2.985610356475644
-0.9135741583123661
-1.202819729116891
-1.8133481392740378
-1.5445096583448998
-2.6128620674837184
1.7412651281364926
-1.072034064119902
-1.9463812808152932
-1.1238783678360345
-4.779164440213776
1.5246441571400362
-2.5361890026480407
-1.0569673144575358
-0.0009467342666899656
-1.4725579532455386
0.6701863701700129
0.3064521521618618
0.4771981372984006
0.18216579062509014
0.4380431817245471
-0.08305200857366592
-0.13869898527315863
-0.05361008071823941
0.016042045924020597
-0.15088999482642887
0.25377371387225395
-0.37201911436411567
-0.20548380583587927
0.2123638874735987
-0.6052275482712908
-0.8205561893496001
-0.9494873463117023
0.051002994791544444
-0.7163939072265408
0.09487736380108329
-0.054061009278879135
-0.07096726140764681
-0.12719590197843925
-0.14351846171387156
-0.07583250994374331
-1.0497669773840679
0.6379486086503431
0.18624780668306135
0.5714035051425799
0.026319518175808552
0.756918343225836
0.41590310453460494
0.9970298713243136
0.4355110880164742
0.71611952260463
-0.7155597471531201
-0.23233244811145354
-0.7420017130722589
-0.0058365425868542355
0.3534658493158549
-0.7071823618037956
-0.2802776400265329
-0.21735217496023088
0.6269574715417722
-0.1701515155109244
0.6072119789131204
-1.6862492572877055
-0.29887531853361043
-0.016161938112401807
1.4070998931530632
1.23543675012446
0.6929146655480909
1.79278490788028
1.0776804540151288
2.445583832842891
1.027196313443226
1.3237771212573495
1.6922536396868917
1.1445812845257273
2.3792221660815946
-1.168172870578213
1.2087743837564702
0.9768234922084813
0.8419995048919503
3.4653527618439006
-1.1650140312477912
1.8186624507977178
0.7622977709500984
-0.057108430764630166
1.2408516318722487
1.3025158723947894
0.6178079893373739
0.5480949234998206
-0.3585210445903112
0.7142688491375652
-0.32990998307710284
-1.7114687893106078
-0.8763268269894007
-0.30423329895998197
-0.6639005244197212
0.5852684269514559
-0.6550548253136235
-0.15071073177124428
0.03552710953927177
-0.08423467939323004
-0.4323688897237941
-1.3716865339618762
0.777932083146563
-1.382469489538939
-0.7104777078691801
0.011519235895313607
-0.8579468486821579
0.49165978640300256
-0.4517319551856526
0.7241448855460033
-0.6237018624210098
0.19575807586369598
-0.25460287142632826
-0.34004462243195815
0.3916998442140077
0.7010534342946795
0.872498275352858
0.8640578864221875
0.8353895239818815
0.14167418015759367
0.9426717266885243
0.28175915635698756
0.058504626564951534
-0.025235202219218426
0.006613308129561817
0.4400997508287265
-0.19408335719952333
-0.21518242579580296
0.2607535098027086
0.2958653185974692
0.49297110513489034
0.42280657125559307
0.2979983401327287
0.8188798330959551
0.8064185547088547
-0.013030728711104559
-0.060481081968375365
1.8561600307746504
0.5781777335798408
0.5940308926176502
-0.2020594317760079
0.11963600451958736
2.4585334223539435
0.3602162130087513
0.6872859201604566
0.29794597630835556
-0.0057841578148426775
-0.46160538665582984
0.3904399739935604
-0.5989016864943923
0.01568666214983123
-0.10432250216997618
0.25260696203816957
-0.22619982052389032
0.06628944296380003
1.058434933832258
0.4877328531584836
0.4851983673440029
-0.1313094406697599
0.6636530042551352
0.0161107067393609
-1.6913929382942803
-1.2485464675283795
-0.15188722848649291
-0.01393705688618582
0.6228392453023314
-0.5303603421953283
-0.44852610445523494
-0.024767963093680113
0.06049273477754563
0.36972402579482405
-1.952372502251337
-0.10375635334758466
-1.2395826966177075
-0.17122239706152964
0.6888655251032824
-1.0551477120189403
-0.025838832841571676
-0.043208520457617
0.7167962218876931
-0.32852361818641096
0.3370647315399152
-0.20211728212450558
-0.498073192800296
0.11646255903062719
0.7953962641334006
0.8162278484479745
0.31103780385197183
0.6370539081651435
0.28068732823290615
-0.3162473352335696
0.035531249086473274
0.13964031437945565
0.2999997982596903
-0.011473249018367451
-0.12451541367551179
-0.08170654848056673
-0.16214712686903354
0.05071582289394619
0.12730551583113567
-0.18395340177568786
0.11274758904128557
0.2659956419018661
-0.23410930868048263
0.162215484805644
0.09791919204200739
0.3979068232555839
-0.1880378077725167
0.46531591124096794
-0.21562858026531317
0.45502024637918553
0.2741029186626409
-0.3879176846646088
0.2574397787438705
-0.004843163735576553
0.6060239700515416
-0.566464240162139
-0.07700147252892181
-0.6501011075055426
-0.019152173142009843
-0.329105886631929
-0.627923828743732
-0.2466457378050854
-0.5499460127781862
-0.3498480520296793
1.2258227727811712
0.737595292719206
0.6004558058205068
-0.0840067905264959
0.2064505359940659
0.041573699548647515
-0.9076216744668835
-0.3847215374538177
-0.3267341170960463
-0.35590806343816117
0.48566950149452587
-0.3028853577187253
-0.07786090993436719
-0.010607738614467373
0.13532881339173594
-0.0104969033495618
-1.2780005518623943
0.4111320119003125
-0.8567612471812962
-0.15582732649674416
0.220923171998734
-0.8713913263387288
0.3398634486666832
-0.03605998847839791
0.5292848027829029
-0.3593493843716377
0.3382841324395692
0.5184456339157322
-0.02845268642467256
0.951879032554526
0.4843127019638045
0.8813959679881376
1.0179437329924155
0.522772712564922
0.89402494616586
1.6994732403931536
-0.030102575693356542
-0.4267920506130387
0.30869991442026695
-2.3390831185416014
0.0735353248932543
-0.8852540039852419
-0.23242074893860812
-0.18698347986934163
-0.48596717704816544
0.8866346316592376
0.5288241289568104
0.39596570902225653
0.704093121587514
0.7841252504703994
0.5411396513084653
-0.41236673728469186
1.3054785414629582
0.37124633514136773
0.7012066483492879
-0.27821329192089234
-0.18820859163560855
1.175205508736861
-0.21534614087145024
0.20991299147165965
-0.7732258872230274
-0.08231624402181256
0.38433942142811384
1.2269620142640154
0.9122581105616198
0.3305339522641103
0.6758390725345821
1.1577296333441873
0.019004435925236953
0.7799340289775467
-1.4829021435491354
-1.287981612884385
-0.8628890424061966
0.0006945704687839179
-0.3714204159081972
-0.3065812071044074
-0.1767319504026898
-0.23110497856818507
-0.5620012613390544
-0.09940816145016788
-1.1001132027233347
-0.6106788731184
-1.77293560261386
0.18243283124879098
-1.6435099621914737
-0.2599577040435367
0.18948528867493386
-2.4133593503660022
-0.670131673152201
-0.537430575180847
-0.39833871319863867
-0.42761279202798574
-2.3247849397663276
-0.5688650199069885
-1.5756546139103773
2.165577011236216
-0.15912035208693662
-2.553765557668221
-1.2894000675832937
-3.182221447264933
-1.1234598785100243
-3.297310309650371
-2.2054709867857545
-2.117020099272227
-2.073115367271239
0.538243990696454
0.4735921684324178
0.637398977783632
0.26481614574150025
0.6048009871963156
-0.17457701029585562
-0.12694285757847665
0.21844626256410518
-0.11173544401702394
-0.27133587279659804
-0.22634708191222638
-0.43232801492983397
0.009497404137220052
0.13468741596181638
-0.2201168163347774
-0.8714926770868593
-0.9237410982035593
-0.36559160535574803
-0.7312130712303208
-0.3140645525093462
-0.18803615900264783
0.008639871726766207
-0.4149462961628623
-0.13618391041554176
-0.34272063939363057
-0.7151175089971008
0.06432400551393015
0.4302733968449258
0.8614964310745539
-0.29622990563601725
0.14203011774836827
-0.026420388654932805
1.170390213856639
-0.018528795951562156
0.7034221004478517
-0.8602624350225196
-0.5956288058803271
-0.8070682998092588
-0.1445796388103467
-0.5801798495299219
0.08106085265575641
0.3028351246899059
0.4079831576319247
0.2090441911134078
0.1277322188322623
-0.23396723963442353
0.3574351501901749
-0.054932868683729964
-0.22723563572560404
0.21006192958152664
1.0960283023847894
1.006571342028732
-0.14430789340547046
0.9413838671968913
-0.13589252121407205
-0.2409324947934848
-0.25970353823609504
-0.3488316858180755
-0.28779123677945917
-0.4025519729924587
1.4732041619711032
-0.7382794660084652
-0.9162017278505347
-0.8207127649267189
-0.4481905748919872
-1.406833844292139
-1.124240638141828
-1.3483107397740606
-0.6458038649465144
-1.3453371544822899
-1.0127724153083815
-0.35726742043440174
-0.8648517305874758
0.25778240165270183
-0.8047645466334123
0.34278541969942394
1.7172835105073576
0.958497462825109
0.3514359342374283
0.4189371143142288
-0.35001673667039374
0.7994469947296204
0.5359819058479912
0.1253346220067013
0.1335743224915803
0.12563961503616758
1.7245410097905711
-0.4196115192046835
1.6130279664666476
0.7665026503909963
-0.1195146829804093
1.140537774312959
-0.3366557591776548
0.5797401127000525
-0.5412148384707917
0.3758118658612477
-0.26317535483775123
0.44033525678173857
0.45094640890085325
-0.4250518931889591
-0.13374853027539305
-0.6831214528507092
-0.3287491788169519
-0.35239219588434617
0.013100006504252915
1.5274651968239366
0.4339266902391019
0.5110687597192638
-0.1950567014923577
0.15277236094390198
0.0048082217124284865
-0.737872686939063
-0.43901481929125025
-0.35530360377414094
-0.6027259978242813
0.19059886979579665
-0.1389615955674254
-0.08104012379525764
0.42325413850075216
0.2549355734614056
0.34979817645658895
-0.5017028254070334
1.1656977945962717
-0.18841124209293403
-0.012427410517225635
-0.4904957559964715
-0.6112346488544905
1.366370435452506
-0.3427417865198109
0.46863668255427715
-0.1363399606155831
-0.22108531168494416
-0.20786964339658046
0.4807728830193479
-0.10469810332720567
-0.03757998896204141
0.0035093970985524527
0.3425188417759432
-0.35212385600066
-0.2075682850738287
2.3301166938454716
0.9678513081261174
-0.564498288094399
2.5455471647781245
3.232832704130315
2.355988650495133
-2.2616212063108656
-0.9458140048457103
-2.3529976256450618
2.304913273405816
-0.2691467246187151
-2.1953383022437185
-1.1306902755009278
-2.1537167290645667
-2.5664099422125095
-1.9135460703781682
-2.636761991029457
-2.475282645223754
3.5561222125734187
-0.4745189905549957
2.1520261885337986
1.9372037183506774
-0.1544045527230532
1.667706947165707
2.6125443542743905
-1.3335163986955345
2.5255758892719182
3.1701882091348823
-2.1969256473779595
2.7880126718729974
-2.4038746584608797
1.7634628031342132
1.1236986543454732
-2.3249048456965213
3.2920293650913273
-2.3885370275199898
-1.1478265963006415
-2.1943142951036725
2.592052883414612
-2.5809044887485704
0.7845445112371104
-3.657904000310163
3.1447739892848694
-2.1767348273039486
-2.891866802724617
2.3223226323860757
2.0505731316000233
0.9059604554534002
-0.13463211632133315
3.041918217524103
2.3446380625821064
2.963808139217817
2.1877932688404527
0.8384565988561692
-2.568731088501243
-1.9438322380148354
2.513609356105485
-1.6819346612328168
3.7557908527551027
-2.3480610939901694
-2.6120163118793376
-1.596829518173444
1.4448680409437666
0.849570924757877
-1.4119342034158637
2.4514314212537185
0.699489707478938
-2.0175941177339056
-2.028069811960944
-2.003805304894408
-2.3686503294300953
2.313847214437853
0.9470463266421646
-1.3723514330661177
-2.2873433403573147
-1.7440647536911422
-2.8471880140463757
-2.4807333366007662
2.578420746105168
-3.3752843613359134
-1.55513571675251
-2.587787829764207
-2.6385331457695056
1.74903138060068
2.8287334017018937
2.8457656334912405
2.8045196880952523
2.350199933808563
-4.211316528289891
0.9530605780144554
-0.36342174030695
1.509459675164465
-2.383947742371962
2.124806600953723
0.868465964475825
-1.537728677912742
2.302597029343828
-2.3980388060474658
-1.0571587992211404
0.8018803979451388
0.00022303924510878702
0.1762387586818605
-0.5265709976577055
0.0025409071818925013
-0.33338539190375444
-0.003987246351775238
-0.017727928279184606
-0.15465549676296259
1.1290014034777667e-05
0.009902098225859935
0.5905391537645183
-0.004136823382649988
-0.09514542365668716
-0.008674708410615184
-0.003101912551731327
-0.0248271201164648
-0.002010679714797025
-0.0013840596111437857
-0.10593459156138146
-0.34518510349005355
0.008050751567751025
0.04189952415930613
0.3521248501296103
0.1441136870197709
-0.007176495381649898
-0.06842417989467262
0.00042794815982933433
-0.21904759949411864
-0.030076654233465422
-0.15079495829044454
-0.009367859563241737
0.030337594716771877
0.11757894666387639
-0.003057111321921048
-0.14416080676065085
0.0030905011136895684
-0.07879761630308912
-0.0021117606226305507
-0.3654785078114978
0.0013085853403209985
0.18359096939849945
0.1490162470109021
-0.04141506071762018
-0.0002263588148699164
0.029341782611660656
-0.0007228511088213812
-0.41412938036448893
0.16764595512540556
0.30941050136037035
-0.24342123811690786
0.04388292073356157
-0.09300784470663946
0.003508573671409209
0.18099464068156376
0.7657051212402431
-0.0028537757206830486
-0.04911086389859767
-0.03042818116250871
-0.1184741034483517
-0.00091234958328452
0.030982263710695256
-0.055023574570759064
0.13383280682592882
0.2829950886709106
-0.08127042969144764
0.007761866394170548
0.26844290157273865
-0.0027913664595975362
0.20499624668101427
-0.0016002236008095577
-0.0007518142351432725
0.0005695360665263679
0.15138978302632636
-0.09669832170542705
-0.0006915028465183064
-0.0436614709795264
0.6149634122921503
-0.0007023065264389772
-0.2338944089928446
0.1077602381069183
-0.08540207447497804
0.0014746565193110917
0.002489167845454968
0.030253713936754772
-0.3494780859914546
-0.11126359617488535
-0.19370574895517914
0.003053368299344412
0.2871298776719423
0.14884035617061958
0.4406247397764914
0.08546145649813174
-0.001075520731882311
0.008265970038604286
0.2991328474464651
-0.2794014819853115
0.0035362142052734733
-0.014859117626393905
-0.165850285061705
0.0684441305470635
0.011574718023305966
-1.0203000422829367
-0.43825844677226716
0.7220251500810639
0.6704397533658809
-0.23830757836077612
-0.022034550573365588
0.32861097460614463
-0.9891451867803813
-0.08810138833485878
-0.858555275203505
-1.6143108980981606
0.2975416282585547
0.46275308700302603
-1.1575973640845933
-0.7456771428627538
0.2424225809158873
0.4373253621293172
0.0021785060337160276
-1.9542600157315335
-4.201663883943425
-3.841915756940231
0.18177093962174132
-1.0441528415397132
-1.134499318193653
-0.9446026088666413
0.675905369599433
-1.840770786270142
-0.18881867220976406
1.2056065159512575
-0.3848211486254927
-0.13040772561591882
0.3278738137631728
-0.9725620301507277
1.005862064773212
0.03765663484013573
-0.7700767034618695
-0.34504505777500466
0.8265658790007712
0.45230867389287777
-0.334414956291578
-0.06265295012507317
0.42304313088805184
-1.0390112413793722
-0.03184516126772947
-0.6931270921538849
-1.8807215665813566
0.3808323643513178
0.37186453607213815
-1.256170573323359
-0.7190181979308906
0.3517447564143997
0.37144364909839467
0.03847779346731083
-1.9140661523520535
-4.624374933172036
-4.87351140092006
0.4416846459859539
-1.228209272787787
-1.1267037391230377
-0.9954232275113654
0.8430834929141721
-1.8661095870116804
-0.23311137217065991
1.385946707545021
-0.49834305300836385
-0.11871383156813596
0.5529016946545889
-1.0920315901551187
0.9555719976590981
0.10923069776815729
-1.3537922705482865
-1.3944163159473502
0.018410389207510338
-0.3041389595707525
-0.23749837522436465
-0.09091822766710804
-0.45907948810603066
-0.004528709815183365
0.0059415930712783446
0.8217248621149966
0.17410613689670912
-1.0512443737796546
-0.8959488751012415
-0.24819023231177909
-0.5559276515329181
-0.30140183400844706
-1.1962875914335869
-0.32238212233168917
0.7902751813039908
1.1352469255439426
-0.23021035610356605
-0.7764256941927488
0.6880122557609536
1.35073506799019
-0.6592073186267767
1.5991883023168811
-0.19540600825396634
-0.4716099757678884
2.1509075918612273
-0.25554786748164643
0.10134204987833037
-0.3412004242464791
0.06707937716514857
0.202664693436285
0.030421996902246947
-1.133553480129825
-1.4995396484361034
0.12417655948160132
-0.36266555422569063
-0.34975650060483504
-0.08517126786978177
-0.5684042710674825
-0.05980535712076341
0.2592204647841513
0.882114130941145
0.11513129574604794
-1.4132123091524558
-0.8911433529719727
-0.31988440713927935
-0.5395882221264046
-0.25143752329695507
-1.2752594824290617
-0.4162232841742434
1.1913031454039338
1.3661856749919408
-0.48975808266575765
-0.9089449907394512
0.8274136554276538
1.6354846933269407
-1.0799304968547316
2.384432297184177
-0.6196256677141786
-0.26308481803432093
3.0270475574037032
-0.5346142786897382
0.15634940795094085
-0.6138450429006183
0.023543607474901265
0.5056518166038304
0.022677859432465076
-0.6723512653651227
-0.3324893117423328
1.078105678033412
0.5209771013702865
-0.43431198229352935
-0.11933620177838031
0.48146084487900226
-1.3075734319720858
-0.13844430159819907
-0.704086253024864
-2.1365578092779236
0.4620163148008697
0.6116592976641859
-1.2018868380092318
-0.8798398539541855
0.2865877624963079
0.5049265287086062
0.2544904818652634
-2.1288183978721484
-4.619055833522248
-4.938326620865096
0.36095222453654197
-1.21360556413724
-1.0050401468220855
-1.1684429508532126
0.8897833402641303
-2.167598981964662
-0.14233872244351736
1.4515822316811913
-0.7270428631790484
-0.3269964702047435
0.7310745174243122
-1.3789548047353046
1.0800288137284286
-0.0340619110724717
0.8936702884961333
0.5344485816091668
-0.9908113728961937
-0.4296915014237519
0.2725987098018443
0.10770983107306946
-0.22668591521494344
0.8098891081439985
-0.04807157474459964
0.6905086132186385
1.4083493280765864
-0.05008336814567532
-0.03563745617318564
0.716697143474522
0.6711488446256424
-0.02401795130287098
-0.21653631662299735
0.27232612046910537
1.5909814780823692
3.27297318509384
3.00003762654021
-0.05388434668483422
0.7184922824743067
1.2065833921987839
0.6566624474458912
-0.6594049848782395
1.1957020742580935
-0.26394850845974005
-0.6646067979321614
0.4085947889086638
0.19603184245696337
-0.364241276327537
0.8741400352608206
-0.6870113646161875
0.06488178319903846
-0.41232350718400607
0.04435808807266221
0.1895212739445332
0.42200277655142976
-0.3359555057197783
-0.09786227462604026
0.7875698817964296
-1.5410433066231914
-0.5969501788088756
-0.41369056593984144
-3.0742065597375063
0.8291417201317859
1.2212242678112697
-1.801225016758781
-0.6309228648256464
0.7671964892288261
0.9275858444775767
0.7445354066637264
-2.3958082009657815
-6.440782431660814
-7.442631197691777
0.668752144431849
-1.4716753637010451
-0.26552715879091987
-1.0605699610063148
0.9410138393148596
-3.68205088043659
-2.0002939257113024
2.545810740982597
-1.0396743559613975
-0.23667529477365318
1.149212393472849
-1.6868194174490347
1.1736084900877903
0.14449532204348892
1.2479879182029348
1.4098541196949121
-0.1767126332366306
0.2688206175356343
0.4059807602595501
0.08476298757230262
0.577804890348944
0.011085112073520588
-0.3901792162923062
-1.067223675661764
-0.4062831620920199
1.5926798907633732
1.4846003026096668
0.26171584826411753
0.5852498741755222
0.5898433264419566
1.5249970799095185
0.5212095960783462
-1.1999378249825194
-1.3343651005598716
0.4952327423673518
1.1079688695318677
-0.903824435722749
-1.8005299810786621
1.0915277460365878
-2.509385384810235
0.8084138257247314
0.1435561371290439
-2.9832150332500613
0.37149157322651
0.01789383075611466
0.577672516735084
0.46302124854774007
-0.41483937426527234
-0.0698915429897706
-1.0738457836238566
-0.4770631314419726
0.7185555461916754
0.44779618597831133
-0.2268628413278052
-0.03202502813270935
0.25664531100861737
-0.8297817865656755
-0.015517953704460213
-0.7086652197305722
-1.4105475496566555
0.17865642923329655
0.18625195844103812
-0.9802737423047668
-0.6447768304559645
0.09443674209659113
0.2881203743718324
-0.0641647877731233
-1.6292495274504948
-3.6085850561450017
-3.396045123308895
0.08560525888816617
-0.9776890327951593
-1.1750250911455513
-0.7857610898277849
0.5167768023334823
-1.3258277696836922
0.21128005934275687
1.0456501154057127
-0.44602706586434393
-0.10593398600330547
0.2787340206374779
-0.6885406775335267
0.6595688379896226
-0.5002597838860213
1.2951598051559392
1.3263431981334772
0.07842759117581621
-0.06999053762143707
0.11078431092769533
0.10157966827205925
0.040280586595841106
-0.20225894287688392
0.2456730673869844
-1.4155864417816622
-0.5498826085870444
1.1790015962762657
1.0692425588518772
-0.15720358340165602
1.3646799206115128
0.4179644843479616
1.3277178769151166
0.7730956617057099
-0.6262112797291366
-0.8939253099361858
0.9354560938864883
1.6728485667232071
0.12581156362384313
-1.3457365491636268
0.20418230439147295
-1.8560455767268271
-0.4883121970859321
0.3895236686826801
-2.1895131025663703
-0.021610112711881003
-0.2287910106516658
0.29449029899738066
-0.08520293747103248
0.22683184514770985
0.03741775711540662
-0.32204139501786805
-0.45155807574505485
0.09643516396054974
0.19987429251499209
-0.1286083273592288
0.007512863449538931
0.04013056318631452
-0.13991724463041003
0.19653970886676114
-0.5110498525993187
-0.5757718729320256
-0.005652452499895481
0.03579230576765312
0.054091429082872254
-0.1467089779327972
-0.20605632675072824
-0.2121126932735365
-0.4404382633378287
-0.24462915983474526
-1.5817046353180706
-0.4949852296448186
0.24705280937440785
0.14917033902020807
-0.7447822173221406
-0.066386149887629
-0.9100290313043903
0.08288686909935793
-0.34950044859356827
0.8429717225809379
0.08541222119298585
0.29673756438388776
0.16505740064930635
0.28434711042733885
0.3539981116610895
0.24337328265545732
-0.8344904656917759
-0.6637329898202412
0.48820834944432473
0.7567455518814303
-0.20621186766308985
-0.18033979367274694
0.11580604392334039
-0.35440356835379266
0.2256299963641692
-0.5066868342415893
-0.648877951678275
0.013560794154621036
0.07465284112056521
-0.4376879918875236
-0.3836723249010514
-0.3506810411017563
-0.21306538494564928
-0.32178652818588827
-0.4358132199510086
-1.6064985610152809
-0.9126167382276252
0.2910547376814157
-0.23412553481097392
-1.1702583937628213
-0.9064122024782444
-0.2173401790391209
-0.43203333915741854
0.37151530088209583
0.6008376348430554
-0.1457033655127083
-0.30973691656418817
0.07560009158844616
-0.14965970551707908
0.3792895137736851
-0.08271771048174138
-0.83593517841106
-0.4987375224715367
0.6328709103894458
0.5841083547015243
-0.42737398145338973
-0.11955587033447844
0.5249513194721289
-1.2865600140908346
0.07814771061314023
-0.5353319891049888
-1.9300492619269163
0.6430702013082803
0.4690474458384181
-1.2429341925130803
-0.4565926856997224
0.23592107768713325
0.10746564165258826
0.6886973798329112
-1.8318216402197636
-4.661193474627004
-5.055858680609703
0.6428024859058336
-1.4965501900846638
-1.3373403574741085
-1.315098583608676
0.6180358531104609
-2.815742307588777
0.03452337572663649
1.22197136810405
-0.5580127508804654
-0.27799749203157603
0.7796012547348703
-1.318789246246382
0.874629971123841
0.44625276566965466
-0.48023998466684104
-0.13044469014119067
-0.2562850215106243
-0.2332751829426245
0.002583112358896324
0.2318305115292591
0.3895816506370522
-0.13848938433102453
-0.2403912759870158
-0.526675377573124
-1.2002938698043368
-0.09223321806086261
-0.5117096175484616
-0.47182620441068096
-0.5279349746918562
0.4776023283464886
0.4005209300324611
-1.5044649709342013
-0.9502683817735827
-3.1917435486837284
-2.472371719474504
-0.1338150643660498
-0.8949284411261808
-0.8151771610668871
-0.46901627739479446
1.4097158259477027
0.07725520570415906
-0.1437411820651513
1.7925555757116332
0.12984678313917117
0.060668203373014096
0.09875045187081047
-0.1460062622409339
0.5695379978133109
-0.027328677023893716
-0.4645661505155733
-0.5947278895017483
0.01974752283307155
-0.2763082007099736
-0.025078565698189205
-0.1214402581451873
-0.14528740018641317
-0.2238067646809557
0.40234233277694026
-0.1252823828708078
-0.6767207220815789
-0.3985778879093636
-0.33493449428127714
0.08967464973515268
0.25871752294042416
0.3106294070211788
-0.47748787035173157
0.1606084687909374
0.12109913658467097
-0.18473642867167317
-0.08846415296749437
-0.47851652755764956
0.2642541594595227
-0.35446389865729183
-0.8426999329156944
-1.5486391340711847
0.35476027658747583
-0.5275231622644144
0.9036034450276421
0.15934028549467533
0.2959035921627257
0.4440319221238777
0.760726393427898
0.44346468985869686
0.022402391156457296
-1.0851708742437836
-1.417722206643049
0.13937477577923135
-0.2658271969188354
-0.2450823961375812
-0.16267796037445179
-0.4164765943453687
0.03149428916855617
0.04701303008428344
1.0913678695469826
0.16959550828271802
-1.2178623922543141
-1.1358448625439967
-0.3849515034904849
-1.2409826924031546
-0.8182475169564128
-1.7091175141709463
-0.6753040849414385
0.9144617870474002
1.2589884450255275
-0.9044321578735547
-1.0042218032114734
0.8801640991389619
1.6015643402950472
-1.3504634930904917
2.190871345034883
-0.4410614062522512
-0.03984153670358748
2.571137820026183
-0.36188190772733625
0.2252849396012512
-0.5334746516377464
-0.08269749678438533
0.28849333014021794
2.7801009510493477
-0.6840574161497083
0.108596916617325
0.7492084874480541
0.49312224485680867
0.24775573223347855
0.22112826846163924
-0.3898221748419335
-0.038993802185110914
-0.17016726229164178
1.0035617568844748
0.44216444346368516
-0.8320741114464697
-0.5896283134301877
-0.8666331979389822
0.08691801672740213
0.7145181539397552
-0.7082070681689784
0.24369502339731144
1.439429856504617
2.187318904909851
-0.3121189556939941
-1.7640072961753823
0.6045109675511614
2.0377348548683134
-0.9650183533704452
3.690439368617769
-0.0794595693662975
-0.012009593240931442
3.2805492447610245
-0.15386428514140277
0.2729986109542936
-0.2762724363208246
-0.7036024157070863
-0.11209345193482675
-0.03979632477223051
-0.9746905334325343
-1.5926552123236757
0.29918900100269447
-0.3336011520696972
-0.4119125829225169
-0.12836776444921363
-0.818567619478817
-0.15394692643651012
0.27596807195719925
0.6992262700973993
-0.22797338365288744
-1.484324817900019
-0.6968625428361819
-0.7011644284167532
0.3434688382526557
0.14325777777166246
-0.8623590171157665
-0.30301703066097335
1.2011637111068616
1.9049181551653742
0.04370358961231572
-0.5649564909922798
1.1240486072690834
1.04149996266701
-0.9859299086333897
1.3643715844966229
-1.1903507669007762
-0.9199411500815602
2.5700458053616395
-0.511522094566227
0.040467886508834434
-0.50687178789488
0.09256019475269552
0.4603723933518146
-0.4459890752929573
-0.8007509767980542
-1.4310219884089828
0.5340068727590119
-0.4186031148281061
-0.5384145634411285
-0.1905958667653483
-0.9684058785798636
-0.09860795513944547
0.43406989941325
0.33918054209982945
-0.21312457179005007
-1.3075358904750272
-0.41146689155003835
-0.5238132596380524
0.7822317026651235
0.3123475203245923
-0.4170874092226244
-0.09751725704634842
1.2512247883717211
1.8725970164313666
0.18051592459908877
0.00415661320202177
1.4194380427736133
0.9477674569580549
-1.0059727827660216
0.39049011555615915
-1.5389972572021755
-1.3321978658236624
2.057352725111915
-0.8689944440807796
0.2072769462936689
-0.5911509798930417
0.3029738413251411
0.8592499834781944
0.26500885324969664
-0.8480503255521958
-0.7652848180013468
0.5343003325122133
0.8945070822582901
-0.23689976418914788
-0.1891531530741867
0.14779768086873968
-0.41174626209499315
0.23968869138536097
-0.5010270668969532
-0.8559216511124361
0.02652161837231614
0.033474964258346424
-0.37375288281110103
-0.35117041313391534
-0.6560728167669708
-0.19384196806346646
-0.10099533108317017
-0.6153983278426554
-1.6564645769789916
-1.1562645437013692
0.15325921098815684
-0.24156959832714317
-1.2160939490741765
-0.882766729851994
-0.5544334325692031
-0.6730238721776834
0.3320905570260013
0.8393063631436477
-0.21135367529561905
-0.27586560061867627
-0.01544720326690313
-0.20521587973816502
0.44500075054029187
-0.20215831194252248
-1.0547059030992638
-0.5437002238794787
0.7973903894110572
0.4034933775420521
-0.40722425876130125
-0.13402339844685557
0.47456868377988554
-1.2402232564384714
-0.09078853188351345
-0.7096320024632918
-1.7375397317337704
0.24054439134167127
0.4625382246744572
-1.1121315577418263
-0.7853746306491565
0.2160230940913441
0.3168243470359353
0.03843606880800286
-1.5567394307538804
-3.7754189478785922
-3.6158425328171533
0.35608055084670354
-1.196916026365834
-1.0747787521525687
-0.8531063057244643
0.4013329931219565
-2.054581683105264
0.16881620879655096
1.055483139529602
-0.576184052758685
-0.3302850410480113
0.4923933802615064
-1.1160678774923307
0.645449518992688
-0.6841628729731427
1.0450330190001607
1.6071753531558284
-0.04836471615072528
0.44114528327788644
0.21030573855177742
0.05419834189801683
0.6294647418235686
0.15391111511162014
-0.21758798038078678
-0.6645456464828948
-0.26697753476081365
1.595727087768807
0.3876309780176906
0.8220598485879227
-0.49169324636215056
-0.3210074625608529
0.5064605840080716
-0.3616149972070767
-1.2506748596538173
-1.7600885652009213
0.26837741364705275
0.7391897259033433
-0.5533929939393193
-1.205741904868651
0.7544493071847369
-2.5146592083076977
0.6295745530313206
1.4029711749140537
-3.141246629459056
0.38197165761742286
-0.11389461332107216
0.2024302956451399
-0.02508698455423612
-0.12630128247760788
0.07463776854780636
-0.7514320114077089
-0.37117918940920613
0.6704731018582402
0.26779399462880216
-0.2643939641506379
-0.006221689725628766
0.41128535812644196
-0.8278474851428368
-0.09990010107406419
-0.7207210250386847
-1.9220806331695566
0.26893525174154037
0.05614275085543144
-1.1864854043396265
-0.7544174972551654
0.36104577713588804
0.4925168821519944
-0.4730494064069178
-1.7681228768336266
-4.53277733928405
-4.862497141436231
0.37397077639918624
-1.0912791082720732
-1.1149650323217584
-0.9397187367210961
1.0994215720740905
-1.5854421941833714
-0.3530579186122369
1.5579266570213217
-0.23423967608600801
0.01168248611018751
0.33886239547359726
-0.937361183706783
0.8933431450345874
-0.45608638934721835
-1.0365413685924731
-1.2967132318454804
0.3804368757804648
-0.0624293490207759
-0.4389428671472497
-0.18067564093934194
-0.42596804517155096
0.03510628719679883
0.1891650881750952
0.9125269388969325
-0.008876290054787763
-2.005265663589592
-1.6528830267520633
-0.3947580990325023
-1.0209707932793413
-1.1006797590043575
-2.1657039992531324
-0.5938823037095967
1.204811324715536
1.4392225171440605
-0.7719172979411727
-1.395429200430573
1.4057909316476982
1.6501082820549173
-1.821225134086384
2.784519435248756
-1.147137714372159
0.6000130330668827
2.4520784281352266
-0.4062814264025989
-0.06708996648592702
-1.0289316476927421
-0.3165230616162422
0.2610644326627523
-0.6554867138733051
1.5880376293812066
1.422456870605019
0.06902766565173848
0.19602561193488258
0.10830515844748372
-0.02868305811406095
0.46654907805728413
0.1314565548091941
-0.10915643514987312
-0.8346124713104969
-0.39258656249796225
1.3554804448212148
0.7876458923277108
0.4588587417322371
-0.2884390553033281
-0.4509264587872427
0.6223111379755111
-0.006485771678135408
-1.5477538554616368
-1.7632084453974675
0.5012627348913606
1.2622588155902432
-0.16436067837379456
-1.5133173344130408
0.9620310001011987
-3.228121246729277
-0.04330398615060858
0.9420239395126899
-3.4530437925239066
0.3527973267499141
-0.22874066897447703
0.14118816967423936
0.13625159627815958
-0.11666040127716584
0.09704833378794664
0.8190588381901533
0.26661562593818006
-0.9482470489237527
-0.5007361298782956
0.48638700919617184
0.09624558381176224
-0.5716983032153047
1.4216847361298597
0.036619763147284864
0.6110275542447876
2.1725337759066083
-0.4212104820096398
-0.7740054009173474
1.1209483331582097
0.7722071014184954
-0.40049668419860546
-0.38516876154043145
-0.5064656374527817
1.9191607298618099
4.490622281244418
4.743069588749617
-0.4016619502020874
1.3336550880446578
0.9635293199533902
1.1981135472405395
-0.37743439077464597
2.503511673571115
0.10534354009269029
-1.5291050593326816
0.7920020428102479
0.49987972296360583
-0.7580472219274631
1.3479707761424113
-0.659803135387851
0.18467317100257058
-1.0640475812388879
-1.491066502806689
0.23661385692961182
-0.3779711674591882
-0.2539888898489885
-0.056866515111762266
-0.6758010676562352
-0.13267865567833148
0.08085468299990117
0.4771575268562225
-0.3093635842627312
-1.1718910491182362
-0.42000308283289906
-0.6505690009973053
0.24473118021904827
0.21617439053858722
-0.6408908847096866
-0.16408088182345737
1.064590565260287
1.7307957664608187
-0.178664480292857
-0.4155494836742681
0.7960591525917163
0.8507214747334143
-0.675602903503291
1.2748556118299297
-0.7953632055092802
-0.8438032982355944
2.3221743689457743
-0.3322549551915821
0.09176772230509746
-0.3968065848818338
-0.09554858974045446
0.30100161933155817
1.4777671177432041
-1.4939002745610608
-1.345254281029361
-0.10659465326051251
-0.3558758475700088
0.13711360207365203
0.2257587181673156
-0.33641409494164976
-0.0964526429289444
-0.10252368843295875
1.0044336962569302
0.3617724214746939
-0.7200190596127177
-0.34886563988220903
-0.8762222478819515
-0.014660176169207955
0.6895217137853777
-0.42146809764092447
0.3146826774645364
1.157887650235517
1.626517908128213
-0.4208891510554501
-1.1586676405810847
-0.14866862113882362
1.348667607285148
-0.516184006909515
3.0073138461814706
0.22073799994952334
-1.2649415179515424
3.640974462976038
-0.12081201397384364
0.10587219758016789
0.21513424201034956
0.05059811277787651
-0.297659274092137
0.9491070931150069
-0.703538588047845
-1.320243331587829
0.36288679657473666
-0.47660267815665164
-0.1188420978415161
0.12438207914314361
-0.7923860308725423
-0.18329976131253167
0.21568454604191892
0.36928521657750996
-0.19579083345719062
-0.8794102606609573
0.12968801805827931
-0.8445770241312784
1.3403582185814202
1.2072909498857582
0.30329782496877156
0.6955279241293733
1.2855983264032345
1.9545075283799538
0.3408937074128355
0.17730953140874678
0.5044354895376352
0.7685196890852909
-0.6319503267628811
1.068081530460519
-1.3285423985169733
-1.979342233605816
3.453066130002218
-0.7212630262301812
0.06696687342991049
-0.08402828325761184
0.19296924800520807
0.44607455812637586
0.5890891715556397
-1.2203980418894054
-1.579047290200462
-0.0774858716977674
-0.4020487551619467
-0.23337323209475186
-0.04276216304364644
-0.5244264769336763
-0.0890014564717722
0.14978836775482737
0.7010425799877034
0.32200298572457403
-1.2029126162421722
-0.6179308303911014
-0.6442963918156037
-0.029147170311797525
0.15534462607319444
-0.7527325507182484
0.10779129142569108
1.1746171711561637
1.4187118397180258
-0.28369449865039326
-0.7495271782467302
0.554129913303154
1.4713806038754007
-0.6991398808898988
1.9973335492542472
-0.4678736660817614
-0.9545117560571745
2.919263659160674
-0.3541366551513743
0.19318493368284498
-0.4126225061345474
-0.0882957302331149
0.33889409470770415
-0.06118363606174163
0.8172829365393177
0.3768493988428156
-0.7466543282604273
-0.4805004994165269
0.22296854214616899
-0.015599169566314656
-0.31651059756442534
0.8894562139564762
0.1648607195735574
0.7547159407243411
1.9647998656458376
-0.1147112361450208
-0.2565099004650325
1.042276710644317
0.8258938345023705
-0.15518561326655006
-0.634936168672536
0.3731293653842437
1.865303195085244
4.269483771586846
3.913556189864046
-0.15241669449372502
1.0105769440969221
0.8466451000174671
0.7717602230491073
-1.0735003934391236
1.2329505668945377
0.1307617477812773
-1.2767273337151865
0.4555544152748561
0.10031372311334937
-0.4767166079565045
0.8693215570113326
-0.8746418872574789
0.8983476283042091
-1.369734055878275
-1.5135529245612191
-0.2419140572725187
-0.4834650549090504
-0.0509559318842731
-0.012935477594477513
-0.4397382174932347
-0.09802966671099668
-0.08453280768389752
0.789197059437222
0.39274964224720516
-0.9403724614523699
-0.29199745352460155
-0.8651281382333781
-0.3466002840873704
0.12464970918374697
-0.685623169954184
0.44764995648408384
0.9716152649330609
1.305597206651361
-0.36337242462522484
-0.5839121629769632
0.4085376120879737
1.1545157977787592
-0.6214428761841877
2.175901383830202
-0.0026682835113380683
-1.214861704014907
2.632533624958533
-0.12564197119703813
0.12143366584965203
-0.08358728884186162
0.012681482423571163
0.13192227544623936
0.6608998429513727
-0.04479447051405068
0.5087364433920841
-0.5146320372289753
0.17181921355433633
0.8101005936778212
0.29588141136781515
-0.006509509071928114
0.21667412510110282
-1.1177491103203288
-0.8121266433514888
-3.63797054901864
-0.3946449152188274
0.3917532995629886
-2.856577908332452
-0.3998551023768981
1.5387379102357979
1.8834365158164998
-2.8733622434666075
-2.722289527331636
-7.304017522625074
-5.962543491728542
-0.6415894245475453
0.5569009703284552
0.7907723090216562
-1.472543308301162
3.0122880469307627
-0.019156664365126752
-4.2525342104481725
3.6382533090352194
0.6282099371243154
0.9586750906586212
-0.3279759009092901
0.9410890614813029
1.3125679362455684
0.02342899616498969
1.1150368313813266
1.5394091987522198
-0.15849662965945557
0.3451414414700526
0.3587478279234179
0.13740593064332793
0.6623606076147045
0.09890215054787757
-0.25927621296957004
-0.6794243163196115
0.07361300379361115
1.4127346939579721
0.9325824004749526
0.48896147390617273
-0.001113375393307894
0.2474901903003645
1.147000853372115
0.3425219203052946
-1.0646435631500315
-1.5756474248860532
0.28495024282151626
0.6792894414282985
-0.9375382741947932
-1.3543229020645702
0.8771789892384318
-1.6945965647633763
0.8600972595329969
0.5276441579515189
-2.5561033200551497
0.4997301095625321
0.0645545079655932
0.6066596822339754
0.014365003787534325
-0.35346964846279283
0.05892244181533638
-0.8973118269949444
-0.47867606200044477
0.8420600513673586
0.5076059912994934
-0.2850172710048562
-0.0634281899005983
0.3487381001063806
-0.8992392783515165
0.08883735401293803
-0.6893786989201813
-1.615017552028161
0.1107909122992098
0.25158725182502817
-1.0113590643486838
-0.7234051746042743
0.2122712660698962
0.2776142011485677
-0.22469644311040826
-1.7038555924213246
-3.870162507229718
-3.5633984743994587
0.29459797171420765
-1.1558870380569808
-1.305108908253592
-1.0371892049801579
0.9350744777898454
-1.4841376362911154
0.17208725660676347
0.8800069359284658
-0.40601542950650715
-0.284664375525081
0.3467524779820792
-0.9709357417087602
0.7701670331067394
0.1277295209893325
-0.46971146267456215
-0.06382913923493856
-0.14479289820184657
0.07122790316647454
-0.015393608322116309
0.11924576396221105
0.48964778887092114
-0.8416767744170397
-0.6527526493511828
-0.26005118981392766
-2.9673596357784686
0.14403847587351318
0.5146559298395436
-1.7823080705972445
-0.43699017019069114
1.036472791849121
0.9759957591927272
-0.7848955785015522
-2.2973717164637915
-6.331276884498582
-6.2901691778926425
0.17810054213312357
-0.6040835523404543
0.05564864967955523
-1.251849154327662
1.3566816991662425
-2.2794696988530196
-2.0030085416829344
2.5777576613668574
-0.14369759639360008
0.05706440262168602
0.6284611556504898
-0.8581869155496716
0.5854797838228047
-0.07822110278110266
0.8756486653019132
1.5183129676522293
-0.2893130700054799
0.4422436422543245
0.19188474303757275
0.26967419081243865
0.7087722074717019
0.16988908196995903
-0.13303322219567648
-0.6403577384557775
0.10097497051957621
0.9833928275064416
-0.013842702527388858
0.5429956977466188
-0.2601186211451753
0.26021510882334753
0.5780179303424832
-0.40147845512331226
-0.7769419488107993
-1.7039492982699513
-0.3102301893507138
-0.0772295078263435
-1.1669065670072298
-0.8124669484383088
0.3240960613729774
0.34355580772943356
0.8483676507324313
1.355210141951776
-1.2415749421002598
0.6945758956335716
0.061191410118041314
0.5717566790426298
-0.600851521542627
-0.2642559535075357
-0.05100103237951664
-0.5468019379329536
-0.13944577055877663
0.5410509073442189
0.5453669025287585
-0.5791681326423587
-0.03564644729295651
0.7818863863820177
-1.6890402978966903
-0.41209026263254683
-0.2812585106493465
-2.5914619036098143
0.7367875155492876
1.1602569239820715
-1.3044774560373813
-0.7297279000873282
0.8492618336058291
0.5600064639915187
1.0457145167129676
-2.0876636772594055
-5.169310884902197
-5.841504683891368
0.4980123873690831
-1.4231310735697738
-0.7671286756259938
-1.1777681791019161
0.175204860100319
-3.5710558018816085
-0.9943660363024434
1.9760253151109974
-1.0214981581871672
-0.4144529280817949
1.047043094215566
-1.704578665981236
0.8498250749742806
-0.21529890507193913
1.0651511021014402
1.5369431218877967
-0.3008419926911008
0.3591947399165359
0.2247760504283253
0.14820662390518916
0.6216239587955852
0.10113560113284173
-0.06366770061849698
-0.6700945710610318
-0.14268288953477634
