nep4   2 O Hf
cutoff 6.0 6.0 100 100
n_max  4 4
basis_size 12 12
l_max  4 2 1
ANN    100 0
0.5896547230594834
-0.0324621145228354
-0.06391850235937598
-0.22912914629046505
-0.002746843247660608
-0.4168648131157243
-0.7667500897797678
-2.0530653958095275
0.15175082882286411
2.0291663693174025
-1.7909368191940738
-0.32552826039329047
-0.029018964479335257
0.725319962298157
1.0490454856473541
-2.2697560735010094
-3.7648051841308807
2.0136582277402668
-1.7002089009690349
-0.3896767389501749
-0.7157838971900784
-2.3303945734533587
-0.8200840111271781
-2.6712793539804984
-1.6370964642257604
3.5081220081875424
-1.759238931699979
0.5241670991268785
-0.7640787675699998
0.9635979936210497
-0.4747460350688484
-2.1229667356323207
-1.656102909904218
-3.43528245317317
0.07300183019831148
-0.5983627551906219
-0.2801155017204806
-0.5357527191538254
-0.5412865103941502
0.13074473515002596
-0.3192387208048199
-0.10734472132967023
-0.5823578966629381
-0.368412488935828
-0.8491208703669448
0.16880534512423084
0.5404751698494437
-0.31107493854810975
-1.3969881243796605
-0.8023634472303781
-0.9034183688433538
0.5363043560558055
-2.4555599230207528
-1.9227173476595742
-0.3017922411386986
-0.8396592594674539
-0.3202417851416088
-1.8093863601689142
-3.0188488385939665
-0.09954524847949692
-1.5719589539982937
0.8909967885522145
0.037810004437365895
-0.1436014810608933
0.4221285949667891
0.775672956162163
-0.06456813527175007
-0.32765036107223794
-0.3146122943538895
0.9807190796409924
0.013210905517421384
-0.08437201529788153
-0.006552430875498025
0.15609206564376943
0.4435371529528386
0.5002684287953537
-0.03444748802814488
-0.4120225298463167
-0.6845320856391756
0.1909571806226359
0.4954353153810282
-0.07421548259521099
-0.17892673413311916
0.20011885437638846
-0.09980520059766232
0.5016052778065249
0.1042014139504213
0.14926268562090667
0.7750535099183433
0.4170385918678692
0.2961289423843592
0.7543555887371172
0.03688215968468095
0.5695876911499705
0.64973525822642
-0.3752834733271128
2.8686383680299734
0.05479998614638507
0.34871634115067884
-0.42062125607339224
-0.6520346632918628
-1.1138931974607262
-0.4306212603401697
-1.2524973354145978
-0.43953011279056414
0.061592956808086054
-0.0765446494255321
0.9489638089320895
0.8435449362952158
0.33251207034318975
0.34595120727553874
0.44068137184075773
0.09969927592078286
0.7543769613721419
0.6202564669557061
-0.3590718815784904
-0.05418909773297809
-0.3127918240535357
-0.22463936901464204
0.4674235646064583
0.24487049551646556
-1.0485547898697536
0.5065791396973838
-0.2775973509701168
-0.5867224399117725
0.2926084860783602
-0.7340888409999714
1.2943438149255941
0.48940082477852676
-0.4734276112527521
-0.730276184693777
-1.1891323002067964
0.04306326535897151
0.036571117955646326
0.1345533945973183
-0.11219378768459765
-0.0977606069169971
-1.4137156866241942
-0.04765246750619368
0.10944331891915841
0.4285998765086056
-0.20804210103200058
0.4639978351794475
0.478098493379235
0.8405319178109346
0.4856762597139447
-0.6858002640983745
0.4518081209100157
1.187007238555238
2.220457754107211
-0.9550546063981458
-0.9631041925834406
1.0987820659567864
1.155479583724916
-0.40105793036387144
1.6626155140960226
-5.280195075590609
2.5028323659366127
1.4464244297151152
0.5442323649486309
0.4388578458978839
-0.28214763496870743
3.014338770372776
5.277687149682608
0.6547309920457262
1.517508503568732
-4.863963956621684
-2.8209160074765407
0.005897803362521742
-0.18582814166519854
-0.8870194809554518
1.156795241445338
0.2476369261309052
-0.3949403236625294
-0.5807707796472615
0.6069236374921939
-0.003645943632153484
0.5087030945190805
0.19522075136281802
0.09192119960420325
-1.169319558118167
0.48459202781326943
-1.7031954963337252
2.102527495615793
-0.6733635887439143
-1.3161870744062458
1.3881277092066644
0.16061853098575782
0.47205912285822244
0.008218712835771441
-0.6688574139491726
3.5183206088438923
0.8316879857700161
3.6830249104850767
0.5285300246980833
-1.6262888071621366
1.5629074270613363
0.8073164958739437
0.9401217156214607
-0.6592080473176798
-4.0179123070273475
3.013366434709647
-0.7683682898639927
0.6109589061042432
-2.075365572877045
-0.08768941150296608
1.2354522261654857
-1.6458877596633281
-0.30066077100208516
-0.0008901754593185283
-0.13114696479372198
-0.6244167343891137
-0.26662479429931935
0.24106456638593055
0.01109760301752272
0.37036013814311264
0.22572581101259118
-0.1415488618699031
-0.4070633522683622
0.03741451465269666
0.5236715258050597
-0.6080585523888851
0.16199890594981384
0.146718112825726
0.2798606106975055
0.4748629268937671
-0.07616428604342182
-0.19266933533052338
0.43505321983918677
0.40777752653599536
0.06888798983526068
0.3968828162308589
-0.3929824398102599
0.5696892393379183
0.08981772880041938
1.0377703224683426
1.3982377885850357
0.5474632520926314
-0.18212494611524088
-0.31239199763961617
-0.752906687343394
-0.3363566978133018
-0.7359276714016977
-1.2315591201369565
-1.0814398773892224
0.10281916874367085
-0.18447800964691563
0.287401911112828
-0.06267613139673622
-0.3583036126791722
-1.0734183878027401
-0.07266472273163038
-1.583800467181307
0.5052372276696501
0.5002844815074022
-0.9454961035594199
-0.20338312848071766
0.07259278662898802
1.152567196173979
0.3354298724217234
-1.5626055110681178
-2.6682887541807334
-0.385478864374155
-1.5365963134967877
0.025853372658146388
-0.5240119697974678
-1.7857411853948202
-0.3973947111071571
-1.2943776483053224
-0.7604158316038658
2.039780523517156
-1.3153328759307448
-0.4490027130734885
-0.37320305417942384
0.6167992088201385
-0.8117848853664431
0.4951395074651959
-0.2908218878816869
-1.8504595067681247
-0.6829858895529012
1.1456263621241856
0.13955797533595052
0.6103354314366503
0.6721528377815352
-2.2476211304616593
0.4182700653967328
0.0879417422228653
0.621204865069538
0.013002424613167182
0.49803704714531855
0.0735959738498209
0.4982931979661758
0.7671484921364317
1.3276276370695164
-0.2847818345852701
1.2923086906246215
-2.6778374824288855
2.1618375551105307
1.3326877010841234
0.07765083120108938
-0.32759181913777674
-1.3252656861809344
2.1410956886667902
0.701584624570502
0.4687994851003724
0.3867343891776437
-1.403362274934226
-2.165149481203596
0.05942800109670104
-1.732950750829122
-0.7429404409453945
0.5382185226216405
-0.3633941077100169
-1.839468011323915
-0.778682960540715
-0.19493494554521373
-0.06038423075486705
0.6571065330461848
0.7935536028125303
0.13500900779240982
-0.3769846923751855
-0.11973900787023373
-0.23376994278925167
0.3892733586018565
-0.0307573502276794
-1.3841599994790446
-0.35461556390716753
-0.7341301004583239
-0.9405404994448765
0.2593483885852764
-0.2643714956827585
-0.7731834449127375
0.04532138228875534
-0.9630315948769077
-1.6993031749205303
-0.2578690603536833
-1.7523882865309703
-0.06475613454137819
-0.46261401763831766
-1.4129058924746531
0.23426981395618376
-0.16645096146693797
0.4718054298284164
-0.07826091716339965
0.22591549311654407
-0.302079776153892
-0.2614134646135538
-1.6732632929325075
0.17337135151923888
0.09127177659789357
0.0412163967962233
0.23054117038354263
0.2563491099980773
-0.3010754983525631
-0.3641734593635247
-0.36491528977644827
-0.252145735451336
0.32954001280697487
0.7169644245803118
-0.26808897488952615
-0.664095886816673
0.34301202676717396
0.04026001767638033
-0.16087668365272428
-0.21250901478130543
-0.5749782772430896
0.1857094804072119
-0.4336398659503392
-0.6195279367104755
-0.35782392377643596
-0.12289051685005181
-0.5947738916986159
-0.24346650475069648
-0.4765740851939021
-0.5391204233739877
0.044351781370741195
-2.2271289665053056
0.19124537608604594
-0.1399126164328473
0.15337065048904758
0.5318566125667263
0.5674675238097383
0.6436653907868052
1.0314850364894468
0.610500591453923
-0.2173418966688969
-1.064137129587506
-0.13100447285778655
-0.04352227682777067
-0.47881780571855204
0.461193046494415
0.13468050912415605
-0.19716169175870107
-0.33880369687124473
-0.06610107671810891
0.1324541461588508
-0.04452217495265964
0.29112674474607964
-0.08609425619076837
0.4895790843173071
0.18134983161527615
-0.07252733752207212
0.2175206306620941
0.3616942982918159
-0.28246755592859263
-0.018939498748564418
-0.36181419825349065
-0.01024533329606206
0.8722429882052823
-0.3993330643219434
0.5415778650623306
2.1337028349932674
0.7967366827777951
-0.41582658315652543
-0.11093275990394225
-0.6286615220923543
-0.6776181759049099
-1.7129277113610282
-1.1637643111798586
-0.6776265758059411
-0.15677360414457506
-0.31869013179998384
-0.17324326249577718
0.08908949949790419
0.2766210741527033
0.3406446251218635
-0.02231285088821572
-0.18821857229122285
-0.5189486713913448
0.22181931316119813
0.4469145957511206
-0.45781730158535544
-0.08977408953637302
0.26358145192558086
-0.26628210187873774
0.7538133288234211
0.06129036102090173
0.23201256613010693
0.7636865789027425
0.680453355467324
0.21691947512158163
0.7179230689416374
-0.27046577988435105
0.38119081849801273
0.4948695135311157
-0.23906769171166972
2.257744151316049
0.08528214702339933
0.12985101190422035
-0.16705120235536122
-0.8515061729561652
-0.42914398152535466
0.09238085681168486
-0.808725943967501
-0.5094473330051296
0.15734431047459357
1.022309337578416
0.16539585452561548
-0.18448281606548889
0.1298784285139361
-0.2970311979708934
-0.2149864162803968
0.06925873628347959
0.20384149021294798
-0.1323979761214612
-0.18449841959475663
0.2320168968262215
-0.1187673857507377
-0.08999305648205153
-0.34717246443044614
-0.34373994465088276
0.22331126319055367
0.0209844174899459
-0.38887690604984215
0.17475785149776027
-0.2597319690945089
-0.37965324057747357
0.06082714792349424
-0.45109410989704196
0.4718096909233201
-0.33690051808766475
-2.2673501381549825
-0.7170722729269
0.19268198441457246
-0.23868815539117375
0.8387908106321063
0.8732725445331556
1.4202926010306465
0.8192745302269787
0.6331886361156943
0.31597863579787644
0.8752154243264685
0.31850372139286925
0.008804528859242154
-0.07315241254799865
-0.3293151621039131
-0.13737296490926862
0.14843018553512283
0.3965917079442539
-0.07667578026601679
-0.44933648911019436
0.16575219474947706
-0.12118785146470235
-0.08806444167869346
-0.2869002168222279
-0.5259572416630753
-0.08607523107693212
-0.05688893589833273
-0.3312499217610005
-0.3920719962791293
-0.05513867781191303
-0.7853940415049604
0.08762352173890016
-0.5084146085636406
0.35013143076061526
0.055142643966676126
-1.9702034928933119
-0.997191315682432
0.3033711955385977
0.5255462345865864
1.0482993241489047
1.0079747011163966
0.5011336065147748
0.804703078307238
1.071913226570062
0.0625467570716074
-0.23836620187809926
0.29277469861033467
-0.14810452862949716
0.5350490151076829
-0.29815714266268256
-0.10710862178387671
0.3036124429507046
0.2748206844669665
-0.11497182633324905
-0.13979042140250117
0.3798794252676093
-0.23577559504179318
-0.02969905884983481
-0.41912473605570705
-0.37402300036407965
0.0014523216452091362
-0.44903764817046343
-0.37699466376191565
0.26119383060415974
0.02504561176542171
-0.43932498023584293
-0.25051131760805484
-0.45532282564427345
-0.012088311079717329
-0.22381353964138334
-2.215310750615215
-0.6374020434603682
0.20730801153264572
0.008004657993794692
0.42451790753167284
0.619000278775139
0.8139655875303347
0.76013078997404
0.6245191190708574
0.708467283841862
-0.021176593074159283
-0.09479876458758026
-0.33365149363932073
0.11786959552562241
-0.3225035830912221
-0.7806474193321087
-1.9227644688243284
0.14677273740573948
2.184739519549696
-1.7906970019629698
-0.24336545965434236
-0.1014675231002523
0.7108825092635557
1.0358910359366609
-2.087116499271232
-3.9851124958195143
1.0839875353539674
-1.565719569007811
-0.3895733110415769
-0.7266420474222688
-1.9667942560125213
-0.7783028879739068
-3.051238130784092
-1.5491890780518738
3.572936523175624
-1.4569064270114347
0.4505599927629186
-0.8073798219254619
1.081007433425232
-0.5472079261098958
-2.0926654555942066
-1.5751094454628884
-3.445137826125528
0.05152290409495056
-0.14095636038665169
-0.02770117944732866
-0.1645754808387543
-0.3513578456073126
-0.6637632192045934
-0.43957494786228374
0.008041211030180148
0.0956153274020961
0.5732151536203437
-0.0035252138913712504
-0.2990614586058924
-0.20870519916090022
-0.2523880151240884
-0.03878813210442502
-0.31197549804934543
-0.11464376800872117
-0.4009662904749212
-0.40993297482338936
-0.7564571937894583
0.369553596109268
-0.5170476836200649
-0.6057508601621564
-0.4408301580221159
-0.5921216124751545
0.389282194302009
-0.10078461157454778
-1.5254185644569018
-0.12184628660379264
-0.07237380636594101
-0.3099159190497863
0.2848964756086817
0.8410435888506322
1.3396015649815107
0.94894200051876
0.6769167707301793
0.6757157513220909
0.0044582100378367405
-0.11336417550778705
-0.27892304595326606
-0.13539608976401207
-0.5170244481929304
-0.48266917940379694
-1.947099192065873
0.3672434844564681
1.9132943617266336
-1.6288804553382694
-0.2895723208857713
0.13354990504008282
0.8132956302765945
0.7948936058925767
-2.0787244094149213
-3.741263221547703
1.0819979989747595
-1.7566152573273994
-0.35907938983454657
-0.7425744431115114
-1.9406250038386266
-0.4406229402721115
-2.611769305718117
-1.708477914343622
3.799405569535918
-1.934448730521762
0.4560372935541506
-0.9904069034286057
1.158338213112783
-0.5529357725612395
-1.6336355613896452
-1.622111243286628
-3.186060635341511
-0.1517092134826724
0.06529249113297343
0.01917755701637992
-0.002517623830232421
-0.38074444511420436
-0.1928650235223053
-0.4658740609351714
-0.09794249260238296
0.3128683862733062
0.6957930249351906
-0.10211077829494031
-0.3743976185302253
-0.18917792934025018
-0.04721045497975499
-0.13909491876166838
-0.3456662339234034
-0.18018558787057173
-0.08062695281096936
-0.08716933208524737
-0.7568022663871488
0.2751363418193525
-0.49421934088644975
-0.7040843933107948
0.2821826400075619
-0.6711119973502414
0.40797210676152373
-0.8322095562224747
-1.3669123419515492
-0.48986688030168596
-0.19833867497589955
0.3655748159167413
0.3714504562933104
0.8594135566134319
1.0988184191526529
1.0641975388410063
0.9910772150419421
0.14326951289683545
0.36166593391141993
-0.49068016890892435
-0.14268104975513568
-0.12343008810560564
0.9303544082644231
-0.5100510437171948
-0.4805698211729394
-0.9826635719948845
0.24789824268923238
0.5051756256554032
0.3467655597832059
0.1369385535388212
-0.3256811759589016
0.21155077712992354
0.8976777849009223
0.8828127732340411
0.3005403319475114
1.184235615659402
0.502885396782239
0.3036413076899898
1.7986541783629975
-0.14955997909183413
0.2973984331785511
0.6616795121429344
-1.1300879967631827
1.3299829058120813
1.1699056470330504
-0.10123908768893355
-0.36658938685417997
0.1817551723324268
-2.214689724109472
-0.6061789824055492
-0.41550939660515085
-0.047177772391409606
0.2705615841958686
0.8694539563089737
0.33459973068475896
-0.058814567444729286
-0.4308826416642765
-0.3102802116377505
-0.09746861385580352
0.07292147819904063
0.39962481016332235
-0.03516558965006292
-0.41175854618973506
0.3858287417696001
-0.08219598613388707
-0.018018131310689894
-0.6211802881439773
-0.42868901963151157
0.025199529379532057
-0.9458094482840492
-0.23383700230989593
-0.060739164946300064
-0.09646899506247884
-0.39961138091956516
-0.28074546239927656
-0.31207298783478965
0.5038495321487491
-0.8654214435753711
-1.4448614570342504
-0.06559944954299726
0.15419505589968033
0.28770561302611986
0.7067334365809256
0.6041338625631902
0.8370430803592678
0.9145462773748376
0.9527858333264365
-0.024559487480994818
1.084681382397936
0.11605177038963768
-0.3354390147374899
-0.12203982571865822
-0.4733995502905659
-0.18659630738767183
-0.0048721020450278405
0.35076859842565056
-0.2914514831151504
-0.6238670390645752
0.6279991937251631
-0.12444713973607241
-0.08322160081981222
-0.16666012615441614
-0.48470374951262535
-0.19267971123047417
-0.15945468404718344
-0.7701638963591766
-0.5209956964861917
-0.16147623266142708
-0.5493981065581993
-0.09890977989358855
-0.6426302741929433
-0.1432150285740122
-0.7133896461153026
-1.331718492713678
0.41398931022385416
-0.012799478968200972
-0.025749530054829637
0.45155221296601306
0.260494034717176
0.3775216522646422
1.1969117697876859
-0.07032102834948997
0.120441879740888
1.0509933110645029
0.13363979325290165
-0.10989940845293955
-0.7272410403971686
-0.5713674746140837
0.07497057462155736
-0.2799312397834948
0.45708996981238253
-0.3866944614495279
-0.39206865962314946
0.1648286239907878
0.028723703704624168
0.09417285702265556
-0.6700074462090221
-0.409447486899505
-0.1844061594238171
-1.4741154029512478
-0.5177871680864559
-0.5100043236519303
-0.18737600912405922
-0.5381465301299154
-0.4106608307943294
-0.17643963925642434
0.3198658511743361
-0.2825673850132656
-0.9661277615080299
-0.13420031923596104
0.4756144993549225
0.11525309992755746
0.696253704563032
1.2350603016584452
1.0266092557628033
0.9252768600946141
0.7099051844947417
1.444505335515081
-0.14129113675757293
0.6100459205960036
0.18544057037449155
-2.8885238866887293
0.40448325853261285
-0.15845623234432188
1.4766624587392325
-0.14891951819316704
0.04855072116575168
0.41359177660527247
-0.1873182086871185
0.6148422117240614
1.7151593231538225
-0.2678265333056001
1.570168520517411
-3.6231883103804985
2.2707785115626815
0.8774618333931178
0.04489924026421645
-0.6765764362799872
-2.3762918046069674
2.6580760866182684
0.25837678081619453
0.7897021630558536
0.35284316549138484
-2.2421119969464716
-3.2925564075786813
-0.05989186303417264
-1.7012539787196124
-0.5959212834798887
0.7862737845140588
0.5065568521055855
-1.2166508425621443
-0.7979602976326242
-0.09888224092287956
-0.10182783061731099
-0.16046379155123794
0.03894060492998979
0.2085054984486165
0.8998958647702461
0.658639635967318
3.037551127533103
-0.41225696757309466
-1.9860627377945572
1.7103023610812393
0.20028923629503548
-0.2702668368108316
-1.3142096745187963
-1.2526963458986156
2.493328795828874
4.120850113710254
-0.7708552835044207
1.553440902071073
0.5779766663466379
0.19902764527570818
3.2832022799419986
0.981238355091434
2.5985119549446987
1.0218490237054938
-3.3345895692648315
2.0028274754974755
-0.6836071970610523
0.5338934939523691
-0.759218727096783
0.5226174114427458
2.8375063388914987
2.0155649371250806
4.0041042800460644
-0.09492086195105397
-1.6072558420920358
-0.0928872697409541
-0.6819134396387919
-0.01993548681395069
0.41800606183440414
0.1151892601237678
0.462032074677031
-0.8036084714130715
-1.42201075773494
1.0278692808931165
1.11664868702556
0.25252647257330324
-1.2917054624705335
-1.2812023740408691
-0.023814009447359227
0.9210615217652918
0.6607132726718976
1.6057939242316508
-1.45635635534629
-0.9806357134473979
0.7978848466936855
0.273050709577311
-3.2655851898064143
-2.1769976532725086
-0.4411044115696612
2.2517014217128666
-0.3727937626436503
2.889658626422212
-0.31243135995672205
1.904262795229804
-0.8648899072305035
-0.023820573276027667
-0.17475803689337094
-1.9122129559103527
-0.7558897307658522
-0.945070613088466
-0.044319597568322516
1.7162849556878064
2.0842334892776853
0.4876132607869231
-0.8786271067089252
-0.3966953065708618
-1.0601475444399193
0.8653131584111611
0.3060731547555288
-1.0336794210217157
-0.7638696818178042
-0.011406136758343802
-0.4335852525746339
-0.6611198954804623
0.8249459017367367
-3.377826972521188
0.6886519704975476
0.12783144206127947
-0.9078864750410949
-0.6978878269682267
-2.12148370654745
1.0835602293898405
-0.6618714973960705
-0.3336194850581243
-0.3046750063803964
-1.6761965081953463
-0.9378978022846474
-0.7041305278056069
-0.818811237996505
-2.544223599999152
-1.068575293609774
-2.626924071522982
-2.7608532123658427
-1.6712959258498672
-0.07498129332103595
-0.5078834175487097
-0.06103306459927745
0.14118993598135507
0.14919213903039685
0.3267371259037273
0.05721026409371483
-0.2048565233796202
-0.3805056828387423
0.1538377740179658
0.4009069851821956
-0.3896592538206437
0.009745111518725535
0.11972259389517928
-0.03588264185934652
0.4249340948451936
-0.008359923694411062
0.20728336665836156
0.581962903073706
0.31952687601384777
0.15359107368399325
0.26568152944426654
-0.2733062277625783
0.5194970865571844
0.6645103508835605
0.5179388393810206
2.21657109426971
0.31483312252043244
0.13258663828107278
-0.24982204193217195
-0.6676884169862584
-0.15203445099671903
-0.0015352589410809526
-1.0882998390227094
-0.48492985614684214
-0.011004940223751394
-0.4063521314701841
-0.19705512306485418
0.2361580868887908
0.33590450065733507
0.40036299316552115
-0.08561465270373271
-0.26153632157174445
-0.5302635064406367
0.2391050283659964
0.43267826229310685
-0.3688224667139563
0.1285765090961852
0.2518055560829928
-0.11445286962437728
0.7935968524623866
0.14512344484962705
0.043774907160885446
0.8914981044928318
0.46806213379508216
0.33174210116786046
0.6464384331514627
-0.43492558043556107
0.6362774985315026
0.9428921759500549
0.6122317005982509
2.5977598432214952
0.5279595563018737
0.20830711539419383
0.26839845741028806
-0.6346590253746741
-0.21336852076142868
0.30516118079199006
-0.9783026100072608
-0.30623101978882084
-0.6176980793521336
-0.026873942110400166
0.03093245588938282
0.009225818987839148
-0.011373920250848272
0.6043506370327038
0.4872934912520642
2.2569743872125287
-0.3327768073278165
-1.9851505646910852
1.737019504952868
0.473376772904901
0.02491313739845541
-0.9474267855634412
-1.0531624828537094
2.160288498375927
3.743506839948514
-0.6685248281328855
1.9060967008480636
0.7078961114955832
0.49220220694339023
2.864499051707268
1.0677971285618808
2.6110043314922553
1.5477606120729788
-3.621335436482431
2.4981716113306742
-0.7035808330488252
0.9228517514792401
-1.1823338808065533
0.523591284419185
2.0669622425886653
1.7993289615737118
3.405062959960456
-0.43399898746267773
0.9363841423834106
-0.05698197046178671
0.6519745380003922
0.8321274759147502
-2.0429650505699306
0.3365216061697447
0.29893949591155267
0.3378243743850955
0.14771920363254198
0.6270338559905574
0.42150458339132607
0.8441698607586603
0.5232245497240859
0.9446493907935339
-0.05534553368045807
1.4604655142176581
-1.6533754953675273
2.0587509472493473
1.123535475664934
0.03309106848296247
-0.3946870098922191
-0.8329586431888427
2.0508714351930157
0.16357162996066704
0.36064536483721493
0.2222824687440136
-0.5312194469777733
-1.3923879772436443
0.22736449525798758
-1.3664799722440164
-0.8215834473943726
0.3888249475962476
-0.6931266650341081
-1.9706481458466607
-0.706765924540876
-0.05898199084481018
-0.2826640753872628
-0.21142175148999853
-0.006755629321184164
-0.20726743241954546
0.4526937268195432
0.17985705062001764
-0.4265819029801063
-0.40412824942272313
0.11343275437614049
0.41707412240294484
-0.26089150105609465
0.13127964017240354
-5.19426572457666e-05
0.24051745938738286
0.4840793400446663
-0.15858269664053554
0.3733352377863967
0.3490426333715631
0.3752502389289016
-0.02784271857167048
0.7526111469494677
-0.08827386905091725
0.5142406355117312
0.1823331667078353
-0.08919391504371277
2.7011214450876078
0.5670217659911682
-0.15828487477025194
-0.6274996599634332
-0.9834707409098031
-1.0031683761511556
-1.1026039966714403
-0.9155466466634754
-0.9976050786192324
-0.6293734059982476
-0.0024373255510843524
-0.5712164384594833
-0.272135489380745
0.05343512545515732
-0.022724396262625627
0.1903521468792221
-0.057780217842451666
-2.0493483033253512
-0.4223455501176978
0.7639866670085139
-0.20957925899975352
-1.0098968881555566
-1.1685345240245149
-0.016742697949990826
-0.17592336654661195
-0.3271495521038734
-1.7524215610837683
-3.5331262787710513
-1.372119944405348
0.9019995372046608
-1.2438239808489135
-2.884164925678029
-3.3005344476794747
0.05758410216780151
1.8644757727648062
-0.06753603335813689
1.7425761895293415
-0.8770218713282348
1.8823301549300326
-0.18547047569599662
-1.06384013953975
0.07679653632435128
-0.41789760308551205
-0.04037485911590508
-0.43266144098063597
0.0049014701361932865
-0.49886495967094324
-1.2680382821737377
0.6189493551555205
-0.374043849745595
-0.28758003695374684
-0.29744264945125964
-0.9735680747671406
-1.1201467383912278
0.04833049424446164
-0.4210299619730234
-0.5136308376182891
-0.815270074087476
-0.6118829323817244
-1.273891703836737
1.0582730557714206
-2.3484976551934227
-1.458123690707815
-0.3536237858471137
-0.17378662755566365
0.19692335337785188
-2.5605522249431347
-1.6638952547008987
-0.38776645762481576
0.19735282706549315
1.3978020270964262
0.6477117580339656
-0.4229127296394433
0.08535786648691984
0.392788289840189
-0.4793788952731313
1.202455231706456
0.5957600925938586
0.2598929164886692
0.08353206188743172
0.21493847194720236
0.09745058895266023
-0.3380793054772415
0.025403279090244
-0.4139170985394845
-0.09312058037624658
0.40824182061984876
0.7648814640900523
-0.3661003733414988
-0.3288560133082259
0.0025958936249744794
-0.09577704214545962
-0.18053223382163716
-0.3397865982508081
-0.6047193086952638
0.24548070050202533
-0.4257960783754204
-0.8379621354353205
0.003668329491918711
-0.516378499513557
-0.7616449440271831
0.1947235499540856
-0.9239575171098746
-0.03547011605188377
-0.7501979649247564
-1.250852016450714
-0.7503313581296306
-0.2162088754980735
0.0872903129680668
0.750868680086537
0.9000840568952018
0.799392193229761
1.1998172810341146
1.2208069009572187
0.006931528132000443
-0.025316504367909547
0.191650882642341
-0.04113093360919587
-0.31545392724676097
-0.3156091801851455
0.03634204941699609
0.15011062687559104
0.42225945379414753
-0.3455429689276057
-0.4319247339935507
0.5383108965693675
0.07533133881470827
-0.15294261955643632
0.19618455267036344
-0.7126858499586075
-0.02831567620668131
-0.39234156199701087
-0.622831259827065
-0.7136738827824999
-0.21109557697213652
-0.6117560105698602
0.1352222246087661
-0.3271329946278509
-0.6226671483694844
0.5315545568125359
-2.3023917319470995
-0.5390334775635586
-0.02602128826117364
0.15509430210861522
0.7963567427672341
0.3832218099891892
-0.19938342071430593
0.8581074886323535
0.3708288943260268
0.06342496728521102
-0.9885463948318244
-0.25400658924669656
0.09560635740554307
-0.04420098044234386
0.44601970296277493
0.2606686113798023
-0.09021542264468202
-0.5673013212423692
0.20293510249002442
0.29503611242899935
-0.17751726485159627
0.3044380409558714
-0.05425645048947536
0.4551873620529458
0.2543809967019581
-0.20668422975591597
0.9628642542125496
0.7168946643241284
-0.40737424087113094
0.14089884675555803
0.1599684803262352
0.9049606670419227
0.7776641796046377
-0.5175555333499662
0.6473582997323141
1.0374102683935216
0.5005299863548788
-0.1306601711895364
0.1172974137032857
-0.4260257558158198
-0.4976980134291185
-1.2739597797613487
-0.4651915422594977
-0.9333150205744307
0.5674698568942709
-0.07301242208294982
-0.05583411625128768
-0.16015214100405498
-0.0033701854515303968
-0.28856965004759766
-0.5717188587111828
-1.7840774482180966
0.06646449501608162
1.5684850370982653
-1.6881252457692966
-0.3245703470079954
-0.08535563838079926
0.5525442447448699
0.8604932572087828
-2.165408226232483
-3.310771705132293
0.6556055923195298
-1.7658136821157187
-0.4575792855580156
-0.842831832685345
-2.195924547457302
-0.7995511582570745
-2.3478764564678047
-1.8635001577047952
3.0094255238519483
-1.804076785288695
0.5414387091553869
-0.7434178018597213
0.821022856083521
-0.4904997538684362
-1.8274168089033132
-1.3982612106808376
-2.8647307073283894
-0.012562268857682189
0.1498780604920324
0.6644297905825151
0.45822926655773255
-0.2560783280833462
0.3508901909716982
-0.19625628008946566
-0.20084332731780274
0.19384646415164847
0.29120948352720727
-0.09725491033504492
-0.18439906621822563
0.41295762111752704
-0.22331325770141489
0.07356466212090117
-0.6956750538300439
-0.128280084835832
0.22604992579528746
-0.8949509344709097
-0.15364026100429315
0.46365710337975563
0.0240833247938274
0.09189154314073562
-0.4368205945874277
-0.28162470043326254
0.19159736321716087
-0.18779991975383015
-1.0229522523179577
-0.6005386484929554
0.16705339126426777
-0.03902690958773332
0.2644047599514694
0.09507599262761075
0.9381677280738608
0.7511767936762421
1.0420017088158633
-0.03289759327832256
-1.533375842910506
-0.41610392519397393
0.22347808319512685
0.23639009961414542
0.3937309269779787
0.09050860603025396
-0.022447881637871456
-0.3911190355821116
0.13728272567513158
0.21538911122321525
-0.3012572035376587
0.19829780063922897
-0.03522448069304562
0.6785880786827935
0.39593598807324415
-0.3515121928857749
1.4705538595099297
0.652315691367747
-0.24530188595813102
0.14137225753658972
-0.003862812753656294
0.8408531358445818
0.6841789759192823
-0.5225242308609023
0.6486323011458264
1.1583963019517454
0.3373480941785923
-0.029050337732420325
-0.2029468255446495
-0.40131975801052544
-0.5084067113858881
-1.2662806927465973
-1.1420752367917002
-0.7414227884662882
-0.1813584446529075
0.058541510130255624
0.10785703376740119
0.10034500815481454
-0.10572479643295646
-1.3532773022672533
-1.2163890683131562
-4.151583819814144
0.35537350399054246
2.2463231441609546
-1.4475376774055544
-0.03683665252651754
0.11930723417273298
1.8588593270326652
1.3903709127944315
-2.923263261412058
-4.4506388342625725
0.49372060320684885
-1.41748029645309
0.24455763100578448
0.24027118398215175
-4.489449055476582
-1.5026845672774038
-2.87992957706414
0.3426962201806553
2.748420291454319
-2.3605658701353605
1.0862283702100137
-0.512086891237308
0.818672111127915
-0.4346572657140553
-3.697494766726497
-2.0076261278925913
-5.190064748114747
0.6465063949182084
0.04938886732064566
0.2697465173238126
0.06134386454188752
-0.002672177880493785
-0.5303208135474076
-0.36886582411899116
-0.13708130858661485
0.13770118359778336
0.4528310764503049
-0.020529303460694533
-0.6129633074062608
0.35306208983684056
0.010653601876734508
-0.1369570460486767
-0.08450459998060252
-0.5100627020525087
0.12487727967428307
-0.1811564562603831
-0.543375239840372
-0.5401930246486358
-0.04459692720530914
-0.7478406603009708
0.3232510506545391
-0.7219057503783862
-0.5729925315587397
-0.3615189783349621
-2.4032125770356116
0.7079732683661003
-0.04346831893964687
-0.39235447703367893
0.768489426312614
0.676194368329653
0.6814626829074792
1.2694426481745202
0.374676419780022
-0.2193974266963177
-0.5082494519532016
-0.31372638966883876
0.21091531475968575
-0.3372824469325704
0.3187639307594279
0.14132684474405094
-0.11618097340465351
-0.20656703214492136
-0.0596044725498938
-0.053162372402842197
-0.11917134753261041
0.1775619616876037
0.05500305406202855
0.5779828944828992
0.35767140216406873
-0.13537691795605916
0.9884523899508753
0.4099034428295276
-0.5947277300341592
0.05325457401171595
0.01261356867923255
0.6648786126859431
0.5222993226076422
-0.5125004056228889
0.5961527284441807
1.1800474332877038
0.740564453276032
-0.19277837235691087
-0.10583967544901608
-0.7728072510438722
-0.6094575664102023
-1.726148203882759
-0.7572327896041848
-0.7467808659822481
-0.0066539000952088425
1.266191635747263
0.19019885410837573
-0.19819658328395803
-0.6561382157203532
-0.5804098083935093
-0.16342984749333048
-0.09117658269032389
0.1851370629189246
-0.20358017127947436
-0.3780999873988027
-0.1003203030266704
-0.3007438284336848
0.20699776177359303
-0.5435041323578423
-0.18447611760391125
-0.1796773492320815
-0.853482873086431
-0.6762359340815646
0.347549054873021
-0.14075128169069437
-0.11797941018280697
-1.039759610293189
-0.5911273030294514
0.9471780669991022
-0.40219480157280785
-0.7671852351097806
0.41145542829287124
0.14706140495686829
-0.22669219288151876
0.19289818208869614
0.4866805687002541
1.795644020152703
0.8767632592956162
0.5081073005624197
-0.022397919839148902
0.15400929907748775
1.5202835265125458
1.654739240043368
-0.3010667187046379
-0.12479727808526159
0.0940557314082498
0.014585908853135697
1.200097201175376
0.7941563409572799
-0.050256821926255996
0.17029147523619018
0.5739687632948172
0.366785653431337
-0.25748911285403586
1.1928770497543235
-2.4957975905722622
1.341284902935606
0.569886172340461
0.17733227215787836
-0.5546387825822463
-1.398780476240316
2.176400670389934
0.25795576469364334
0.13739958220296514
-1.3809855181756463
-0.3695990413425413
-1.8398483476494127
-0.356957284419864
-1.429353495039472
-1.439669309125079
-0.3418750755862747
-1.582286890034266
-2.1335505399153605
-0.8615663487296735
-0.01473705418481248
0.5734011594647188
0.04212285200089429
-0.1116284745846056
-0.23506941886156754
-0.3970686990002728
-0.2077716684355544
0.17675806524734364
0.6387140300568405
-0.3299044243745867
-0.7436960736703716
0.5255726406627149
0.019326628090995036
-0.21437289429451395
-0.041907509653963365
-0.5909160139114485
-0.16452368242428234
0.1960958104221315
-0.5585421671977665
-0.5998592742386557
-0.16770806649611922
-0.658347314145594
0.091376470522778
-0.46200009139655374
-0.1854522442292658
-0.02807097132677073
-1.9022107612242705
-0.6021192227202673
-0.02217854373225209
0.21509592550025555
0.7871267517647552
0.16187360376344515
0.29417777880743057
0.9120378063664754
0.7747944755959103
-1.037759230772306
0.034701174646265036
-0.46685329453259966
-0.3759239831177619
0.43119543159091195
-0.40951521589662027
0.29156738083476935
-0.7835465122315757
-0.6962948768853741
-0.9946080689221616
0.09588236301858936
0.3634283299640696
-1.3019639230384996
-1.4069866238391113
0.4830305828792116
-1.4501284077155923
3.3225247229901145
-2.991600577544518
-2.1835989375690454
-0.49731500909514365
0.38651883804872267
0.30059161685071234
-3.125549311756602
-3.4274251881750586
-0.2487271793101541
-0.46484723096321423
2.225944730125982
2.1886217947583293
-0.35799239701640134
1.6475123840006198
0.4537754072667508
-1.106141047897529
-0.2023091809164708
0.8359988156112842
0.8835280629370228
-0.10817902700947431
0.03834318406656764
0.11825225951015253
0.09334636261442678
0.03519481445954394
0.7590364826894652
1.1886642012538458
3.5171833009087563
-0.24769715409763302
-2.4927877089115817
1.6305534479985917
0.030126101543988877
-0.022620440661494226
-1.5695685570713325
-1.0825066658790072
2.847551955115494
4.785001917031149
-1.1429346264348563
1.2582102178614003
-0.4911408066408888
-0.1480554899920507
3.077698600557231
1.5750406759040985
3.517809455393547
0.16030802332417093
-2.680129779043238
1.183267124490768
-0.8471933031446401
0.30248945583243503
-0.3235764875928942
0.34696069683218395
3.931753163285575
1.3237952194439777
5.365193530677219
-0.3409018622468181
-0.7966954965812026
0.007042040142800393
0.047917188782464926
0.2623689274254511
-0.14737943249153626
0.20299046938559318
1.061350230868914
1.5164232080610935
-0.1452554341327861
-1.9873484323952872
1.8179931505578542
0.5655820335600666
0.5116932336496872
-0.3598778663376744
-0.9339197357144472
2.2410235890119323
3.3686007689569726
-0.8947535801935218
1.7437664176840495
0.36633988913753013
0.9382737623936422
2.3441462422669903
1.1026868802030156
2.80861900397968
1.65286898755551
-3.593985966719306
1.9968944093651
-0.3897557845089197
0.7206379258977242
-1.3357970570743016
0.17980680008297875
2.0774058286034194
1.5702303531793993
3.1248942995929982
-0.3393754943974469
-0.3803512699751573
0.27094127654722217
0.25254247874386204
0.3115100668094326
-0.2242298643042898
0.4672093875929065
1.0867347263048615
2.482327366881232
0.02213916653850546
-2.446219926821831
1.545325364616092
-0.01595595560166597
0.05687396556978599
-1.2714541443901934
-0.8444263571793673
2.3929513754159806
4.671286630007029
-1.07838702197007
1.185719876290403
-0.8188025711609289
0.2026474897281212
1.9540919736735491
1.2289042736087492
3.6618410415951947
0.603460402077187
-2.3886107522567928
1.1274705462328485
-0.402646575850362
0.6316294366124099
-0.3698579589224261
0.35255275686443377
3.137257363852718
0.9788198641854315
4.832831894450105
-0.18601148729067252
-0.010206267483613744
0.6998432309344501
0.06132582351549753
-0.1523415145841068
-0.2158585759005053
-0.3230207191655136
-0.1900520942652639
0.12205539916605893
0.4169026090360781
-0.16041492101807422
-0.3121074513548507
-0.042943652190892745
-0.221038830860751
0.14751696160459513
-0.42410216077002744
-0.06820594496899389
0.04131720462644999
-0.5977942347456686
-0.4646520581091071
0.33202230292903956
-0.24889186699534085
-0.4969615084223283
-0.3973855881051466
-0.43576086198253045
0.2618613584343227
-0.7689159266323439
-1.1515737389206715
-0.11207329851859704
-0.014402292466457217
-0.18251491158697378
0.008621632208441385
0.31751554155637296
1.3478005414812562
0.7406144386766806
0.6872033232100317
-0.7601914583197558
0.04776808693793557
-0.4779617760136198
-0.5939204528540988
1.0640721717468358
-0.5551363098313055
-0.106824996408626
-0.7503282108982678
-0.3226130369771055
-0.9359688767565051
-0.5877455521534681
0.718484707532861
-0.3175242501285492
-1.5308309232156987
-0.41503188960759463
-1.1077433073748857
0.6278609659139484
-1.7613144312773257
-1.6948456798816836
-1.1122805687559936
-0.42163174625679994
-0.40634174342331564
-2.063823054527945
-2.738102938664943
-1.2144960889980412
-0.6407646300704152
-0.14769728270511803
0.777554658775614
-0.4681877631686176
-0.33978195713420717
0.735859405575289
-0.7622046005985101
-1.3824397818555478
-0.48335732117507146
0.5470412500968973
-0.10306770258837177
0.04798084419557729
1.0451536931219245
1.6219653597407964
-0.3388666909127821
0.20366562739130692
0.347637086280839
0.009577204507727857
1.2219892815901539
1.1999149047381568
-0.15475787844873104
0.5361053256468321
0.35962585446479484
0.4470200219916228
-0.04250073907330395
1.3566352224168747
-2.2939970188739545
1.5814993016963959
0.7768105367410633
0.10656320404131168
0.014947147599325923
-0.9953408031317275
2.1061384371919916
0.6201929386964865
0.4402293423171343
-0.2157430205394216
-1.2046829628732258
-0.9522124761513244
0.03608976574080476
-0.5003527796567953
-1.1537704975840826
-0.15578237186798277
-1.3621965774642222
-1.569996775624832
-0.5658704331107309
0.12961546212369857
-0.14165217852265066
-0.689380048932054
-0.5545844689812456
-0.2498799929264566
0.22277852005604082
-0.07810729341484231
0.0148499295578645
-0.4956223069771125
-0.20146111235406125
1.2494632191460735
0.3880532434248272
0.4911263727510508
0.8593540868561684
-0.06144154011057871
0.2453767060384894
0.7654100193466069
-0.15656024679692226
0.7860091864489984
1.7970588762221353
0.24640965925904856
1.7948069424355833
-0.31383750595840004
0.459743205499495
1.3492510150684884
-0.30010882442277487
0.2312999272546709
-0.3101112811925699
-0.01730305218672517
-0.3714444045904675
0.14408101546389093
-0.0003903737426918588
1.4262205272914243
-0.22991705115600738
-0.13792637449500553
0.23589836059208869
0.09401942546629634
0.45985725711055997
0.13454710937023281
-0.03926043345727198
-0.49022389599392746
0.09010865204505446
0.3631550462198952
0.6028638515820439
-0.15265399638988367
-0.3140041806859016
0.04752035055435144
-0.32274270828401874
0.363525050508294
-0.4342446721873634
-0.37797720928823036
-0.04652950648233651
-0.8101934839736229
-0.4010634355495397
-0.38751261959634203
-0.012252222268378138
-0.42042061637153594
-0.23617051208018416
-0.1686805833882229
0.18472433629179366
0.688633588780898
-1.206042575783868
-0.8425649345769574
0.3252468569956874
0.447660205229367
0.15590695508684266
0.9626865952475254
1.099778918389237
0.42430714664251923
0.635721811068076
0.30303382781595467
0.5429556148825831
0.15119037214740644
0.36150844992321235
-0.3363311577697987
0.34699179401439745
0.15278805473767731
-0.4230905354285725
-0.3161167484739162
0.34996076170332113
0.1877611056942386
-0.2778474799052674
0.017933054815172024
0.5227254941246355
0.16029479420744308
0.35474457748783406
-0.4626580893537578
0.11873372095076876
0.7091686727154187
0.18266911130631705
0.10776328057911504
0.5630246211895867
0.13032571573539395
1.1101696370166054
0.46076567938284596
0.4924876434459745
1.143025439790665
-0.504954967858109
0.01985379636540288
0.4482401044063368
-1.0310743411882939
-0.7026633860371115
-1.3973810273614922
-1.3785692481277336
-0.07191288791848463
0.11682274595923746
0.2394225655870155
0.002203283304093587
-0.08187007894358295
0.06476939144984181
-0.283364599046254
-0.08135880708085787
0.21976925276541587
0.3571743847967224
-0.15671198719197346
-0.4376424301885616
0.39324141197215595
0.12846794007673412
-0.12019487870342821
0.006610386200618887
-0.4335788352599051
0.06735850763217188
0.012769675671877373
-0.40052524161642855
-0.49781472666897975
-0.060383978516337165
-0.2627457980172692
0.1370652487538729
-0.34297765236276806
-0.6969123561861614
-0.44142846532078034
-2.064693756954492
-0.1007311386291372
-0.011479407208139376
-0.005325441173614856
0.5611367876277193
0.22326160405986742
-0.6203165259384287
0.7299114884013674
0.5235488516362002
0.024614574963907645
1.2806291993429366
0.15756853471810042
-0.15155293621088126
0.22677824738508706
-0.34515580110792515
-0.12346350218568203
-0.011887420858974877
0.36438518829606426
-0.19308081833206248
-0.40137145919456635
0.35669293483176584
-0.06369005071788356
-0.06556687754991031
-0.3046913483827452
-0.4372391631842011
0.0109974776134194
-0.8976580996854366
-0.6290496148618527
0.21863051738264724
-0.25073647787593284
-0.9385484873068097
-0.18666549299638735
-0.6611555316372141
0.20949740176154133
-0.982658755049574
-1.817102741414398
-0.5868404743213379
-0.046704800585039334
0.4305517933997933
0.6903338449888645
0.6619248153307751
1.3012630994696912
1.0907344420659484
0.5885152234088575
0.20581322893991644
-0.11815159360868331
0.7055627900130303
0.6369947785246681
0.0006284968880840647
0.3825718111441952
0.45168140473151497
0.1105262722515035
0.6084566776584096
0.5264877634285805
-0.3988478821505286
0.05946385312003561
-0.21583422268695263
-0.19262856073991674
0.3995419080833933
0.18259755143458894
-0.7261928444373501
0.7192084001616541
-0.1586603040593484
-0.6375236083989184
0.24535535704879297
-0.7007981028225757
1.132376095609315
0.4104388151706056
-0.29694554979503957
-0.6851570964682481
-1.0843777115695432
0.19584445544752827
0.07442932511910931
0.27453737381477866
-0.10392132150850328
-0.1771467954228837
-1.1891440228935564
0.021264996796512732
0.10060562256462544
0.039556605591991506
0.20042650093223804
1.2970795536230364
1.3810575561028409
0.01765457543935765
-1.0691998344935971
-1.3643867975009591
-1.812351290752349
-0.22795465265773918
0.5808023079139095
-2.202005322240865
-5.638395202219366
-0.9239186226852159
-1.1680497370132323
0.7277953441807108
-1.6769955338785634
-0.9128192214676067
1.1148700054729335
-1.475659289965866
-2.4741485057102426
-0.3468634244095994
-10.355215538004696
-1.4167383833096128
-1.8293291948106802
-1.0103900955700678
1.395959942758643
-1.475175905950163
-0.28363430773541465
-0.758635667395415
1.8576534111654845
0.5187442307877057
-3.498305741217633
-1.1523635412689557
-0.7431013094197846
0.8855053654414519
0.17481479989715606
-0.0035446646689201496
0.8961133852842008
0.8402036175600606
0.050809528098776695
0.0005677236424665613
0.11941827239741179
-0.010394709803202113
0.43166067747079223
0.2874282622400748
-0.9294187363087878
-0.10765765202748191
-0.5079003193011697
-0.6525861193517646
0.22767470334528403
-0.38477549067145816
-1.3371223533813297
-0.43964443569365663
-0.7169819557753214
-1.0829791878422945
-0.15681565659494798
-1.1444055027882682
0.25572178100712917
-0.23774593906283117
-0.79726905060334
-0.3390682484048354
-1.1983509480257444
0.3432860131023301
-0.08443944868996883
0.1431942489016946
-0.2415348672186593
-0.54021690179989
-1.4890134455116615
-0.22834213740373965
-0.009645643983140087
0.09363253848973097
0.4320134655299925
0.2057594104878654
-0.25853878280580095
0.20655235581517295
-0.33157525903236396
-0.13292828408141785
0.15594678603983475
0.4415658073254279
-0.15257719767536995
-0.44889659204469806
0.6240460558775136
0.02983182323874599
-0.23711995825965826
-0.09055572841628765
-0.5493518159966823
0.03360345366519712
0.025161229630895135
-0.4730731698962345
-0.33688561265651773
-0.0669955759858228
-0.5151297935036344
0.0931575101892741
-0.33915634388449734
-0.3791675811632533
-0.5205618256085072
-1.974687912984372
0.0385879452203579
-0.020402362638854872
0.38080610926432223
0.8607323763401892
0.0628243570559918
0.32776864364127356
0.7647628006005525
0.687246404136951
-0.191562282438306
1.0695278298854216
0.13171335647717664
-0.13957090586480467
0.07770050474628978
-0.3757160251420231
-0.040556869358537945
0.05730146641734174
0.3467474496810604
-0.0316392277258442
-0.1916900215563445
-0.15479214716496675
-0.2729326428923854
0.040824520114598375
-0.3005504195019837
-0.22046946842731296
0.22677345572471522
-0.8852852825372397
-0.6373964147186174
0.19434519584156593
-0.19796582271219382
-0.3162197674176042
-0.5645496783523145
-0.8790167780633166
0.4061960754592605
-0.6722894850712122
-1.1835294694111198
0.08303749768849272
0.002757367260264664
-0.4492706913994145
0.26783086217809493
0.4820180900948652
1.906987082985846
1.1895084003323264
0.4496626041743205
0.07057943562647279
-0.008455176556244708
-0.0029481524746469145
-0.19503267043084616
-0.1427373526365794
-0.9566559158675925
-0.8248565032964419
-3.6468165103731085
0.3905406847027693
2.484704004630518
-1.464966595356303
-0.013147550122097285
0.3252652023173488
1.7176542282535197
1.208810064392029
-2.7600505779660405
-5.176088408535696
1.2712305448587309
-1.2860961812601972
0.3048548074605533
0.27608581845079017
-2.919452396773101
-1.5393184787095708
-3.363307700668494
-0.1803787252324355
2.927336195404642
-0.9848455091495221
1.2386030118375493
-0.3106876502135471
0.11238234504481388
-0.6848828648648139
-3.62386071402976
-1.9262123337349772
-5.140687493831617
0.36483454476277655
-0.632229094529325
0.007949183237750517
0.14221756755955445
0.28825131363211026
0.21039570119559212
0.5715550748300797
0.24147254293764434
1.7810112068793733
-0.4358563669605357
-1.6899420670937533
1.512321973087324
0.16306044216223153
-0.2594935211766149
-0.8592465057045371
-0.7676447601494621
1.9826411402645234
3.666168182313222
-0.9638677911136063
1.79040696980035
0.3645803204177415
0.7008330525121673
1.7007532832078418
0.39971403351433527
2.3776221916291713
1.721242526197095
-3.414067039309724
1.6641909637844814
-0.3155095429201584
0.9906575995464504
-0.8350067770781867
0.921228953881231
1.2062871810709297
1.770517365864685
2.8730442811869326
0.4777528170155206
-0.22279822079073866
1.6856292255563772
0.09478233638465816
0.003311528166728401
0.042326988448077675
-0.5415346928515944
-0.3256101886898419
-0.23929775320285002
-0.030298588292369633
-0.2720058897946123
-0.20176962257162132
-0.1296821849398139
-0.11149409033685813
0.07825644929804323
-0.693485245173969
0.15787395351017747
-0.3057315392590448
-0.7621237769799342
-0.7794362338625672
-0.29018745921107597
-0.03451225094520801
-0.011167005482995046
-1.0124051122849616
-0.740672750939862
0.8197712324455577
-0.03624546651966291
-0.6295320161362239
0.49161192601026266
0.14243473854443942
-0.5290828203174958
0.21122339766155854
0.21435704617045356
1.7101129533472155
0.22567756504416225
0.09422306267386993
0.15022117696876255
0.3436129320112401
0.08031334040708489
-0.2180359257005707
-0.07144860492606452
-0.3533943280524104
-0.25785875948844206
0.01291671360337291
0.45842269131087965
-0.12946138261801635
-0.5564804331205617
0.3928713612264919
0.12479432060179999
-0.17309209420003305
0.05325642998187923
-0.5745911581539019
0.1341378579971564
-0.11545351197671823
-0.5689665271261783
-0.4146064986712489
-0.025776108144892396
-0.5211003287360942
0.14528657274487464
-0.4410247567821569
-0.4679508328419123
0.07797525865987787
-2.327426512283313
-0.5516383859256938
0.0031357424098952705
0.16269711469631157
0.8869882441332584
0.3389363959047198
-0.2234082442796377
0.6123625224770928
0.30637166846896413
0.6813352037946557
0.07724592223557253
-0.04923433426446767
-0.3525142235499739
-0.2163219415447872
-0.6389155099591317
-0.3047635771466131
-1.8071804210468252
0.5668108015119229
1.6666386257329728
-1.4680845814007957
-0.08585010676865543
0.0897522329738245
0.8311455041476484
0.7732400864673697
-2.148226273098156
-3.6279001231309467
1.1576636398004765
-1.8307144949400218
-0.4848807704156046
-0.5760695283526246
-1.9755110264137843
-0.6655033090195878
-2.3084986764271713
-1.5477652724235276
3.544844263523996
-1.2541314023193553
0.33895758491792766
-0.7520251842855419
0.9480456550185548
-0.6663504884636338
-1.3190162613376377
-1.7058401113890076
-2.939872623507313
-0.20347340264392585
-0.5566635116214698
-0.28853427640735607
0.016679245627132046
-0.3446300084612085
-0.18102115780546285
-0.6197378487078259
-0.09553361974550503
-0.24526824657919
-0.47556379630005274
-0.16065738064175905
0.2349513382295402
-0.27748064750015533
0.02919092659513361
0.761963025563825
-0.003750235168429427
-0.7272723084286428
-0.7318626483359473
-1.7231065440476003
-0.8456251824861423
0.9846181036667876
-0.8107044136887251
0.18099881850914298
-0.5575282914557931
-1.2037522293589584
-0.17870569087778862
0.38453283689281637
0.15225025366173736
-0.5232939044709901
-0.5415795557346178
0.11854995311226503
-0.7650826415828291
0.5577327203537004
1.5025667687418423
-0.3683658507862344
-0.9818887250723886
0.14078845412403165
-0.4091937046203436
-0.47334250124333965
-0.3763232583687505
0.44450882941909
0.7446209642567482
-0.11122420588263297
-0.009493034896304663
-0.4695726350553358
0.4308531852524982
0.18641901943817618
0.50922354935641
0.6727648054057748
-0.030966553080060022
0.3288809621220225
0.12243942082324127
-0.1584955865540068
1.136344453091004
1.0033264735358731
1.0970253565983348
0.14211472095048863
1.066689529519289
0.4802364740872595
0.4801082483815226
0.11376365739297079
-0.6889487409672461
0.3547640320624983
1.6365076749337162
-0.283012410901962
-1.0156370794629943
-0.35737610891019683
-1.8240089174419358
-0.7320531201730194
-0.949503886579872
-0.15120177666380688
0.024036287005436887
-0.214417906938028
-0.23909141638935652
0.2438667526272646
0.054722053704201176
0.38793798921711237
-0.0394011378546
-0.3738169782790419
-0.6763710852127496
0.2822407115393575
0.39432688823540124
-0.36816661666679606
-0.12557889342887635
0.2031478869581708
0.02362726277235553
0.46896925457925315
0.032618530139131144
0.786713259807767
0.8125820407374269
0.07349619525835581
0.27428031991083696
0.5850489399535331
-0.28097571495934687
0.6611090601250147
0.686300334656288
-0.2040198175755593
2.1532299375232227
0.3253470116120113
0.48101777940939533
-0.19866431691562916
-0.4941130389416229
-0.4961701191532134
-0.12404424316259925
-1.1361435161600097
-0.35627591133095515
0.029374307325837755
0.47532627131684274
0.18848246529591522
-0.19607115928566335
-0.5416356162369524
-0.3909106288582188
0.02174853689111652
0.27389378120759
0.48077861421052076
-0.14460180910464324
-0.5854821279785648
0.43710302820889446
-0.01853299761021032
-0.18263913077739258
0.19038517820484407
-0.7674261998494356
-0.2560203242376283
-0.06740137848357435
-0.7482433908775472
-0.6441356003748295
-0.2555813679462992
-0.5879966844881434
0.5060151826275372
-0.6042570646728666
-0.6819684479907877
-0.24220001371598862
-2.38891625358438
-0.5378870974696542
-0.15288308358298927
-0.0794539331365964
0.515979735621473
0.44112961591556865
-0.25955776285097654
0.6766163261668496
0.303430859398377
0.18080278185482643
1.1265555210230362
0.29892456162824627
-0.05237769946699573
0.01163954194151049
-0.3597908565094596
-0.11334135896148793
0.13723004659963733
0.42272948780111264
-0.004055259803002168
-0.28106648573747123
0.4232939545898665
-0.07987930867867214
0.07631318320259783
-0.4671390255254765
-0.16571028155568351
0.19379985883936782
-0.9397911764405384
-0.30794631442470094
0.10855897974883874
-0.03549345246005474
-0.21235807899019055
-0.5341269919067312
-0.40307364157896775
0.694394073515749
-0.2178262474621234
-1.4807430238246484
-0.4573308635497588
0.11001552125408573
0.17277745139378475
0.47197036961737976
0.4657440990863968
0.9656444736735117
0.7855602268016263
0.937968477971649
-0.8009919262367896
-0.05910612725965223
0.06890026683212234
0.44563449599000793
0.076352973005837
0.5196453872012571
0.198931210153656
1.3063984855498667
-0.4080675030963734
-1.649120994284483
1.3421133290510714
0.3721496587338979
0.0781976398447691
-0.6379170924466592
-0.6467275583489615
1.696174408810367
3.3425510897697146
-0.7337505111695403
1.8610243932040946
0.4492768954860092
0.9641154873574678
1.7008679448240973
0.4208165845492222
2.320850904068238
1.724044266858078
-3.3042262522706682
1.546301864707191
-0.2602191714425812
0.9848326786135677
-1.104369102244729
0.7522023754061975
0.5956161514114306
1.5677546407833884
2.4184555520856432
0.2620429485443492
-0.4619761637873513
-0.34652322640635985
-0.5378039685465642
-0.6216967212935066
0.0726303385686124
-0.44887503869675
-0.23432982633277746
-0.4909498050514891
-0.26633247711535313
-1.0947522169372645
0.16841242107824975
0.7073579034069859
-0.35662201884073297
-1.349313432998438
-0.5033380491082449
-1.2522971740937017
1.4451853279505855
-2.0633685111924716
-1.720954376972971
-0.8835843293891503
-1.097638852318567
-0.44117384417882627
-1.4944077065107502
-3.4882583546493193
-0.7288989540639853
-1.9611961032269316
0.9561614145948834
-0.17759131705440911
0.04593474792679497
0.12117943183643885
1.3698136581054425
0.384073723304049
-0.26655257759691015
0.8345260187044258
1.3401143027544382
0.2329813973546262
-0.31489215623797967
0.11923824435852413
-0.05354944208565806
-0.0858881232264459
-0.20475537673173239
0.29872494906890956
0.5662567397759245
0.6838237594175531
-0.21833755978075345
-0.27482275053705923
-0.17512747346775417
0.12794415547553398
-0.598203751771177
-0.19566980495877667
-0.9668044697516442
-0.19677388135464371
0.5138417558127073
-1.0118995339596413
-0.3245955713278896
-0.3988603037682549
-0.8299626879540708
0.5158681452094158
-0.49096471971654965
-1.1502355340973303
0.020091030882323575
-1.7237490680553083
-0.2580605118486287
-0.4976969462680557
-0.4148141934698619
-0.16634092047747737
0.4403907428846744
-0.9789276349139692
0.5697849251671728
0.28246707075908506
0.16718373184683
1.0545719539499425
0.297355686328239
-0.030433447808474044
-0.2623505591353891
-0.34141358184109744
-0.020644324187116116
0.13602753343581317
0.49795914911886174
-0.030872277329412057
-0.2538714208878979
0.21710347664560672
-0.16271790477490022
-0.040667554476440396
-0.4519955233777266
-0.6225372061418456
0.10929052968796898
-0.7023734663898441
-0.5025454223240255
0.2669842036225145
-0.17937443590302252
-0.4406794031717896
-0.539719286104208
-0.4389265976488683
0.3533116140095627
-0.31115837589155537
-0.6967056226604617
-1.0209995862710435
0.12578283305668067
0.11403323905499547
0.5844468683854378
0.5930370052672175
0.8772371169027823
0.22896977004714722
0.7234801126364415
-0.010645475821639765
-0.9735574931516855
-0.26505719200990874
0.11911515854891203
-0.5740664624709862
0.3997191393744496
0.10011057764986349
-0.20442890182673623
-0.5029262686602088
0.172496163859277
0.3515112673650486
-0.41962399173751597
0.17289699820672946
-0.06769112633408243
0.4617336584704711
0.24828977830594173
-0.13432556295887785
0.6075184575920286
0.5534596063597352
-0.16451431318774085
0.1757101642244351
0.30102867473977096
0.37605860305107996
0.6255497672593441
-0.3743390163231011
0.2607607521500531
1.4016791835623157
0.8955681336210491
-0.053670025975463005
-0.6431849634905864
-0.39519381500522216
-0.539037042827568
-0.9559935612333749
-0.8091565232172748
-1.0391632160848576
0.06332100998250852
-0.0027625768056035163
-0.11288023125277366
-0.36381486173138133
-0.4140519118082456
-0.434226406770814
-0.017029371219256427
0.0979020221931217
0.6947444599187711
-0.019948170158061492
-0.3778017819959551
0.1845375213139234
-0.05362917179891838
-0.26692695897670987
-0.1884627333041768
-0.2405457408774092
-0.3532508179326357
-0.06811065726902497
-0.8590969292139752
0.04058852980869538
-0.4487721629023915
-0.8812528278074034
0.2973801174913373
-0.7105833378311828
-0.77808722536305
-0.03683147194328955
-1.9170256911582417
-0.21328103111578048
-0.25576515169340586
0.04529265104245236
0.4028790215720483
0.4277989662003789
0.4758019806409276
1.5069604266654597
0.5792111012552654
0.14875899200681603
0.047024685053812666
-0.009259332087027802
-0.22388501229319613
-0.034479667612036816
1.084800044838346
1.4651034172578015
3.981250681494764
-0.11777669941682202
-2.359545463976524
1.6336471014569962
0.08537404132531652
0.04465156746584587
-1.7225884968300083
-1.299815551959147
2.953083883206819
4.37339246141713
-0.3083121403898565
1.339914688317508
-0.45738637912041313
-0.20823277723702752
4.547792178456455
1.4189437102202953
3.3156071762151558
-0.12364039313030345
-2.622223682190008
2.6838998593645726
-1.0178163531780957
0.6360581134599153
-0.8550855944477023
0.2748405814407308
4.152876802440551
1.642520411464158
5.4274750276714885
-0.8177575513096916
0.36791501617094996
0.04911645046814468
0.0939242783343811
-0.3907552154165355
-0.3806351815555089
-1.0069323891993918
-0.0505671092877554
-2.24115081181497
0.6745196263253317
1.718460215949062
-1.1875518248230217
0.1171944614921965
0.42980267335561506
1.2778184641371233
0.8419426269536365
-2.2421266242559543
-4.092528768485565
1.2391444930892017
-1.712507288900753
-0.27165200592562044
-0.2492246944133209
-2.076673180939782
-0.07172511714007589
-2.1586986013112424
-1.3380918361964684
3.294372114673353
-1.1293799446994055
0.2509730402446135
-0.7015023869590622
0.43453799780034513
-1.0627125846375722
-1.482663819117605
-1.6739725356765003
-3.331161347963468
-0.6174323032031687
-0.14061998529322448
-0.6693746024617164
-0.154897828395383
0.13022519641318514
0.25120418014752743
0.3661118660026657
0.19939147834212537
-0.07413495848417082
-0.2786423234570307
0.045478764860996154
0.3200100428979076
-0.13329805769183206
0.22466162631244832
0.06816818987133967
0.4517396001814344
0.4504171926672073
-0.1869706748647481
0.24512955807372816
0.4028016605098098
-0.11162365185436637
0.13655264985698387
0.48625753338231564
-0.013924287523806773
0.4987884554579191
-0.20592096898977777
1.004988434136189
2.353876292239435
0.16519740416749348
-0.21545766632425317
-0.09396072983400232
-0.9215989567303143
-0.7979676508830279
-1.5076079025503186
-1.0469518429515388
-0.9390299743391602
0.0007392320063630488
-1.4143834624902523
-0.22245153651599117
0.08662139572731922
-0.03478801086865963
0.49387229696401674
0.11717960782858275
-0.00431015158310339
-0.3929097814415852
0.19796086415000091
0.5030809784947359
-0.49691868673161826
0.18972639122538495
0.06411906491071286
0.3231967436592456
0.5370701031634137
0.06038330668687695
0.510935549715056
0.6980852502148294
0.5604391416001959
0.14036480377402655
0.5601878608253473
-0.13714821656261392
0.8505684747014242
0.22268196675262442
0.5584393193043133
1.428409326445094
0.6578460623703505
-0.10172759258785492
-0.39436410180656084
-1.0103237210393083
-0.42689778528683886
-0.7386471295117283
-1.0872296705950244
-0.5444736534427703
-0.08456793476139837
-0.3411539944277573
-0.11193532873614202
0.12266586129945017
-0.03809292941181454
0.33396770732429776
0.01662099536916695
-0.3298148292885779
-0.5242828099614544
0.16553175642715617
0.53665307903061
-0.5864645282530786
-0.0025471154776424447
0.1259095437417878
-0.047732919029283435
0.46512969319980385
0.2748515419505886
-0.04913717645205036
0.5835705257888648
0.6279276203748222
0.20212365003004362
0.5793367946320278
-0.4900455141659267
0.5148822204896849
0.4812181486159342
0.7130324890270435
1.5973604525205523
0.7740989030233952
0.07630197834679205
0.08935378384961663
-0.385495555923377
-0.1996599292532329
-0.28571859684016276
-0.7577036556360893
-0.6352987135951466
-0.24932443218103362
0.2612351586178594
0.07181899966632602
0.666142169686025
-0.023821264241202345
0.37290891449226266
0.910771744976255
1.3041170684731245
0.25247044645119193
-1.0917353227361202
1.0336866276447303
0.3434248691727609
0.3554077526413794
-0.6694528035732528
-0.45911464539784114
1.9134750591569116
2.8698086210235036
0.5518368349542095
1.4401340462483467
-0.5586351137130807
1.2855621043630339
1.039106979074672
0.8725839417440893
2.1778459521371576
1.0473652212112146
-1.6107710064445249
1.1214447664907492
0.6163039716587108
0.6042603952540324
-0.8375394842176851
0.3550096329435147
0.8030519008816221
0.18210650406473375
2.5344360635310483
0.3938540819183985
-0.07696153920228044
-0.5557499241482082
-0.21085686397405026
0.0936942741999158
0.013436462193196544
0.3991702902896977
0.07346522536884756
-0.17012777222791173
-0.34462871078750273
0.06276411889223607
0.339331267640141
-0.4443408680437545
0.044565993189690886
0.12998841326905242
0.07298755221515449
0.5400852365094848
-0.020394694926067117
0.42515991102845285
0.5200075198921773
0.4393882443261511
-0.06021638279653051
0.37786135319547204
-0.03894596917887699
0.6922298576212327
0.4877913432879217
0.05421813881526959
2.313972568265828
-0.1455423186400987
-0.10379043031812521
-0.16401186631121956
-0.9796181208078519
-0.6241633171883748
-0.5826908754328696
-1.1290832300629992
-0.4826127517010463
0.4973651012542632
-0.16437633381501088
-0.04905509276797476
-0.39139106587931327
-0.14218876351113247
-0.4303880859193589
-0.2355928426354272
-1.3186255911828406
0.1506516465674191
1.2401731656457011
-1.3913274931414423
-0.19380926098209833
0.16009061820615392
0.6155961459968793
0.6225783458427706
-1.8040359637303416
-3.320567577295986
0.3043830778822177
-1.6151291339127025
-0.517920081134881
-1.014566616996994
-1.3052997306451233
-0.21539420583908375
-2.172572732446309
-1.7044256708875845
2.789128252382106
-1.3654027110737352
0.12778221569971954
-0.8392893301507978
0.5982271811472802
-0.8201866909691509
-0.7057844176418108
-1.166569992301954
-2.2465718646311648
-0.6031944778549806
0.05305723914825074
-0.24166757055726187
0.15080966886963595
-0.2537973962908507
0.0960787617908196
-0.3371605450529399
-0.18995406894116842
-0.022618585583232854
0.17755105653509112
-0.1515640623115461
-0.4504623274910309
0.19274325233721296
-0.17453425445450704
0.0655106589622628
-0.5044773772814113
-0.41674152586652324
-0.042206701478819865
-0.6090425197166233
-0.4910189954236707
0.2916251376138542
-0.12472481755633424
-0.34825650000119657
-0.2800272321891188
-0.6006703338756002
0.21781232787369803
-0.17158788828752594
-1.7188171036733153
-0.47534456552836046
0.19637252155314988
-0.29079416672385294
0.5066361576972528
0.6375753215769824
1.3932392837996264
1.1248817545398913
0.795185113230335
-0.01571512693180872
7.404661009206803e-05
0.2002256213347749
-0.042994725342936455
0.34291715405744766
-0.48401785552288623
-0.14168395131631462
0.32018146256497704
0.7494294497099687
-0.2892219091035415
-0.5817771879730685
0.7309539568329184
-0.06379263059948852
-0.22270496604334777
-0.27527221216519787
-0.685872397010727
0.5236159845500316
-0.6774456129238399
-0.6492845003122414
-0.5996979150422139
0.15149148402069404
0.07044025175874799
-0.4036742579239062
-0.6217091528874489
-0.34460333779585617
-0.4876484855031833
-1.2704843064797917
0.38769775340933077
0.175944933695767
0.13853696966648898
1.0731813365431147
0.14251455472200117
0.20163072727529152
0.9361059498686575
1.2847545075551117
0.5165783786937297
-0.26979767419850054
-0.34989350807766134
-0.24175137042753148
0.28580986401137726
-0.41722315401624355
-1.5314231581413695
-2.737380899925612
0.03716931241775795
2.5401376070939774
-1.5599611624172716
0.05573514931346919
-0.3845835800689447
1.2455127149901375
1.1482017184644828
-2.3566429817423797
-4.361716243595591
0.823413737166941
-1.3015751133862787
0.7682332187120009
-0.1490912971830773
-2.201571127888309
-1.705449083682145
-3.6388571770524987
-0.1365608619821662
2.8333996942531092
-1.238200436493384
0.5635008921078297
-0.9437579472398245
1.2265614053211669
0.10270195660499416
-3.3086598235001974
-0.7103419511951115
-5.10254102575772
0.5063061146383299
-0.0014340974176358435
0.23606234631439277
0.14548061283998526
-0.30493057115968075
-0.41269649507022116
-0.34822678877928176
-0.17784832526519137
0.274826108383753
0.7559094078070964
-0.27438740677803786
-0.6484065881772677
0.2326482593317734
0.0014827992587744632
-0.1763212012007956
-0.19137324162076697
-0.47017977950775314
0.008756635223710892
-0.2591653131869811
-0.7114085119292325
-0.4051918065427294
-0.25812848909718633
-0.6664007750421183
-0.16764829118578525
-0.5132540326192204
-0.35917614319399854
0.219768628531221
-1.926864561333401
0.49649149450513547
-0.2367204701347424
0.22716442844955695
0.23236098035979277
0.5037967708088614
0.04385301297386116
0.9611679558772013
0.5842427941845346
0.20982830108810627
0.14279618959838059
0.36761274935692567
-0.15473052274702567
0.3835224172856646
-0.2606937957287195
-0.1543852109593279
0.14466813732609957
0.3352657647515508
-0.005724444818105316
-0.08382860431130057
-0.03447294375331252
-0.24809721850158517
-0.02802943337293985
-0.4950684754057263
-0.3060319458333993
0.31363028325344144
-0.6704372389301774
-0.45199822817011864
0.46601126779219526
0.009867275109164414
0.2313246582112677
-0.5927948627014048
-0.5365910824540878
0.4591061155152213
0.1671155932706876
-1.0383500764880411
-0.8697032284511602
0.28026189800973256
0.12148290652419015
0.45667415143741785
0.5197581044641906
1.337703632821396
0.6728123094869567
0.7287757154437032
-0.028938332055629852
-1.0206846110773709
-0.10196113342587317
-0.05360546605829905
-0.16075563292354253
0.3505939199125675
0.07666393238756321
-0.08878025663332867
-0.33385863613196565
0.13767209193171523
0.11593689544039604
-0.034139596604133085
0.18923081949444856
-0.16956538845561905
0.4591934571023766
0.20053529965935968
-0.34582991634388016
1.3127457550621457
0.4353904083228632
0.10034058765622039
0.07570953646511244
0.1590710234678708
0.5203533978481214
0.5213827115960137
-0.2146069391247717
0.47138956543018073
1.4967565281910982
0.3701362227926254
-0.1605989960808848
0.0768810452873367
-0.2844188696187678
-0.7093390840602215
-1.7205889156997498
-1.0664945830520631
-0.6252260785866782
0.750386389331719
0.08029958453545291
0.5060612745364184
0.5033449729930447
-0.901716695676207
0.4818429845136557
-0.006467272319391171
0.4034246728703143
0.026012421291597768
0.7942471631391052
0.41708446629206375
-0.606324958199976
0.29329781854918296
1.4461728035802661
0.16405655531698227
1.321052121153557
-0.6905781027792192
1.8960171630633498
1.413009502541345
0.9543805107222513
0.4614278332572329
0.25987922752850084
1.9657498495952919
2.245874263060572
1.3631137627835828
0.7504580487800245
-0.09731555322588027
-0.5514308225542912
0.1808190399313083
0.3269897907874172
-1.017721805622148
0.4297338953768757
0.7949949089502742
-0.22040395202606203
-0.43186444497476495
-0.008831747025759805
0.24826675563957915
0.1069624124509235
-0.07822028098697904
-0.2837064181332292
-0.4358900114599148
-0.04749625230382395
0.3246574724389947
0.5350831414555182
-0.11680443770836167
-0.443786783272793
0.4176887206782067
0.02766970305825773
-0.1358103128104676
0.09317648674747366
-0.5065207664147987
-0.06033620979788873
-0.2554367715201685
-0.533680677640312
-0.6940374273168087
-0.07368578852066573
-0.833760113807393
0.41520607390587505
-0.4241299029058536
-0.7154732375210042
0.19567682925122326
-1.858204074047547
0.3892535947556255
-0.14664615192907313
-0.06877692845157224
0.8097205123151395
0.4120078224363455
0.1342151618590791
1.2012800493289049
0.6167206278175502
-0.2594244370040731
0.2215865090241197
0.11172111392917292
0.9226438817959591
0.15539759980361134
0.21297017830517834
0.9484806998504484
0.9136543244846588
0.1451005998411443
-0.7618039271148778
0.9454544331985207
0.48191774938456106
0.3329558788610391
-0.14524577363799382
-0.3563522900457374
1.928263687685454
2.3462433829546985
0.4514856694077728
1.4991369139588318
-0.18015334512065445
1.7516481144633682
1.0611248633425787
0.9301249995685108
1.6816416394649847
1.460228310778338
-1.9410429011134875
0.8534358472245476
0.7783740214983421
0.3923989156324699
-0.7940876385461257
0.155394608058518
0.31726845178032215
0.6264828298941296
2.0424554257108323
0.4776209684473297
-0.741039680790435
-0.10796478151835047
-0.4646588691795901
-0.5639118267835038
0.5967908848960405
-0.6802674833309759
-0.06414317102730895
-0.6295891253621493
-0.2877603376535216
-1.2809922953953576
-0.4889400430491967
1.0506161750899785
-0.3999188979177147
-1.5837807430764572
-0.5063867783670122
-1.2334371408269178
0.8057735019090895
-1.9641456773230772
-1.7543351347916312
-1.1728825081201937
-0.7957013717369156
-0.40965540011245916
-2.0278576020350028
-3.4259724901961386
-1.1700313920539223
-1.3311807972891445
0.23080440049175807
1.1058380239125178
-0.38473716395536933
-0.007654433704537201
0.8794747000742335
-0.6787705762329607
-0.6901661576803781
-0.010756652324633686
0.7245273290758396
-0.20090522624535995
1.086220584843735
0.2652027337666141
-0.17362038993791856
0.24315068154780856
-0.38626579055462795
-0.0893152005524137
-0.055944186629305837
0.3531791972948615
-0.10033816006826123
-0.19912026636074626
0.013004372547471714
-0.4056739372720813
-0.030356623425748474
-0.3888439735740966
-0.31784082897236543
0.25348859229909965
-1.11851264754739
-0.7203091346359025
0.8666075902407514
-0.25415323787587446
-0.2799116474395323
-0.5837688086525776
-0.8070777963465825
0.28404590207924507
-1.0090314636126914
-1.6041429177818574
-0.2679142460599655
0.06888195936282822
-0.06706407531497861
0.5000320709027908
0.5149027845623718
1.7916467505498639
1.3998025713185014
0.947452470991099
0.17548704255912678
-0.2715077413080402
-0.9276829065108809
-1.0158024912287953
0.043897499306317256
1.341347146480641
0.8193553558952931
2.8306393388630595
-0.22138613763773485
-1.2378974365636457
2.17369589372461
2.776346892892834
0.35098397856570535
-0.3782801121891953
-1.2300509926915106
2.2421751647954493
2.34821129529544
-0.7338074980252037
1.8087941607009115
1.5483871765717347
0.5205419442423636
9.454537774980253
1.1269345166017137
1.9218848640822181
1.3344306211938517
-2.716791558853983
3.457177723624345
-1.0673920254840514
0.3355136324064681
-1.5268958820976744
0.29881276250069594
2.929041154093505
1.7865301465233039
2.1687685251792184
-0.5433314692349098
2.1628869279298155
3.232768191608427
-2.445337622942975
-1.6962984350418213
-0.42602363249454406
-0.8805636941428969
-2.2092302689735055
2.9080952601432135
-1.9326816107966065
-0.11233297062232522
2.1845456002876866
-2.3631231327182185
-2.1424249857070023
2.0937362098415644
2.4092457373200546
2.2145214813646525
2.2614466817622083
2.3615053654832154
2.0932232842723493
2.531744102836488
-2.8810303476329686
2.3249353468208027
2.261954394939354
2.4926976757353905
-0.5093132297382689
-2.6090268881197014
0.3515033954695917
-1.454139245356574
-2.048074687317475
-2.136730352690175
-1.7875685680503304
-2.451653100791232
-2.4011048021969184
0.4392238138169976
2.405877711854338
2.3159795991027816
2.2835130215975554
-2.374545703900817
2.563579429472365
2.1336147219677972
-2.2793291948707526
2.0275436536167106
2.2283311518581206
-2.0116223283309376
2.3833784701276963
-1.91713286543081
2.281072131617143
1.2956610250260323
-2.040901945631093
-1.9206398316922413
-2.2965756394212695
2.2329760637555
2.9269991312471757
-2.2456105036883804
0.11303971947339152
2.8458996376033925
-2.4787143871931185
2.0237541839048894
2.208834482818866
-1.760998848534933
2.3787415871956026
-0.5632199236597978
2.083872193062374
2.1695061790848973
1.960266989431575
-2.184157818344742
2.573804634703228
2.1408047726062294
2.445399885446001
3.15660098061932
-3.000899354161111
-2.302996617464344
2.1689802622467598
2.338409640346237
-2.2410386041061017
3.2795429898640074
2.180512740053147
2.327291768862814
-2.355184409467095
2.511070962621605
-1.9828210998985716
2.6861004503463515
-2.1567175931480294
-2.3920855963180196
-2.1654980183329053
-3.7280541116062538
-2.2374790476296536
2.87831654478932
2.3728958720916857
2.2840795830447047
2.0814358526671
2.2853419320783073
2.121693953535999
-2.3670528562583657
-2.9648698389041663
2.2233557911469126
-4.42288583404696
2.9978842579506497
2.2134100013372393
-2.506462902816193
-0.28117981960091276
0.03699385086417699
0.002868332260894776
-0.014328002022096093
-0.3808624986828049
-0.7679288852816009
3.085608288037706e-05
-0.005333471597959314
-0.06164861871741092
-0.5604510810949231
-0.0007437842384890548
-0.0002757067049261893
0.0007714466958020914
0.00042026109149922183
8.585526861890439e-05
0.0001270031807796669
-0.2364268212513962
-0.01778864475002686
-0.20799701659096848
-0.006187902541694382
0.0024594344263239587
0.00046385778952311575
-5.391879587406689e-05
9.004985380341404e-05
-0.3287252508379805
0.3696637702160592
0.523243916632188
-0.31728361134575334
0.000562095742943643
0.0011803339237268402
0.4554111450805318
-0.02699337297126371
0.0001981586059548189
0.8455416730337998
0.020638828519091577
-0.0011336762847817662
-0.0006541081589033728
-0.00019038683090600474
-0.17424064366754138
0.00086695488353407
-0.0005279186573878575
-0.4848609180553274
-0.00043520869915167793
-0.00029889739798325416
0.0025002074207981563
-0.12917491298853406
-0.000587393174737222
0.12506160862088422
0.3447447131482414
0.3363497500106855
0.15287117879197845
-0.00028106805664274
0.048036458441204265
-0.07459434312190097
0.2811734731969334
-0.00020059843522811336
0.0032087188596644782
-0.0001963757726767525
-0.00021223271720990404
-0.003234590169245811
-0.8162571448726879
-0.24316465538317428
-0.0001654392823018574
-0.00044590889504030464
-0.344343787878164
0.15085394170554867
0.015534825323020574
-0.00048710113027222105
-0.1503830746481995
-0.009186230874259314
0.000923837011870841
0.001595570290810001
-0.0009439217347330715
0.00041019634325001103
0.12186552439049592
0.04524148278098904
-0.00355189688733839
-1.7012604511913457e-05
0.00022594818052818272
-0.008051708273349903
0.5312217207771656
-0.1337994547946485
-0.00023889422598828252
-0.00021991824196277077
0.0007441277216120049
0.062715667752
0.0002685652458481624
-0.034066842007178966
-0.0004121513006869813
-0.0002410243927651889
-0.20712333205628397
-0.001690016271423851
0.00032335707626921287
8.562471528909513e-05
-0.018011488395659928
-0.0008309403972775245
0.1905542414704299
0.0468549127463004
-0.0002423912718905905
0.7021128083390713
1.4381843923320863
0.17915518340832448
-0.35809993095430415
0.3044569636658558
1.6870615597231844
-0.06569112739595552
-0.23081382625170002
-0.28328205368676423
-0.4384698822954028
-0.6488975521601312
0.18805108181536698
-1.1487214138315884
-1.1742317687550583
-1.6567603420508514
-0.9810227955423626
1.604567061844796
2.186591795510871
-0.4143224465613964
-0.2733867995285338
-0.7523339483888491
0.9203044759520209
2.073942069536313
0.30038642744662875
-2.121436435653588
-0.9537708943779502
-0.8925844888091037
1.6234537977734316
-1.4108281859554572
-0.324878106411644
1.9303667381337515
0.42392166120033875
0.7706204298235646
-0.26391710895211223
-0.2688514459567624
0.5937323449605275
-0.46761052691945354
-0.7370737752795077
-0.7791052079637273
0.33541468624489684
-0.020497042340601766
0.4920053024822817
0.14035979486025704
-0.002373888842202015
0.03913309051095903
0.4111447437496256
0.7185951053077159
0.1880953636736492
2.5304204234544128
-0.2434264736283803
-1.0358275980639815
0.07707207061785983
0.2707698950733054
0.8445153568259641
-0.023998641257081673
0.5475106329066582
-0.2616194877493863
-0.01589168293304036
0.16402950417964748
0.5246853977025189
0.6038575061251701
0.9753010870163211
0.8195021856010253
-0.9018374695793707
-0.15107580466009132
-3.760732496549575
-0.21959510190163575
-1.527307411235555
-0.2757540411594085
-1.0934548363027634
-1.149361067248502
1.4785010503319835
0.16619209467280077
-0.11531607409997989
0.19783162812175276
2.010668816993364
0.13483858803995138
-0.20135841492943476
-0.48886699588843513
-0.22981210256908896
-0.6774280874320239
0.420678902927967
-0.7603807342949258
-1.2616099454950613
-1.2199869017502478
-1.239418194084504
0.9892562429019931
1.178895954417523
-0.6430870006798155
-0.08992691343136217
-1.1228773803302505
0.44024499350681534
1.594042409725253
-0.26352841330215276
-1.9533298054741102
-0.6540936910515364
-1.6233118521178742
2.2070805708847985
-1.5508751062171504
0.8584270758653397
0.8599293056716504
0.6232352874253794
0.6905641618059596
0.016429876757709738
-0.20293119393649106
0.3221430905281788
-0.18971998006994925
-0.3990115619617235
-0.3341205834154821
0.06299510257776411
-0.002489905411570425
1.098877275939032
0.9362617980718513
0.4890338219393814
-0.25380936723194236
0.6562493469645965
0.748961075339562
0.3816844066828143
2.714377091846401
-0.22464669844540333
-1.607521263324652
0.5857143061269501
0.7429515184633949
0.5457379519383628
0.04023758735673217
-0.20917642174103593
1.6852241639409091
1.3014094933189089
0.9974834325301603
-0.8174848190277881
-0.5453157659753836
0.1638614542846892
1.8156669767695655
-0.6578001959816673
0.5068181993505646
-2.1074237397249274
0.47089644044377144
0.4648113486996185
-0.43122069711811445
-0.9951481428481874
0.2994548889488288
1.7929675833085066
0.1285875391304662
0.03864042607134716
0.6040905509647889
0.6210003705332184
0.1419237728281654
-0.36863276372270193
0.14749043113603724
-0.6672110835890827
-0.6076992887796695
0.5936953272323026
-0.47548906374428196
-0.5765247551823924
-1.9438966334458063
-0.5346741736753314
1.136448190417068
1.8472074907855598
0.054892434589602974
-0.5872873959114954
-0.7702237864296045
1.2724612891077371
2.1625800790088476
0.7447393417442083
-1.6604281694695469
-0.3575954018185051
-0.5183178926102636
2.6495946997508084
-2.2499416500578855
-0.16695400891139647
2.4674047246864355
0.4236264263912138
0.22101891573020546
-0.3942042819987285
-0.3435080640333132
0.5175818885397966
-0.5179890446087158
0.28273812731311626
0.13271537105133768
-0.5545150014556378
-0.8295226864856022
1.1950707391057172
0.6816959439925994
0.13875388175580977
-0.16932960403650604
0.8150326861354127
0.9934284415636877
0.3413491973136679
1.9458379807250261
-0.04176471153088887
-1.3306968950262246
0.8892388496047511
0.9268853576160236
0.3181304474181658
0.047651283956798705
-0.4482362751963955
2.5448073240421714
2.0300399124262873
1.5629142346747835
-0.6435555920555013
-0.25265096594349823
0.25179902824341016
1.612403879997586
-0.7635871586172267
0.4818987663252518
-0.7755746826314694
0.8991293730735961
0.5129116554800063
-0.47607482191845074
-0.4914934212673868
0.9358375423898173
1.1798859792370409
-0.38569801412244314
-0.842836616648445
0.25463846803029644
2.6458357249896136
0.40842879258938886
-0.2329332779339477
-0.5821226646933295
0.034671396366961885
-0.6629412140260549
0.7705919248946503
-1.0604192278758193
-0.332494653407248
-1.8858852284788383
-2.1841033254383038
1.823876086471208
2.6305098770283566
-0.42122717559582795
-0.14885808443262913
-1.888258922445577
0.7990084247147222
2.3899135109439364
0.5718918343103387
-3.4217692120022805
-0.9539807307786163
-1.8632690798503964
3.3158011126546665
-2.009703507185762
0.5841636336023879
0.6560649632374854
0.3395083671742262
-0.12508084607688527
0.3241369932138649
-0.3287211501146304
-0.2254062150975199
-1.5358873426297248
0.10356060005672606
1.255959785918075
-1.1075000916546813
-1.0494453413173952
-0.10171268754133511
0.5526769621010349
-0.4651829482772523
0.7127241977639404
-0.23038090916943557
-1.581993871685867
-0.7785789950580022
-0.19473903830937195
0.2626889454678305
-0.41137136138453634
-1.5165951948556262
-1.5248748249799167
0.7438968333396816
0.2525233994069811
-0.9729404195874424
-1.6307950114463632
-1.866170897461692
-1.3270126817825658
0.933436228611099
-0.322488023004181
-1.7937759686149144
-2.2370146621627747
1.1877750056215335
-0.5278057046945546
-3.408383408334471
-0.4013022682146586
-1.242119617975422
0.36961771599559073
0.0638619059754025
-1.7865255115889203
-0.17225489126950208
-0.9794122216527669
-1.2001032716868003
0.25524989104489004
0.3391651887096516
0.5726853125956504
0.1572024491753724
0.1403962323069325
0.07772710043671963
0.35561970820689986
1.138685659546247
0.11393200605059242
2.350340094259472
-0.42737302654282205
-1.1041016646427915
-0.03674114347609975
0.7857095312701348
0.5740699415520802
-0.1267973880089534
-0.1063514657277858
-0.11242955209917053
0.5366300305176912
0.647003036554343
0.25637048826612213
0.48916855420585403
1.1335714135326085
1.4633139382348082
-0.5902584678705441
-0.5679309610090136
-3.565940605553196
-0.20462704119301303
-1.644375807762393
-0.6599061928675429
-1.2124210772605202
-0.9485847014172655
-0.22503025559253859
-0.21674133274994742
-0.4073304619052436
-0.060220821944475186
-0.3599715824732051
1.2004360027280154
0.8607712878593079
0.3734628667566251
-0.12027696660081867
0.7367158971158179
0.8983541851550827
0.4814639465952915
2.1806349837004833
-0.1561873651776392
-1.2215204675197635
0.6255752915005007
0.4732561992815557
0.48986252901703464
0.111852838061586
0.09734717201252863
1.5332062731046454
1.3676829718400687
1.0850939515085283
-0.9787578027653853
-0.4528140206682238
-0.1356286653936445
1.4492848674938832
-0.9322552378958473
0.12820433329083325
-1.3514413969560242
0.8334137817945372
0.5399258010498947
-0.5629304419062724
-0.6919846359129384
1.1240655348105903
0.042731682951212595
0.307260437288688
0.50209725175885
0.006890993187279614
0.19044218192688375
-1.0872117691743088
-1.0203623123796695
-0.509374631350235
0.2318077012315876
-0.5652942190934319
-0.6680247738223741
-0.3617095697294519
-2.7451447249349132
0.2275670625229315
1.5864341549978551
-0.7116658399600355
-0.5535397058488492
-0.6307857870624825
-0.05754041723096227
0.05845803982570085
-1.6817316219812897
-1.2394086914119726
-1.1425706276938135
0.8799636731675262
0.6403402419961779
-0.32767718222498754
-1.8574365121141436
0.9412452254859119
-0.2319772869629984
2.086867347748366
-0.4787797670601536
-0.4152684138108362
0.5013723076420047
1.0394695349991057
-0.46538972561534686
-1.1921936062823693
0.8594285198105774
0.986906825247448
-0.17657607862305907
-1.6387976378451414
0.0212067502899474
-0.027469422428637025
0.05216444169889969
0.45856357319889585
0.6177981399518883
0.025088021295065613
1.082316284845642
0.16535857253107009
2.9713092672663457
1.0484713873577565
-2.57006306139493
-3.520544500325638
0.05178704992683226
0.3284144160074222
-0.6544015668212518
-1.5625263605428783
-2.689923700187502
-1.3686963288792917
2.5386021921755906
0.5780276812323041
0.3843718422604516
-3.5512573288408316
2.0290570333118247
0.47862121273618535
-2.4823957985889833
-0.4557377584072784
-0.7737710637340587
-0.03281957197164228
0.5879271015378902
-0.41835720850590263
-0.08153237551192324
-1.0724863887478626
-1.4607758124503702
0.32549145174744065
0.34521307238516996
0.5815080328517802
0.01637968639404848
0.12142857343597391
0.036671024071629615
0.2845883738290615
1.3507003279271506
0.390271932309843
2.1282454816275194
-0.663397008795589
-0.8848261499039144
0.062017691160219574
0.8194236047548498
0.673978331666688
-0.21854564187608655
-0.09231351959564972
0.2173331613307785
0.6387280988139821
0.7094802148757917
0.042160635700008275
0.3019305689065718
0.9643439026918841
1.8580330512128904
-0.830110166421639
-0.48101607187339523
-3.169040291183703
-0.290800985143452
-1.344635012025311
-0.742608002467791
-1.0416947177404154
-0.7226741197977793
-1.5144791321292417
0.19356002828827065
-1.080466024907524
-0.41764523363800193
-1.0327834013689827
0.023008548179792608
-0.9973558332572912
0.38138888533821663
0.3118217653189204
1.317581102250535
-0.7654556760746785
0.8704504474170577
0.5017377337176435
3.4841523051761834
2.2594096469668843
-0.8905366084407336
-2.79149613657499
-0.7485991665047707
0.8881929820329434
3.0868342392724197
-0.5381089727387577
-2.002760428013581
-0.5080664997298526
3.280105893414984
0.33902985109817935
2.6778689829425835
-2.880923619881152
2.6380530428522
1.120378670029184
-0.3980267279746405
-0.5277169047738728
-0.017630109317824633
0.8408362266135007
0.8760816201471514
1.1684810472671037
-1.6855224432459082
1.0964280770033379
-2.3792094137633764
-0.4878094323028688
1.9821009026246312
0.31423715404301744
-0.36148670294874086
-0.8260614136721114
0.14056059325687068
0.9812300911770172
-1.6426728175177547
-0.7457773567897814
0.6276481733882004
2.1686767841884746
1.2511681189541102
1.770178887391948
-0.9776492379208217
-1.6637444734716598
1.9024324626717084
3.550418416947328
-0.6597136819382979
-0.9189267506245931
-1.5423142764759756
1.4687126751492192
-0.9506266051325091
1.0241932577758652
-2.135276285303688
3.714036974709696
-0.10671521428743845
-1.2153903756104756
-0.15025317717530495
0.33824303149357987
0.48878306669832233
0.07664781608517215
0.4017736439238497
-0.02268318680922252
1.4959026731423142
1.7506664593626777
-0.4775090074303588
-0.4326552040685674
-0.6005306104664929
0.11643329350404963
-0.21507042465727114
-0.0755428391724469
-0.3374076214899683
-1.4720933995548284
-0.42766116413695265
-2.3458758909869424
0.7678064532438152
1.0766192700951462
-0.29154144339694216
-0.795794689264674
-0.535783927850167
0.3965107667365144
-0.06738797576769025
-0.9286796881428783
-0.9541548479238467
-0.840097738382622
0.4255050564311077
0.06586262245383784
-1.1628022307689072
-2.389184181998095
1.2901944349422494
0.7146054321237878
2.9255827269859735
0.437892776605761
1.4248503842184033
1.2632398912982454
1.0890033758070297
0.5128762658852704
0.24067392442415267
1.4850414811234671
1.504244293590464
-0.46115104258268597
-0.6592673439670416
-0.6774125922843625
-0.0023028039333713862
-0.1763071247301551
-0.18321971982504123
-0.452188357184838
-1.1662387717194593
-0.10744206179805188
-2.9435397995160737
0.462967422076907
1.4091133795280844
0.0491295472577499
-0.5967610206812163
-0.3413079549754161
0.14937995107829274
0.18089854870239414
-0.2224931401572637
-0.5763132846748026
-0.8357331212683374
-0.20168720403507237
-0.20447621341093478
-2.1308094088274037
-1.8296153903587722
0.700684167851604
0.571701733664402
4.3001497903513926
0.2399357361490701
1.2865406720110064
1.3332426433993125
1.268936191823867
0.7741748344104823
1.7720403973787067
0.1991017946454481
0.6080350469333251
0.511123117567819
-0.1512369340054966
0.08090333050483658
0.11433357690408702
0.7938740765037092
-0.1602354707884247
-0.7577642000378488
2.532543217585713
-0.13604260293328482
-0.029786501227294183
-1.063911482600019
-0.8176949687545109
-1.4158174600378917
0.5295405575328755
0.4829753699773614
-1.5050153179499959
-3.790295612765714
0.2549683041162242
1.46196612779457
1.2508009635305397
-2.005085313804387
-0.45122445986387527
-1.1717030633125527
1.1875112007942752
-3.3043934153217913
0.8908240764114986
1.5040026984491992
0.5914917850364191
-0.5458539107387153
0.547565741713361
-0.3237302328420544
-0.042021402424109296
-1.5422019184333597
-0.3797208297328827
0.24062543821821003
-0.4152288539246281
-1.665798597459403
-0.24076587809363653
0.21610854584217276
0.27414580886139694
0.3465366484948519
0.6487556576838593
-0.8795298193627342
0.9364500131013457
0.4416471506813215
1.5484927904031187
0.8872419076958878
-1.1067805224394847
-1.6135923899168194
0.3105241500576959
0.37530658266870587
0.910176746406884
-0.86612488171105
-2.048071392333841
-0.3653151941730707
2.0894139772031526
0.9710166646249067
1.041733250868373
-1.9717410965631064
1.8271149971984348
0.15316773966757263
-1.6968802707045159
-0.5428719576266429
-0.6014051300580707
0.0720198402853241
0.5168478134650474
-0.4716631057772831
-0.2482492351511834
-0.29852561225202107
-0.5069012377372497
0.060624463754398526
-0.14554510649214464
1.071933787807919
0.9111523235205774
0.40481931403537647
-0.20491989987530612
0.6237946624109642
0.7300331749622845
0.45260498748948397
2.4272882249496543
-0.20613224806601785
-1.1778430298560871
0.535982996869735
0.7739504625207906
0.5428071685364778
0.0397490666577674
0.01872041453612205
1.7675226409896898
1.2161403911332456
0.8723326491735713
-0.7600990088843808
-0.3648395514729819
0.07857129883898054
1.5243095640026982
-0.7387633143340929
0.3676356597399141
-1.616832590974535
0.5306598670562319
0.5252193777720159
-0.3389522339887914
-0.7310806404179427
0.5608569761762203
1.925375711501834
-0.02240285975909639
0.9766590282130048
0.5936883225610349
0.45156271503573503
-0.08838374998733317
0.18757308866965333
0.19040488107169526
-0.5409685883597508
-0.8032741779259799
1.0269129393825422
-0.4337839948288092
-0.5814668243001767
-2.5310358178273744
-0.7697673359501165
0.37694225793098685
1.602532241652127
0.784267800832524
-0.8600644100854324
-2.1938938141006425
1.0936097996163288
1.905047624070637
0.8304488231888216
-1.8915221390584867
-0.045191677121976706
-1.3739214070919479
2.1623132545326595
-2.644177264633736
-0.35459825131897954
2.165430774173197
0.4535196777011824
-0.032178811282420866
-0.5310694312661256
-0.5444297902631846
-0.04403768315940252
-1.0528483827743644
-0.467762387853489
-1.9590251709451496
0.17622355313190438
2.385550109403655
0.7179522111637038
-0.32780477835630634
-0.5635872718496306
0.7502385003618675
-0.2030212723284938
-0.016345584025922344
-1.6658261690171978
0.4714131066591624
0.12883841641248459
-1.575291390008798
-0.008630347270224461
-0.9200949508447133
0.4711515112187883
0.1978993633482018
-1.936165100189387
-1.945092886075917
-0.7618943284246267
-0.3112159299816022
-0.880484325794519
-1.3887102913897522
-1.4930000271647101
0.48089403514735474
-0.743381560533222
0.7491505633636427
-3.141188969426434
0.776989892522994
-0.9372583201683934
1.6112790592161914
-0.16970902101960703
-1.9723491639340223
-1.8003030989082862
-0.027776539676448334
-0.7211090626678704
-0.6194424923669639
-0.5219529045006068
-0.07772593175220881
-0.03344929483227138
-0.19015695798711615
0.43683082724231487
0.9461558325628334
-1.0969069120472466
0.49435128985029314
0.5745584431406192
2.210774511256614
1.1516692932217767
-0.6445761507585667
-1.698282754087016
-0.2119633908042285
0.9265984592835892
2.274140549800746
-0.6860135057321549
-1.9700273516995532
-0.7453451438306068
2.0998581848695133
0.43550708103206304
1.38116040198293
-2.3263050843596544
2.7214563807554737
-0.005390261794088209
-1.6500523015065853
-0.6084426206418425
-0.06283101903986951
0.31493304806524336
0.3454443663519916
0.004934503234083904
0.13775426754792375
-0.3593737545088908
0.13525866897717861
0.5269225545842535
-0.6027539586501235
1.5569258498576757
2.640997287803776
0.637749828304813
-1.7012591555236087
1.3214721455160927
0.3904800679157324
0.08028620308199756
3.551903066680275
-0.15601120436137605
-3.354251526995317
0.9007073497352613
1.637407232194988
-3.538598225416114
1.127288398663464
-6.048143296295007
6.397871118357028
3.663879040645837
0.9395730442118637
0.16857849863457208
0.9515366825535401
-2.9877477121327813
-1.941635576044704
2.8273030044519696
3.9644562979001816
-3.0088632949371568
1.69183684368642
2.2362480631863026
0.005596538151010472
-1.1852865994203323
0.02422701935303422
0.22379105269944086
0.30761061421330266
-0.3111528867667523
-0.06370420814580548
0.41329267960516874
-1.2561284103416952
-1.6071791964729731
-0.7256060853179516
1.4146509228422188
-1.2966663830481526
-1.1091128180169665
-0.22460032021581244
-2.41836224760429
-0.3759052265011291
2.7578883081619967
-0.6306527601192076
-2.246996957661636
1.097775781885265
-0.07128192180820868
3.9362984048311223
-6.254756414197158
-3.1843044831668115
-0.32436454936346815
0.036923038074891126
-0.42477544710221765
2.682874387255119
0.7276693369951303
-1.545278597528327
-2.9842069624674594
2.3546338992914424
-1.5869759876207012
-1.3012673308631986
0.5675098342311657
0.9178869095549292
-0.21794511483813897
-1.7832310862905867
-0.3549235418546151
-0.3616347839315264
-0.5294858988212886
-0.5225892666359511
-0.19795891106391356
0.1957794158385476
-0.13921009432074005
0.25019118386173594
0.7437176604500004
-1.49953722128202
0.5109829411621613
0.6962161587814012
1.235432669625178
1.156188199062741
0.09916606094931178
-0.8559277043299276
-0.11595439356579267
0.8879346733786103
2.6144423725825563
-0.47038350503889026
-1.726945849783113
-0.5037738640451106
1.9129448212137101
0.6686618984919813
1.550761330479889
-1.599957854636694
2.163595086024376
-0.5003215425211209
-1.0173173428899687
-0.655289267472998
-0.12848615563307345
0.195465862888795
0.17829391106633635
-0.30061771507061963
-1.0384393948224089
1.0364040667909644
2.2968622869076696
-0.1404130114682445
-2.8455506227525333
0.27791832379429454
0.45847277119087954
-0.3287599835163375
0.2946591588420793
0.047994740886925014
-1.227776008625733
-0.17127994499714547
-0.390138585905555
0.012164773375113128
-0.31199935227646985
-1.7633653636525783
-1.7198369482006546
0.6941822261394016
-0.10548336710345814
-1.2921072278886103
-1.4574573549067018
-1.796150702277222
-1.5614358619523168
0.5229850856080548
0.10352367924360606
-2.417630092593532
-1.896065565362981
0.6341023283900676
-1.1220924938670458
-3.0174820271380995
0.18236869731772648
-2.079673553859529
-0.6184557229218074
0.3725644685658548
-1.4107473420153003
-0.23502997433953715
-0.6401879410843943
-0.43816199010235474
0.11897278173840321
-0.3388252606821592
0.5716468214104726
0.3749186902345978
0.4027261314968043
-0.4433188926793476
0.4696595726521035
0.7098875247887103
0.2368859733912642
1.7512716408121074
-0.009178476336617085
-1.7518206517507686
0.24696908878829518
1.9740113350427482
1.5510046739969165
-0.35179283385231735
-0.6326570289623553
3.2728250107995667
1.5264347501361049
-0.1399103108210815
-0.6292324208167068
-0.18822363658992855
0.2537678597858596
0.7662703714231395
-0.06258843647997016
1.5543986706143933
-2.520387794345859
0.26627668493703377
0.003677656925347059
-0.9418056131509479
-0.8488500110731666
-0.788216606259819
-0.23815683545134714
-1.2894600629247845
-1.4679276201959166
0.47590073966255547
0.49903205540230955
0.6311974585817499
0.04131486273173194
0.09869987251610375
0.11415033452514804
0.38778577319197977
1.2433224380632482
0.09669839622187804
2.600046586183348
-0.5189003944609383
-1.0812694916953367
-0.047896866206463946
0.6933354279826665
0.5525018454804862
-0.16543375885887068
-0.3073805374707537
0.2865880488920204
0.3957145496377624
0.7346517816907359
0.2743936300231454
0.21858566512261754
1.3841140374241734
1.6199797041654693
-0.8627723603566148
-0.7182355508004535
-4.078730536043735
-0.18370817696570158
-1.6758361971859255
-0.8359896468060114
-1.176696242877651
-0.8705450311456591
-1.6321670311229435
0.017119064782247752
-0.07022063761003192
-0.30775404618308405
-1.068338848495714
0.0837681528427319
0.2036101921248719
-0.008687287478384563
0.5131447192443874
0.6751129858535821
-0.4634737715092828
0.8833874193743083
1.0678732130034674
1.9788561603266583
0.695856782037776
-1.2669810062364544
-2.0691514703248775
0.24259063813516046
0.47323198673675554
1.0636955260037135
-0.8449319909413336
-2.092070053681798
-0.5850867105221034
2.013240843939699
0.638984602775051
1.0353673414048123
-1.8128001260603483
1.5482837994314569
0.11191202626461966
-2.276718091953502
-0.6089584388867911
-0.2902549043077884
0.2873423812446698
0.3429498647325966
-0.38759432063078064
-1.5312546519290984
0.15649661823133165
-0.23062262309637763
-1.5345671525014184
1.1366395060772225
-0.24528613238100974
-0.17588296059391237
-0.42108444760723784
0.6564031726874686
-0.8095936935380167
-1.93004216960013
-2.3744417604584154
-0.1168864639262191
-0.6920078466275467
-1.478912062635879
-0.865890687942711
-1.4003098836325154
0.6695230094824985
0.04372489564359513
-1.8191318042975857
-1.9617041786395424
-1.588140691808767
-0.5685008190363995
-0.4894023300628282
-1.0530611048779297
-1.4475299517125462
-0.5277107295382313
-1.562834514882012
1.0913202832567028
-3.33409908707297
-0.31575896550506005
-1.3131646529840302
1.6280578703514437
-0.19672606379167035
-2.101430885556557
-1.7611590303868123
0.9710327395588546
-0.5956396370516723
-0.6149106863870103
0.4951015657916316
0.17139381246183133
-0.16359934150150693
-0.49006558415176715
0.7815711357236879
0.801316437521198
-0.6344013758901962
0.2409015432197351
0.5500642537430409
3.0537596325482808
0.40520222506450626
-0.9624410379439902
-2.5113402227263997
-0.6924910566821011
0.9767259041840085
0.7685755735070026
-1.1901621996630425
-1.9548078586256337
-1.4240740142434507
1.737149941296788
-0.2700031242577139
0.7389889685815173
-2.5662805560446804
2.641350249043472
0.6991725767385611
-2.8956247993420625
-0.288303372345036
-0.3851861750166759
0.6760604600845459
0.7526261002640191
-0.45535952854751205
-0.1637855227093746
0.11504310037254382
0.15410365513288396
-0.3679871667167524
0.7278691680473794
-1.08621511805928
-2.547207992605842
-0.36786600039486295
1.3891150613934564
-1.21282580406729
-0.5100109072237721
-0.28111107900900323
-3.1857020962020197
0.051120537751530463
2.488571983459051
-0.6259324528560202
-2.053222737605916
2.241604909365205
-0.5951480370999882
4.934579063189653
-7.32448330962253
-3.660155632703177
-0.6177158959926833
-0.40608164482834375
-0.8019028663418987
2.1617437300133893
1.8910260673688477
-0.8638336871002663
-3.3501665255398265
2.7144107851680497
-1.0700284258015886
-1.7765412410165746
0.16875968090222232
1.1336934232377807
0.24194303165105147
0.07980784849332918
0.7937589074927757
1.0176920204073918
-0.3138619768411247
-0.09844611774282662
-0.4507350164542781
0.042701935019056
-0.2160018758905722
0.029848685036982837
-0.21091166577352327
-1.2974669610223757
-0.5404304826810763
-2.186041812582139
0.651294661063727
1.024325885090298
-0.317628739694242
-0.7876398950988385
-0.8177025390915337
0.26047076193170615
-0.3343442982154148
-1.1063666385475524
-1.0333213862657389
-0.5288960438539012
0.7515073157573633
0.09031999336785068
-0.6659996864349923
-2.175625639334291
1.5052237602407434
0.4155464854688114
2.4631323255171673
0.41793340006820495
1.496539150476213
0.649686215659569
0.8277080296377417
0.7344572309818661
-1.6779957309724212
-0.07074552360761165
-0.3548874768122004
-0.6144175916311946
-0.364299506854706
-0.18020580378555837
0.042519209015171984
-0.3123909396530316
0.11463433893871428
1.0319722584003
-2.2941072181606494
0.49840286190175676
0.1988282590530609
1.7837722538469956
1.5459654522718167
0.159030850787873
-1.5194246035867887
-0.1113710273369446
1.218532402697278
3.5898821250635673
-0.367486595584904
-1.7500323575857288
-0.8676665429911598
2.951755108752994
0.6762278866806605
1.8274822524742278
-2.1120424570494434
3.188416478282219
-0.9067642951499008
-0.7987229465184764
-0.7724213290291535
0.810276674666818
-0.18488558696714436
0.26638785313077806
0.3338583842932246
1.1279082176072448
-0.03827346649568788
-0.006226207795514966
0.4139562112508673
0.40881265078122486
0.13121516298784866
0.4614694641777257
-0.1891327766330902
0.013065629785588156
-0.9905059488747293
2.7290123986487327
-1.395333432333339
0.6067049100340777
-1.675075539696321
-2.790562917705332
-3.66603232762812
0.2769553265875681
1.1741428665442057
-3.173080183220084
-6.1619314652872985
-0.21500442748772444
1.2672887826836907
1.6937184737652569
-3.4356496105396044
-1.7093954018113429
-1.3021530915177362
2.3634652405994294
-3.622128314752961
0.21142811599268266
-1.380503925339328
0.8024197099977807
-1.4354316052341085
0.544653398855923
-0.6668921454810944
-1.0173996001702597
0.029724113054657587
0.05554993874070939
0.856719185870516
-0.13991922474649987
0.4390337788936462
-0.27583641719920127
-0.10277792353042198
-0.2585121305077412
0.08733337093656506
-0.08593125896074698
-1.0311841671514375
-0.5180709677646991
-1.476516947335503
0.5912625779633182
1.1971718771727162
-0.18562186143744308
-0.7209103369424484
-0.9246947551646226
0.20253940164632758
-0.4155594421497166
-1.0649655395625655
-0.9155721505609528
-0.17342152136101346
0.5836025484650388
0.01886111764023294
-0.1741689641393863
-1.5280393106772185
0.40738420479001886
0.055545421430906544
2.125440843788042
0.23087180033738997
1.0651110445613095
0.7874900184670475
0.5044531739451901
0.3059347562218715
-1.7181536800600552
-0.26688881597115816
-0.6892346474431923
-0.4413822842107847
-1.0607771575780403
-0.14643349782413154
-0.11323623341555808
0.16126357637448896
0.27461497715102406
0.911615154603557
-1.0888952542426622
0.8656480810793907
0.5945582267086923
1.9899331881087996
1.3350474221247923
-0.5746128422133887
-1.5419562122562012
-0.14789330388082053
0.6806331812386739
2.4380991368272684
-0.6818765698647685
-1.8926783183225206
-0.3326370209230578
2.3441402080971363
0.6818322262052736
1.909308118185183
-2.0128184277368573
2.380944897067105
0.4748451982303246
-1.0673824113355843
-0.547711466792877
0.04098159858668657
0.4149799252523132
0.6138029049681857
-0.022582858669718806
0.06387919750171078
-0.002996868467714053
0.5045476262272782
-0.00744677745904162
0.366334509966901
-0.22125147585357616
-0.07638108432981527
-0.2119112920470157
0.11285344448929592
-0.05354904968387525
-0.8960691370683026
-0.5299785543796092
-1.5152107878875243
0.42794788819841
0.784381106058113
-0.10710929138797275
-0.3787371101813097
